<?xml version="1.0"?>
<opencv_storage>
<stage5>
  <maxWeakCount>10</maxWeakCount>
  <stageThreshold>-5.8610320091247559e-01</stageThreshold>
  <weakClassifiers>
    <_>
      <internalNodes>
        0 -1 181 -5.3187739104032516e-03</internalNodes>
      <leafValues>
        8.3743840456008911e-01 0.</leafValues></_>
    <_>
      <internalNodes>
        0 -1 149462 1.4453804120421410e-02</internalNodes>
      <leafValues>
        -2.1176846325397491e-01 7.4938654899597168e-01</leafValues></_>
    <_>
      <internalNodes>
        0 -1 32561 -2.7605170384049416e-02</internalNodes>
      <leafValues>
        5.6324309110641479e-01 -2.6679936051368713e-01</leafValues></_>
    <_>
      <internalNodes>
        0 -1 285563 1.8411652417853475e-03</internalNodes>
      <leafValues>
        -2.7261558175086975e-01 7.0594847202301025e-01</leafValues></_>
    <_>
      <internalNodes>
        0 -1 103680 4.9474783241748810e-02</internalNodes>
      <leafValues>
        2.8101539611816406e-01 -6.5684080123901367e-01</leafValues></_>
    <_>
      <internalNodes>
        0 -1 211964 -1.3438148889690638e-03</internalNodes>
      <leafValues>
        4.8854124546051025e-01 -3.2725208997726440e-01</leafValues></_>
    <_>
      <internalNodes>
        0 -1 365690 3.1019591260701418e-03</internalNodes>
      <leafValues>
        -3.8372412323951721e-01 3.9746448397636414e-01</leafValues></_>
    <_>
      <internalNodes>
        0 -1 371873 4.0014792466536164e-04</internalNodes>
      <leafValues>
        -2.1328178048133850e-01 6.5491235256195068e-01</leafValues></_>
    <_>
      <internalNodes>
        0 -1 204081 7.5695296982303262e-04</internalNodes>
      <leafValues>
        -2.0632578432559967e-01 7.6822376251220703e-01</leafValues></_>
    <_>
      <internalNodes>
        0 -1 337092 -2.9498404264450073e-01</internalNodes>
      <leafValues>
        -7.7860295772552490e-01 2.3345993459224701e-01</leafValues></_></weakClassifiers></stage5>
</opencv_storage>
