<?xml version="1.0"?>
<opencv_storage>
<stage11>
  <maxWeakCount>15</maxWeakCount>
  <stageThreshold>-7.9357540607452393e-01</stageThreshold>
  <weakClassifiers>
    <_>
      <internalNodes>
        0 -1 12850 -5.1497410982847214e-02</internalNodes>
      <leafValues>
        7.1142286062240601e-01 -2.8790786862373352e-02</leafValues></_>
    <_>
      <internalNodes>
        0 -1 121185 -9.1245386283844709e-04</internalNodes>
      <leafValues>
        -5.5184584856033325e-01 2.6049667596817017e-01</leafValues></_>
    <_>
      <internalNodes>
        0 -1 542167 -5.1675783470273018e-03</internalNodes>
      <leafValues>
        -7.0190155506134033e-01 1.5998589992523193e-01</leafValues></_>
    <_>
      <internalNodes>
        0 -1 246064 3.5339791793376207e-03</internalNodes>
      <leafValues>
        -2.4771195650100708e-01 5.0584298372268677e-01</leafValues></_>
    <_>
      <internalNodes>
        0 -1 544844 -3.9276844472624362e-04</internalNodes>
      <leafValues>
        -6.8258553743362427e-01 1.2334918230772018e-01</leafValues></_>
    <_>
      <internalNodes>
        0 -1 205741 -4.9106776714324951e-03</internalNodes>
      <leafValues>
        5.0344598293304443e-01 -2.4267607927322388e-01</leafValues></_>
    <_>
      <internalNodes>
        0 -1 490862 4.8787654377520084e-03</internalNodes>
      <leafValues>
        -2.2669190168380737e-01 4.9180126190185547e-01</leafValues></_>
    <_>
      <internalNodes>
        0 -1 243755 -1.4645006740465760e-04</internalNodes>
      <leafValues>
        -6.7354989051818848e-01 1.5286867320537567e-01</leafValues></_>
    <_>
      <internalNodes>
        0 -1 110668 2.6271928101778030e-02</internalNodes>
      <leafValues>
        -1.8051514029502869e-01 5.8331358432769775e-01</leafValues></_>
    <_>
      <internalNodes>
        0 -1 402643 2.0353153347969055e-02</internalNodes>
      <leafValues>
        -2.5929212570190430e-01 4.2284238338470459e-01</leafValues></_>
    <_>
      <internalNodes>
        0 -1 477115 -4.2676571756601334e-03</internalNodes>
      <leafValues>
        2.4723534286022186e-01 -4.9690604209899902e-01</leafValues></_>
    <_>
      <internalNodes>
        0 -1 531741 2.5433180853724480e-02</internalNodes>
      <leafValues>
        -1.9839684665203094e-01 5.7509654760360718e-01</leafValues></_>
    <_>
      <internalNodes>
        0 -1 292421 9.3397289514541626e-02</internalNodes>
      <leafValues>
        -1.6171240806579590e-01 7.2866946458816528e-01</leafValues></_>
    <_>
      <internalNodes>
        0 -1 157403 4.3383496813476086e-03</internalNodes>
      <leafValues>
        -1.4782246947288513e-01 6.2041044235229492e-01</leafValues></_>
    <_>
      <internalNodes>
        0 -1 197520 -1.3417454902082682e-03</internalNodes>
      <leafValues>
        -8.1739485263824463e-01 1.5319280326366425e-01</leafValues></_></weakClassifiers></stage11>
</opencv_storage>
