<?xml version="1.0"?>
<opencv_storage>
<stage4>
  <maxWeakCount>7</maxWeakCount>
  <stageThreshold>-4.1373017430305481e-01</stageThreshold>
  <weakClassifiers>
    <_>
      <internalNodes>
        0 -1 25216 -2.1155536174774170e-02</internalNodes>
      <leafValues>
        8.5826772451400757e-01 -1.8750000000000000e-01</leafValues></_>
    <_>
      <internalNodes>
        0 -1 28829 -4.2273592203855515e-02</internalNodes>
      <leafValues>
        -4.4633206725120544e-01 5.6802904605865479e-01</leafValues></_>
    <_>
      <internalNodes>
        0 -1 523838 -6.4855376258492470e-03</internalNodes>
      <leafValues>
        7.7806168794631958e-01 -3.0146029591560364e-01</leafValues></_>
    <_>
      <internalNodes>
        0 -1 33782 -1.6819624602794647e-01</internalNodes>
      <leafValues>
        -7.6516735553741455e-01 2.8568044304847717e-01</leafValues></_>
    <_>
      <internalNodes>
        0 -1 522043 5.7524526491761208e-03</internalNodes>
      <leafValues>
        -3.0594104528427124e-01 8.4098255634307861e-01</leafValues></_>
    <_>
      <internalNodes>
        0 -1 534787 -2.0956031978130341e-02</internalNodes>
      <leafValues>
        9.1516733169555664e-01 -1.4846526086330414e-01</leafValues></_>
    <_>
      <internalNodes>
        0 -1 500749 -2.6927394792437553e-03</internalNodes>
      <leafValues>
        6.9028806686401367e-01 -2.2677569091320038e-01</leafValues></_></weakClassifiers></stage4>
</opencv_storage>
