<?xml version="1.0"?>
<opencv_storage>
<stage9>
  <maxWeakCount>10</maxWeakCount>
  <stageThreshold>-7.1107035875320435e-01</stageThreshold>
  <weakClassifiers>
    <_>
      <internalNodes>
        0 -1 10044 -4.1421402245759964e-02</internalNodes>
      <leafValues>
        7.8297871351242065e-01 -7.0370368659496307e-02</leafValues></_>
    <_>
      <internalNodes>
        0 -1 546127 3.0690036714076996e-02</internalNodes>
      <leafValues>
        -2.1259060502052307e-01 5.9828251600265503e-01</leafValues></_>
    <_>
      <internalNodes>
        0 -1 260051 8.5718085756525397e-05</internalNodes>
      <leafValues>
        1.9461388885974884e-01 -7.7581977844238281e-01</leafValues></_>
    <_>
      <internalNodes>
        0 -1 59952 1.7844715714454651e-01</internalNodes>
      <leafValues>
        -2.1361646056175232e-01 6.9467967748641968e-01</leafValues></_>
    <_>
      <internalNodes>
        0 -1 527037 2.1345452114474028e-04</internalNodes>
      <leafValues>
        1.9753269851207733e-01 -6.6212153434753418e-01</leafValues></_>
    <_>
      <internalNodes>
        0 -1 476000 1.9366153283044696e-03</internalNodes>
      <leafValues>
        -2.5292238593101501e-01 5.6094908714294434e-01</leafValues></_>
    <_>
      <internalNodes>
        0 -1 360027 -1.0338175343349576e-04</internalNodes>
      <leafValues>
        -8.5002434253692627e-01 1.4895546436309814e-01</leafValues></_>
    <_>
      <internalNodes>
        0 -1 375201 -1.0221540287602693e-04</internalNodes>
      <leafValues>
        -6.0182350873947144e-01 1.9139508903026581e-01</leafValues></_>
    <_>
      <internalNodes>
        0 -1 201578 -2.1860646666027606e-04</internalNodes>
      <leafValues>
        -7.1187949180603027e-01 1.7133572697639465e-01</leafValues></_>
    <_>
      <internalNodes>
        0 -1 244562 1.8992538389284164e-04</internalNodes>
      <leafValues>
        1.1292357742786407e-01 -7.7701121568679810e-01</leafValues></_></weakClassifiers></stage9>
</opencv_storage>
