<?xml version="1.0"?>
<opencv_storage>
<stage9>
  <maxWeakCount>12</maxWeakCount>
  <stageThreshold>-6.2595897912979126e-01</stageThreshold>
  <weakClassifiers>
    <_>
      <internalNodes>
        0 -1 154606 1.1690491810441017e-02</internalNodes>
      <leafValues>
        -6.2906727194786072e-02 6.6911762952804565e-01</leafValues></_>
    <_>
      <internalNodes>
        0 -1 14792 -1.9169081933796406e-03</internalNodes>
      <leafValues>
        4.0855786204338074e-01 -3.5672470927238464e-01</leafValues></_>
    <_>
      <internalNodes>
        0 -1 46697 5.5881021544337273e-03</internalNodes>
      <leafValues>
        -2.7416476607322693e-01 5.2989542484283447e-01</leafValues></_>
    <_>
      <internalNodes>
        0 -1 131520 8.8003277778625488e-04</internalNodes>
      <leafValues>
        -2.3185430467128754e-01 5.4238396883010864e-01</leafValues></_>
    <_>
      <internalNodes>
        0 -1 8273 -3.6101866513490677e-02</internalNodes>
      <leafValues>
        4.6687594056129456e-01 -2.3571708798408508e-01</leafValues></_>
    <_>
      <internalNodes>
        0 -1 14550 2.3414958268404007e-02</internalNodes>
      <leafValues>
        -1.9142243266105652e-01 8.6743766069412231e-01</leafValues></_>
    <_>
      <internalNodes>
        0 -1 70662 4.6819867566227913e-03</internalNodes>
      <leafValues>
        -1.6533572971820831e-01 6.0487973690032959e-01</leafValues></_>
    <_>
      <internalNodes>
        0 -1 49457 -6.3087781891226768e-03</internalNodes>
      <leafValues>
        6.7593824863433838e-01 -1.6717980802059174e-01</leafValues></_>
    <_>
      <internalNodes>
        0 -1 254 -9.3924431130290031e-03</internalNodes>
      <leafValues>
        4.2979496717453003e-01 -2.4069125950336456e-01</leafValues></_>
    <_>
      <internalNodes>
        0 -1 51243 5.3487764671444893e-04</internalNodes>
      <leafValues>
        -2.8289106488227844e-01 3.7501126527786255e-01</leafValues></_>
    <_>
      <internalNodes>
        0 -1 66362 1.4739800244569778e-02</internalNodes>
      <leafValues>
        1.3626843690872192e-01 -8.3743762969970703e-01</leafValues></_>
    <_>
      <internalNodes>
        0 -1 60420 5.2011944353580475e-04</internalNodes>
      <leafValues>
        1.1827193945646286e-01 -7.4511837959289551e-01</leafValues></_></weakClassifiers></stage9>
</opencv_storage>
