<?xml version="1.0"?>
<opencv_storage>
<stage11>
  <maxWeakCount>18</maxWeakCount>
  <stageThreshold>-6.7284721136093140e-01</stageThreshold>
  <weakClassifiers>
    <_>
      <internalNodes>
        0 -1 161923 -9.9397972226142883e-03</internalNodes>
      <leafValues>
        6.1739128828048706e-01 -3.3707864582538605e-02</leafValues></_>
    <_>
      <internalNodes>
        0 -1 360168 1.2415568344295025e-03</internalNodes>
      <leafValues>
        -1.8470077216625214e-01 3.7055021524429321e-01</leafValues></_>
    <_>
      <internalNodes>
        0 -1 1181225 4.5825458983017597e-06</internalNodes>
      <leafValues>
        -3.6667221784591675e-01 2.3533529043197632e-01</leafValues></_>
    <_>
      <internalNodes>
        0 -1 1020273 -2.3473287001252174e-02</internalNodes>
      <leafValues>
        4.9060824513435364e-01 -1.7515365779399872e-01</leafValues></_>
    <_>
      <internalNodes>
        0 -1 289875 -4.3117087334394455e-03</internalNodes>
      <leafValues>
        2.6146858930587769e-01 -3.1756654381752014e-01</leafValues></_>
    <_>
      <internalNodes>
        0 -1 930335 -4.7607565647922456e-05</internalNodes>
      <leafValues>
        -6.2746208906173706e-01 1.4577354490756989e-01</leafValues></_>
    <_>
      <internalNodes>
        0 -1 11958 2.6695769280195236e-02</internalNodes>
      <leafValues>
        -9.0594828128814697e-02 8.7325239181518555e-01</leafValues></_>
    <_>
      <internalNodes>
        0 -1 1075827 6.2066912651062012e-03</internalNodes>
      <leafValues>
        -1.9448564946651459e-01 4.0673232078552246e-01</leafValues></_>
    <_>
      <internalNodes>
        0 -1 1056728 -7.6491257641464472e-04</internalNodes>
      <leafValues>
        -4.0650802850723267e-01 1.9728071987628937e-01</leafValues></_>
    <_>
      <internalNodes>
        0 -1 378152 3.5925421863794327e-02</internalNodes>
      <leafValues>
        8.9284934103488922e-02 -9.2401903867721558e-01</leafValues></_>
    <_>
      <internalNodes>
        0 -1 1148434 -3.9488199399784207e-04</internalNodes>
      <leafValues>
        5.1747018098831177e-01 -1.5519267320632935e-01</leafValues></_>
    <_>
      <internalNodes>
        0 -1 584498 -4.7284236643463373e-05</internalNodes>
      <leafValues>
        -5.1739144325256348e-01 1.5714594721794128e-01</leafValues></_>
    <_>
      <internalNodes>
        0 -1 868215 8.6742488201707602e-04</internalNodes>
      <leafValues>
        -1.6360917687416077e-01 5.3733879327774048e-01</leafValues></_>
    <_>
      <internalNodes>
        0 -1 812394 -4.2586876079440117e-03</internalNodes>
      <leafValues>
        4.3709325790405273e-01 -1.7506314814090729e-01</leafValues></_>
    <_>
      <internalNodes>
        0 -1 568469 2.8403289616107941e-03</internalNodes>
      <leafValues>
        1.5220761299133301e-01 -6.0669273138046265e-01</leafValues></_>
    <_>
      <internalNodes>
        0 -1 3401 -1.7617824487388134e-03</internalNodes>
      <leafValues>
        3.2357284426689148e-01 -2.5472700595855713e-01</leafValues></_>
    <_>
      <internalNodes>
        0 -1 44279 2.8331676730886102e-04</internalNodes>
      <leafValues>
        1.6813680529594421e-01 -4.5973417162895203e-01</leafValues></_>
    <_>
      <internalNodes>
        0 -1 606207 -2.8397163376212120e-02</internalNodes>
      <leafValues>
        -6.0291856527328491e-01 1.1158531904220581e-01</leafValues></_></weakClassifiers></stage11>
</opencv_storage>
