<?xml version="1.0"?>
<opencv_storage>
<stage5>
  <maxWeakCount>7</maxWeakCount>
  <stageThreshold>-8.4433764219284058e-01</stageThreshold>
  <weakClassifiers>
    <_>
      <internalNodes>
        0 -1 536286 -8.8276434689760208e-03</internalNodes>
      <leafValues>
        -2.3414634168148041e-01 7.0999997854232788e-01</leafValues></_>
    <_>
      <internalNodes>
        0 -1 453270 -9.6324067562818527e-03</internalNodes>
      <leafValues>
        7.3934960365295410e-01 -2.7942180633544922e-01</leafValues></_>
    <_>
      <internalNodes>
        0 -1 288186 7.7896751463413239e-03</internalNodes>
      <leafValues>
        -3.1790131330490112e-01 6.3174885511398315e-01</leafValues></_>
    <_>
      <internalNodes>
        0 -1 362624 5.5641662329435349e-03</internalNodes>
      <leafValues>
        -2.6799482107162476e-01 8.3160656690597534e-01</leafValues></_>
    <_>
      <internalNodes>
        0 -1 20321 -3.2322150655090809e-03</internalNodes>
      <leafValues>
        5.6985419988632202e-01 -3.3617839217185974e-01</leafValues></_>
    <_>
      <internalNodes>
        0 -1 525847 -5.4595861583948135e-03</internalNodes>
      <leafValues>
        3.5906574130058289e-01 -5.0956559181213379e-01</leafValues></_>
    <_>
      <internalNodes>
        0 -1 535686 -4.0381886065006256e-02</internalNodes>
      <leafValues>
        -9.1718643903732300e-01 1.9483800232410431e-01</leafValues></_></weakClassifiers></stage5>
</opencv_storage>
