<?xml version="1.0"?>
<opencv_storage>
<stage6>
  <maxWeakCount>10</maxWeakCount>
  <stageThreshold>-6.3025647401809692e-01</stageThreshold>
  <weakClassifiers>
    <_>
      <internalNodes>
        0 -1 44522 -2.3776942864060402e-02</internalNodes>
      <leafValues>
        6.8589740991592407e-01 -2.2222222387790680e-01</leafValues></_>
    <_>
      <internalNodes>
        0 -1 51709 -3.4092351794242859e-02</internalNodes>
      <leafValues>
        8.6551815271377563e-01 -1.1938796937465668e-01</leafValues></_>
    <_>
      <internalNodes>
        0 -1 209894 3.0198297463357449e-03</internalNodes>
      <leafValues>
        -2.4426162242889404e-01 5.9129649400711060e-01</leafValues></_>
    <_>
      <internalNodes>
        0 -1 42321 -1.7675372958183289e-01</internalNodes>
      <leafValues>
        -7.3626613616943359e-01 2.1876738965511322e-01</leafValues></_>
    <_>
      <internalNodes>
        0 -1 210862 1.1759922839701176e-02</internalNodes>
      <leafValues>
        -2.4370698630809784e-01 7.1005409955978394e-01</leafValues></_>
    <_>
      <internalNodes>
        0 -1 362208 5.3867865353822708e-02</internalNodes>
      <leafValues>
        -2.3772837221622467e-01 7.0831751823425293e-01</leafValues></_>
    <_>
      <internalNodes>
        0 -1 89675 1.0558779537677765e-01</internalNodes>
      <leafValues>
        1.5231961011886597e-01 -9.4258540868759155e-01</leafValues></_>
    <_>
      <internalNodes>
        0 -1 226119 5.2705090492963791e-03</internalNodes>
      <leafValues>
        -2.1828487515449524e-01 7.0690089464187622e-01</leafValues></_>
    <_>
      <internalNodes>
        0 -1 53116 1.7737980931997299e-02</internalNodes>
      <leafValues>
        -1.4899064600467682e-01 6.7019921541213989e-01</leafValues></_>
    <_>
      <internalNodes>
        0 -1 3049 -9.5311384648084641e-03</internalNodes>
      <leafValues>
        4.8015311360359192e-01 -2.8060513734817505e-01</leafValues></_></weakClassifiers></stage6>
</opencv_storage>
