<?xml version="1.0"?>
<opencv_storage>
<stage4>
  <maxWeakCount>10</maxWeakCount>
  <stageThreshold>-5.2066624164581299e-01</stageThreshold>
  <weakClassifiers>
    <_>
      <internalNodes>
        0 -1 1987 -6.1506360769271851e-02</internalNodes>
      <leafValues>
        9.1402715444564819e-01 -1.1072664707899094e-01</leafValues></_>
    <_>
      <internalNodes>
        0 -1 373735 7.0131635293364525e-03</internalNodes>
      <leafValues>
        -1.2553222477436066e-01 7.9951483011245728e-01</leafValues></_>
    <_>
      <internalNodes>
        0 -1 118537 7.7536364551633596e-04</internalNodes>
      <leafValues>
        -2.4773745238780975e-01 6.8948745727539063e-01</leafValues></_>
    <_>
      <internalNodes>
        0 -1 2005 -4.4348696246743202e-03</internalNodes>
      <leafValues>
        6.9250476360321045e-01 -2.8704813122749329e-01</leafValues></_>
    <_>
      <internalNodes>
        0 -1 358086 -1.9680056720972061e-02</internalNodes>
      <leafValues>
        -7.5656396150588989e-01 2.6689055562019348e-01</leafValues></_>
    <_>
      <internalNodes>
        0 -1 294967 1.0368305956944823e-03</internalNodes>
      <leafValues>
        -2.8334286808967590e-01 6.3670480251312256e-01</leafValues></_>
    <_>
      <internalNodes>
        0 -1 210393 2.0623370073735714e-03</internalNodes>
      <leafValues>
        -1.9759860634803772e-01 8.5228109359741211e-01</leafValues></_>
    <_>
      <internalNodes>
        0 -1 302315 -1.6038686037063599e-02</internalNodes>
      <leafValues>
        -8.8187342882156372e-01 2.4391083419322968e-01</leafValues></_>
    <_>
      <internalNodes>
        0 -1 337276 -1.3278629630804062e-03</internalNodes>
      <leafValues>
        6.2710267305374146e-01 -2.9707854986190796e-01</leafValues></_>
    <_>
      <internalNodes>
        0 -1 117099 -3.7111345678567886e-02</internalNodes>
      <leafValues>
        5.2589058876037598e-01 -3.2035481929779053e-01</leafValues></_></weakClassifiers></stage4>
</opencv_storage>
