<?xml version="1.0"?>
<opencv_storage>
<stage5>
  <maxWeakCount>11</maxWeakCount>
  <stageThreshold>-9.8114109039306641e-01</stageThreshold>
  <weakClassifiers>
    <_>
      <internalNodes>
        0 -1 367274 4.0530353784561157e-02</internalNodes>
      <leafValues>
        -3.1707316637039185e-01 6.5155130624771118e-01</leafValues></_>
    <_>
      <internalNodes>
        0 -1 186 -8.3592664450407028e-03</internalNodes>
      <leafValues>
        6.1335980892181396e-01 -2.2740708291530609e-01</leafValues></_>
    <_>
      <internalNodes>
        0 -1 6974 -8.9560121297836304e-02</internalNodes>
      <leafValues>
        -8.4663993120193481e-01 1.9002400338649750e-01</leafValues></_>
    <_>
      <internalNodes>
        0 -1 263028 5.9041148051619530e-03</internalNodes>
      <leafValues>
        -1.8729813396930695e-01 7.9792243242263794e-01</leafValues></_>
    <_>
      <internalNodes>
        0 -1 70904 -5.9129158034920692e-04</internalNodes>
      <leafValues>
        5.1876091957092285e-01 -1.9714866578578949e-01</leafValues></_>
    <_>
      <internalNodes>
        0 -1 296614 5.3130870219320059e-04</internalNodes>
      <leafValues>
        -2.2038449347019196e-01 5.6293928623199463e-01</leafValues></_>
    <_>
      <internalNodes>
        0 -1 202228 -3.8562349975109100e-02</internalNodes>
      <leafValues>
        -8.1168591976165771e-01 1.5200561285018921e-01</leafValues></_>
    <_>
      <internalNodes>
        0 -1 375104 2.8935945592820644e-03</internalNodes>
      <leafValues>
        -2.1142277121543884e-01 5.3480958938598633e-01</leafValues></_>
    <_>
      <internalNodes>
        0 -1 71597 6.5710290800780058e-04</internalNodes>
      <leafValues>
        -1.5120480954647064e-01 6.8841111660003662e-01</leafValues></_>
    <_>
      <internalNodes>
        0 -1 44560 -2.1490389481186867e-02</internalNodes>
      <leafValues>
        3.3171841502189636e-01 -3.2282674312591553e-01</leafValues></_>
    <_>
      <internalNodes>
        0 -1 203597 2.5832452811300755e-03</internalNodes>
      <leafValues>
        -2.0352037250995636e-01 5.1159518957138062e-01</leafValues></_></weakClassifiers></stage5>
</opencv_storage>
