<?xml version="1.0"?>
<opencv_storage>
<stage6>
  <maxWeakCount>13</maxWeakCount>
  <stageThreshold>-1.2521376609802246e+00</stageThreshold>
  <weakClassifiers>
    <_>
      <internalNodes>
        0 -1 9765 -2.8878837823867798e-02</internalNodes>
      <leafValues>
        5.8515286445617676e-01 -3.2603406906127930e-01</leafValues></_>
    <_>
      <internalNodes>
        0 -1 360439 4.8551489599049091e-03</internalNodes>
      <leafValues>
        -2.1930854022502899e-01 5.7978475093841553e-01</leafValues></_>
    <_>
      <internalNodes>
        0 -1 322458 -3.5206265747547150e-03</internalNodes>
      <leafValues>
        4.9594399333000183e-01 -2.2163835167884827e-01</leafValues></_>
    <_>
      <internalNodes>
        0 -1 320084 -5.4837288334965706e-03</internalNodes>
      <leafValues>
        -7.7560746669769287e-01 1.4361827075481415e-01</leafValues></_>
    <_>
      <internalNodes>
        0 -1 345816 -4.0716417133808136e-03</internalNodes>
      <leafValues>
        2.9655313491821289e-01 -3.9185455441474915e-01</leafValues></_>
    <_>
      <internalNodes>
        0 -1 103002 4.1135735809803009e-03</internalNodes>
      <leafValues>
        -2.0561237633228302e-01 6.1687666177749634e-01</leafValues></_>
    <_>
      <internalNodes>
        0 -1 37834 -2.6931244879961014e-02</internalNodes>
      <leafValues>
        4.7185572981834412e-01 -2.5902801752090454e-01</leafValues></_>
    <_>
      <internalNodes>
        0 -1 229468 5.9097725898027420e-04</internalNodes>
      <leafValues>
        -2.5694757699966431e-01 4.4876876473426819e-01</leafValues></_>
    <_>
      <internalNodes>
        0 -1 114334 1.9602177198976278e-03</internalNodes>
      <leafValues>
        1.7381665110588074e-01 -6.5331304073333740e-01</leafValues></_>
    <_>
      <internalNodes>
        0 -1 297573 2.6998356916010380e-03</internalNodes>
      <leafValues>
        -1.4298582077026367e-01 6.9375592470169067e-01</leafValues></_>
    <_>
      <internalNodes>
        0 -1 350264 1.0612347163259983e-02</internalNodes>
      <leafValues>
        -2.3600097000598907e-01 4.0401014685630798e-01</leafValues></_>
    <_>
      <internalNodes>
        0 -1 347495 -2.0011920481920242e-02</internalNodes>
      <leafValues>
        7.0556581020355225e-01 -1.5257720649242401e-01</leafValues></_>
    <_>
      <internalNodes>
        0 -1 31177 -1.2137874960899353e-01</internalNodes>
      <leafValues>
        -8.2244777679443359e-01 1.3669852912425995e-01</leafValues></_></weakClassifiers></stage6>
</opencv_storage>
