<?xml version="1.0"?>
<opencv_storage>
<stage4>
  <maxWeakCount>10</maxWeakCount>
  <stageThreshold>-8.8987565040588379e-01</stageThreshold>
  <weakClassifiers>
    <_>
      <internalNodes>
        0 -1 8327 -7.1292437613010406e-02</internalNodes>
      <leafValues>
        6.6666668653488159e-01 -3.6893203854560852e-01</leafValues></_>
    <_>
      <internalNodes>
        0 -1 149417 2.3404126986861229e-03</internalNodes>
      <leafValues>
        -3.2782569527626038e-01 4.9463650584220886e-01</leafValues></_>
    <_>
      <internalNodes>
        0 -1 367422 1.1832535266876221e-02</internalNodes>
      <leafValues>
        -3.4557300806045532e-01 4.5138141512870789e-01</leafValues></_>
    <_>
      <internalNodes>
        0 -1 366278 -3.6368935834616423e-03</internalNodes>
      <leafValues>
        5.7936733961105347e-01 -2.8406384587287903e-01</leafValues></_>
    <_>
      <internalNodes>
        0 -1 153070 -2.1336566656827927e-02</internalNodes>
      <leafValues>
        4.7204649448394775e-01 -2.8926536440849304e-01</leafValues></_>
    <_>
      <internalNodes>
        0 -1 225274 2.5631170719861984e-03</internalNodes>
      <leafValues>
        -2.7136072516441345e-01 4.7739297151565552e-01</leafValues></_>
    <_>
      <internalNodes>
        0 -1 9184 8.8311940431594849e-02</internalNodes>
      <leafValues>
        2.0192885398864746e-01 -7.5030410289764404e-01</leafValues></_>
    <_>
      <internalNodes>
        0 -1 62190 4.2718341574072838e-03</internalNodes>
      <leafValues>
        -2.4642996490001678e-01 6.3203585147857666e-01</leafValues></_>
    <_>
      <internalNodes>
        0 -1 306747 -8.4190130233764648e-02</internalNodes>
      <leafValues>
        -8.4223222732543945e-01 2.2801102697849274e-01</leafValues></_>
    <_>
      <internalNodes>
        0 -1 1344 7.6035164296627045e-02</internalNodes>
      <leafValues>
        1.4112511277198792e-01 -7.5574487447738647e-01</leafValues></_></weakClassifiers></stage4>
</opencv_storage>
