<?xml version="1.0"?>
<opencv_storage>
<stage7>
  <maxWeakCount>12</maxWeakCount>
  <stageThreshold>-6.7702215909957886e-01</stageThreshold>
  <weakClassifiers>
    <_>
      <internalNodes>
        0 -1 58910 -1.0942953638732433e-02</internalNodes>
      <leafValues>
        7.2401434183120728e-01 -1.3852813839912415e-01</leafValues></_>
    <_>
      <internalNodes>
        0 -1 1095597 4.6431200462393463e-04</internalNodes>
      <leafValues>
        2.4214535951614380e-01 -6.5646135807037354e-01</leafValues></_>
    <_>
      <internalNodes>
        0 -1 392717 -3.1319403205998242e-04</internalNodes>
      <leafValues>
        -4.2065975069999695e-01 2.4538423120975494e-01</leafValues></_>
    <_>
      <internalNodes>
        0 -1 453765 1.0923266410827637e-02</internalNodes>
      <leafValues>
        1.9619122147560120e-01 -5.9797680377960205e-01</leafValues></_>
    <_>
      <internalNodes>
        0 -1 579687 1.1255482968408614e-04</internalNodes>
      <leafValues>
        -4.4034472107887268e-01 2.6494082808494568e-01</leafValues></_>
    <_>
      <internalNodes>
        0 -1 138927 -8.7837909813970327e-04</internalNodes>
      <leafValues>
        -8.1164443492889404e-01 1.2733386456966400e-01</leafValues></_>
    <_>
      <internalNodes>
        0 -1 244 -3.4099058248102665e-03</internalNodes>
      <leafValues>
        6.6104173660278320e-01 -2.0858269929885864e-01</leafValues></_>
    <_>
      <internalNodes>
        0 -1 279754 9.2326197773218155e-03</internalNodes>
      <leafValues>
        -2.3086009919643402e-01 5.5681425333023071e-01</leafValues></_>
    <_>
      <internalNodes>
        0 -1 888428 -9.6402447670698166e-03</internalNodes>
      <leafValues>
        3.2863044738769531e-01 -4.3171578645706177e-01</leafValues></_>
    <_>
      <internalNodes>
        0 -1 116077 6.1080399900674820e-03</internalNodes>
      <leafValues>
        -1.5807856619358063e-01 8.5358315706253052e-01</leafValues></_>
    <_>
      <internalNodes>
        0 -1 1172306 3.8579967804253101e-04</internalNodes>
      <leafValues>
        -3.3287790417671204e-01 3.2868182659149170e-01</leafValues></_>
    <_>
      <internalNodes>
        0 -1 1166256 -2.3979260586202145e-03</internalNodes>
      <leafValues>
        6.5272593498229980e-01 -1.6714400053024292e-01</leafValues></_></weakClassifiers></stage7>
</opencv_storage>
