<?xml version="1.0"?>
<opencv_storage>
<stage7>
  <maxWeakCount>9</maxWeakCount>
  <stageThreshold>-5.4596501588821411e-01</stageThreshold>
  <weakClassifiers>
    <_>
      <internalNodes>
        0 -1 78207 -3.4950268454849720e-03</internalNodes>
      <leafValues>
        6.2706768512725830e-01 -3.2881355285644531e-01</leafValues></_>
    <_>
      <internalNodes>
        0 -1 724192 -3.3925799652934074e-03</internalNodes>
      <leafValues>
        5.5444127321243286e-01 -3.0247330665588379e-01</leafValues></_>
    <_>
      <internalNodes>
        0 -1 54613 -1.6958229243755341e-02</internalNodes>
      <leafValues>
        4.5682051777839661e-01 -2.9654163122177124e-01</leafValues></_>
    <_>
      <internalNodes>
        0 -1 561223 2.4574848357588053e-03</internalNodes>
      <leafValues>
        -2.5199741125106812e-01 5.2332669496536255e-01</leafValues></_>
    <_>
      <internalNodes>
        0 -1 650120 -1.0478334734216332e-03</internalNodes>
      <leafValues>
        5.8468365669250488e-01 -3.1163838505744934e-01</leafValues></_>
    <_>
      <internalNodes>
        0 -1 311131 -7.0741288363933563e-03</internalNodes>
      <leafValues>
        4.5823416113853455e-01 -3.1182715296745300e-01</leafValues></_>
    <_>
      <internalNodes>
        0 -1 803550 -9.9022570066154003e-04</internalNodes>
      <leafValues>
        -6.7639726400375366e-01 2.2308629751205444e-01</leafValues></_>
    <_>
      <internalNodes>
        0 -1 449894 -2.4008627224247903e-04</internalNodes>
      <leafValues>
        -8.4974581003189087e-01 1.0929545015096664e-01</leafValues></_>
    <_>
      <internalNodes>
        0 -1 816352 1.6444518696516752e-03</internalNodes>
      <leafValues>
        -4.5067334175109863e-01 2.7904286980628967e-01</leafValues></_></weakClassifiers></stage7>
</opencv_storage>
