<?xml version="1.0"?>
<opencv_storage>
<stage3>
  <maxWeakCount>6</maxWeakCount>
  <stageThreshold>-5.9658801555633545e-01</stageThreshold>
  <weakClassifiers>
    <_>
      <internalNodes>
        0 -1 155678 -1.0742519795894623e-01</internalNodes>
      <leafValues>
        -2.8229665756225586e-01 8.0811810493469238e-01</leafValues></_>
    <_>
      <internalNodes>
        0 -1 809561 3.4200370311737061e-02</internalNodes>
      <leafValues>
        -2.9398500919342041e-01 8.5697948932647705e-01</leafValues></_>
    <_>
      <internalNodes>
        0 -1 814023 -3.9230726659297943e-02</internalNodes>
      <leafValues>
        -6.7722332477569580e-01 4.1690421104431152e-01</leafValues></_>
    <_>
      <internalNodes>
        0 -1 20305 -2.0399553701281548e-02</internalNodes>
      <leafValues>
        6.4283251762390137e-01 -3.7720951437950134e-01</leafValues></_>
    <_>
      <internalNodes>
        0 -1 2443 2.2159954532980919e-02</internalNodes>
      <leafValues>
        -3.0577850341796875e-01 9.4289958477020264e-01</leafValues></_>
    <_>
      <internalNodes>
        0 -1 149787 -1.4002013206481934e-01</internalNodes>
      <leafValues>
        -8.0082499980926514e-01 3.1986296176910400e-01</leafValues></_></weakClassifiers></stage3>
</opencv_storage>
