<?xml version="1.0"?>
<opencv_storage>
<stage2>
  <maxWeakCount>7</maxWeakCount>
  <stageThreshold>-5.2940064668655396e-01</stageThreshold>
  <weakClassifiers>
    <_>
      <internalNodes>
        0 -1 108390 -8.0484673380851746e-03</internalNodes>
      <leafValues>
        7.8819441795349121e-01 -2.8571429848670959e-01</leafValues></_>
    <_>
      <internalNodes>
        0 -1 196853 1.3387950602918863e-03</internalNodes>
      <leafValues>
        -3.2854643464088440e-01 7.4235123395919800e-01</leafValues></_>
    <_>
      <internalNodes>
        0 -1 560345 -1.4320686459541321e-01</internalNodes>
      <leafValues>
        -8.2390105724334717e-01 3.8455072045326233e-01</leafValues></_>
    <_>
      <internalNodes>
        0 -1 53469 -4.0742708370089531e-03</internalNodes>
      <leafValues>
        7.8374457359313965e-01 -3.1892544031143188e-01</leafValues></_>
    <_>
      <internalNodes>
        0 -1 358658 5.1998118869960308e-03</internalNodes>
      <leafValues>
        -3.0095309019088745e-01 8.1688684225082397e-01</leafValues></_>
    <_>
      <internalNodes>
        0 -1 197949 -6.5068518742918968e-03</internalNodes>
      <leafValues>
        8.0748468637466431e-01 -3.0006524920463562e-01</leafValues></_>
    <_>
      <internalNodes>
        0 -1 583827 6.8931053392589092e-03</internalNodes>
      <leafValues>
        -3.5275378823280334e-01 6.3912814855575562e-01</leafValues></_></weakClassifiers></stage2>
</opencv_storage>
