<?xml version="1.0"?>
<opencv_storage>
<stage6>
  <maxWeakCount>9</maxWeakCount>
  <stageThreshold>-8.9409822225570679e-01</stageThreshold>
  <weakClassifiers>
    <_>
      <internalNodes>
        0 -1 339 -3.9396961219608784e-03</internalNodes>
      <leafValues>
        7.4233126640319824e-01 -6.3339732587337494e-02</leafValues></_>
    <_>
      <internalNodes>
        0 -1 566114 -5.7538645341992378e-03</internalNodes>
      <leafValues>
        4.1147276759147644e-01 -5.0975233316421509e-01</leafValues></_>
    <_>
      <internalNodes>
        0 -1 605003 -7.1835599374026060e-04</internalNodes>
      <leafValues>
        4.1405844688415527e-01 -3.8966828584671021e-01</leafValues></_>
    <_>
      <internalNodes>
        0 -1 283212 5.8390956837683916e-04</internalNodes>
      <leafValues>
        -2.2997757792472839e-01 8.1458747386932373e-01</leafValues></_>
    <_>
      <internalNodes>
        0 -1 532266 9.7337755141779780e-04</internalNodes>
      <leafValues>
        -3.0378156900405884e-01 5.0703388452529907e-01</leafValues></_>
    <_>
      <internalNodes>
        0 -1 321686 -2.5279230903834105e-03</internalNodes>
      <leafValues>
        5.9762400388717651e-01 -2.6291957497596741e-01</leafValues></_>
    <_>
      <internalNodes>
        0 -1 153473 2.6803318411111832e-02</internalNodes>
      <leafValues>
        -2.5352919101715088e-01 6.6453546285629272e-01</leafValues></_>
    <_>
      <internalNodes>
        0 -1 616552 2.5563943199813366e-03</internalNodes>
      <leafValues>
        -3.6087870597839355e-01 4.6000254154205322e-01</leafValues></_>
    <_>
      <internalNodes>
        0 -1 622349 -5.9688994660973549e-03</internalNodes>
      <leafValues>
        5.8112585544586182e-01 -2.6235759258270264e-01</leafValues></_></weakClassifiers></stage6>
</opencv_storage>
