<?xml version="1.0"?>
<opencv_storage>
<stage11>
  <maxWeakCount>14</maxWeakCount>
  <stageThreshold>-7.2266370058059692e-01</stageThreshold>
  <weakClassifiers>
    <_>
      <internalNodes>
        0 -1 636747 1.0450395755469799e-02</internalNodes>
      <leafValues>
        2.3489933460950851e-02 7.6328504085540771e-01</leafValues></_>
    <_>
      <internalNodes>
        0 -1 280001 -9.7775575704872608e-04</internalNodes>
      <leafValues>
        -7.1915102005004883e-01 2.3000817000865936e-01</leafValues></_>
    <_>
      <internalNodes>
        0 -1 642926 6.3960254192352295e-04</internalNodes>
      <leafValues>
        1.8236550688743591e-01 -5.4201430082321167e-01</leafValues></_>
    <_>
      <internalNodes>
        0 -1 645118 -1.4202497550286353e-04</internalNodes>
      <leafValues>
        -5.9355032444000244e-01 1.6314946115016937e-01</leafValues></_>
    <_>
      <internalNodes>
        0 -1 357415 1.2295998167246580e-03</internalNodes>
      <leafValues>
        -3.0460682511329651e-01 3.4892699122428894e-01</leafValues></_>
    <_>
      <internalNodes>
        0 -1 61305 1.5174783766269684e-03</internalNodes>
      <leafValues>
        -1.6559769213199615e-01 7.9567342996597290e-01</leafValues></_>
    <_>
      <internalNodes>
        0 -1 100553 -2.9080067761242390e-03</internalNodes>
      <leafValues>
        4.0871006250381470e-01 -2.2567002475261688e-01</leafValues></_>
    <_>
      <internalNodes>
        0 -1 82075 -2.7095658704638481e-02</internalNodes>
      <leafValues>
        -3.6398977041244507e-01 2.8548371791839600e-01</leafValues></_>
    <_>
      <internalNodes>
        0 -1 115905 -2.2833645343780518e-03</internalNodes>
      <leafValues>
        -9.2578238248825073e-01 1.0423696786165237e-01</leafValues></_>
    <_>
      <internalNodes>
        0 -1 296804 7.4602398090064526e-03</internalNodes>
      <leafValues>
        7.0998556911945343e-02 -9.2269027233123779e-01</leafValues></_>
    <_>
      <internalNodes>
        0 -1 582545 -1.1857858859002590e-02</internalNodes>
      <leafValues>
        2.1017426252365112e-01 -4.0919235348701477e-01</leafValues></_>
    <_>
      <internalNodes>
        0 -1 335186 -2.1600228501483798e-04</internalNodes>
      <leafValues>
        -5.4607319831848145e-01 1.6530705988407135e-01</leafValues></_>
    <_>
      <internalNodes>
        0 -1 319967 -2.9061743407510221e-04</internalNodes>
      <leafValues>
        -6.0419833660125732e-01 1.3571687042713165e-01</leafValues></_>
    <_>
      <internalNodes>
        0 -1 245353 -2.0359471440315247e-01</internalNodes>
      <leafValues>
        -7.1911817789077759e-01 1.1865227669477463e-01</leafValues></_></weakClassifiers></stage11>
</opencv_storage>
