<?xml version="1.0"?>
<opencv_storage>
<stage14>
  <maxWeakCount>17</maxWeakCount>
  <stageThreshold>-6.0332149267196655e-01</stageThreshold>
  <weakClassifiers>
    <_>
      <internalNodes>
        0 -1 280956 3.8060586666688323e-04</internalNodes>
      <leafValues>
        3.6734692752361298e-02 6.0000002384185791e-01</leafValues></_>
    <_>
      <internalNodes>
        0 -1 636844 1.0551973246037960e-03</internalNodes>
      <leafValues>
        -1.8540666997432709e-01 4.6758076548576355e-01</leafValues></_>
    <_>
      <internalNodes>
        0 -1 178565 -1.0525822639465332e-02</internalNodes>
      <leafValues>
        2.7241125702857971e-01 -3.4632441401481628e-01</leafValues></_>
    <_>
      <internalNodes>
        0 -1 106097 5.9682931751012802e-03</internalNodes>
      <leafValues>
        1.1821288615465164e-01 -5.8490836620330811e-01</leafValues></_>
    <_>
      <internalNodes>
        0 -1 538132 -1.6229122877120972e-01</internalNodes>
      <leafValues>
        -7.5337386131286621e-01 1.1385685205459595e-01</leafValues></_>
    <_>
      <internalNodes>
        0 -1 627062 2.5290553458034992e-04</internalNodes>
      <leafValues>
        -1.9765564799308777e-01 4.2704525589942932e-01</leafValues></_>
    <_>
      <internalNodes>
        0 -1 6455 -2.5781472213566303e-03</internalNodes>
      <leafValues>
        -7.0243030786514282e-01 1.0996013134717941e-01</leafValues></_>
    <_>
      <internalNodes>
        0 -1 575257 -1.4126243768259883e-03</internalNodes>
      <leafValues>
        2.7801102399826050e-01 -2.6545715332031250e-01</leafValues></_>
    <_>
      <internalNodes>
        0 -1 588313 -4.0512054692953825e-04</internalNodes>
      <leafValues>
        3.9936116337776184e-01 -1.7495927214622498e-01</leafValues></_>
    <_>
      <internalNodes>
        0 -1 495150 1.4895498752593994e-01</internalNodes>
      <leafValues>
        -1.7246213555335999e-01 4.4751054048538208e-01</leafValues></_>
    <_>
      <internalNodes>
        0 -1 571644 -1.1514175683259964e-02</internalNodes>
      <leafValues>
        -5.2895760536193848e-01 1.6113595664501190e-01</leafValues></_>
    <_>
      <internalNodes>
        0 -1 424947 4.5509022311307490e-04</internalNodes>
      <leafValues>
        -2.4824543297290802e-01 3.2268521189689636e-01</leafValues></_>
    <_>
      <internalNodes>
        0 -1 193821 3.4557133913040161e-02</internalNodes>
      <leafValues>
        9.7406752407550812e-02 -8.1179517507553101e-01</leafValues></_>
    <_>
      <internalNodes>
        0 -1 53055 -1.5788841992616653e-03</internalNodes>
      <leafValues>
        5.4076498746871948e-01 -1.6154751181602478e-01</leafValues></_>
    <_>
      <internalNodes>
        0 -1 356527 -8.5919199045747519e-04</internalNodes>
      <leafValues>
        -8.5530239343643188e-01 1.0280106216669083e-01</leafValues></_>
    <_>
      <internalNodes>
        0 -1 242597 1.1967544443905354e-02</internalNodes>
      <leafValues>
        -2.5663241744041443e-01 3.2245764136314392e-01</leafValues></_>
    <_>
      <internalNodes>
        0 -1 513467 -6.8565104156732559e-03</internalNodes>
      <leafValues>
        -7.3335099220275879e-01 1.2179262191057205e-01</leafValues></_></weakClassifiers></stage14>
</opencv_storage>
