<?xml version="1.0"?>
<opencv_storage>
<stage12>
  <maxWeakCount>23</maxWeakCount>
  <stageThreshold>-7.9424709081649780e-01</stageThreshold>
  <weakClassifiers>
    <_>
      <internalNodes>
        0 -1 573504 7.5732404366135597e-03</internalNodes>
      <leafValues>
        -3.9999999105930328e-02 5.7090908288955688e-01</leafValues></_>
    <_>
      <internalNodes>
        0 -1 210631 3.9883991703391075e-03</internalNodes>
      <leafValues>
        -1.2784801423549652e-01 4.9193328619003296e-01</leafValues></_>
    <_>
      <internalNodes>
        0 -1 4448 -3.1525618396699429e-03</internalNodes>
      <leafValues>
        3.2000210881233215e-01 -1.9721978902816772e-01</leafValues></_>
    <_>
      <internalNodes>
        0 -1 570950 -3.0805778224021196e-03</internalNodes>
      <leafValues>
        5.3803771734237671e-01 -1.5995444357395172e-01</leafValues></_>
    <_>
      <internalNodes>
        0 -1 567035 1.6609575599431992e-02</internalNodes>
      <leafValues>
        -1.0201144963502884e-01 5.6721901893615723e-01</leafValues></_>
    <_>
      <internalNodes>
        0 -1 59102 4.3661773204803467e-02</internalNodes>
      <leafValues>
        -1.1952167004346848e-01 5.8908295631408691e-01</leafValues></_>
    <_>
      <internalNodes>
        0 -1 411425 -2.5486764498054981e-03</internalNodes>
      <leafValues>
        3.0818116664886475e-01 -2.6003909111022949e-01</leafValues></_>
    <_>
      <internalNodes>
        0 -1 51922 -3.2282531261444092e-02</internalNodes>
      <leafValues>
        3.5131129622459412e-01 -1.8295265734195709e-01</leafValues></_>
    <_>
      <internalNodes>
        0 -1 495046 -3.9455465972423553e-02</internalNodes>
      <leafValues>
        5.5904620885848999e-01 -1.5402656793594360e-01</leafValues></_>
    <_>
      <internalNodes>
        0 -1 364557 -2.9243883909657598e-04</internalNodes>
      <leafValues>
        1.9902555644512177e-01 -3.6160594224929810e-01</leafValues></_>
    <_>
      <internalNodes>
        0 -1 209449 6.0048245359212160e-04</internalNodes>
      <leafValues>
        1.0048592090606689e-01 -6.2726569175720215e-01</leafValues></_>
    <_>
      <internalNodes>
        0 -1 500472 -2.5611024349927902e-02</internalNodes>
      <leafValues>
        -8.3786165714263916e-01 6.9580793380737305e-02</leafValues></_>
    <_>
      <internalNodes>
        0 -1 569255 -1.7872062744572759e-04</internalNodes>
      <leafValues>
        1.6372704505920410e-01 -3.9295083284378052e-01</leafValues></_>
    <_>
      <internalNodes>
        0 -1 522048 2.7519579976797104e-02</internalNodes>
      <leafValues>
        7.7215932309627533e-02 -7.6680332422256470e-01</leafValues></_>
    <_>
      <internalNodes>
        0 -1 583281 5.3095386829227209e-04</internalNodes>
      <leafValues>
        8.6914204061031342e-02 -6.4688605070114136e-01</leafValues></_>
    <_>
      <internalNodes>
        0 -1 169972 1.4767573156859726e-04</internalNodes>
      <leafValues>
        -2.7929154038429260e-01 2.4637793004512787e-01</leafValues></_>
    <_>
      <internalNodes>
        0 -1 512272 1.1118030175566673e-02</internalNodes>
      <leafValues>
        -1.7703311145305634e-01 4.1171273589134216e-01</leafValues></_>
    <_>
      <internalNodes>
        0 -1 468237 4.8959003761410713e-03</internalNodes>
      <leafValues>
        -1.6464804112911224e-01 4.4076198339462280e-01</leafValues></_>
    <_>
      <internalNodes>
        0 -1 214937 -4.8571443185210228e-03</internalNodes>
      <leafValues>
        5.5465972423553467e-01 -1.1355040222406387e-01</leafValues></_>
    <_>
      <internalNodes>
        0 -1 552169 2.4409071193076670e-04</internalNodes>
      <leafValues>
        1.3317984342575073e-01 -5.2494525909423828e-01</leafValues></_>
    <_>
      <internalNodes>
        0 -1 180218 -2.5669648312032223e-03</internalNodes>
      <leafValues>
        -3.8173925876617432e-01 1.7092122137546539e-01</leafValues></_>
    <_>
      <internalNodes>
        0 -1 162595 8.2914449740201235e-04</internalNodes>
      <leafValues>
        1.2669177353382111e-01 -5.4859119653701782e-01</leafValues></_>
    <_>
      <internalNodes>
        0 -1 322318 -1.8894372042268515e-03</internalNodes>
      <leafValues>
        3.3590283989906311e-01 -2.1774320304393768e-01</leafValues></_></weakClassifiers></stage12>
</opencv_storage>
