<?xml version="1.0"?>
<opencv_storage>
<stage14>
  <maxWeakCount>21</maxWeakCount>
  <stageThreshold>-7.3044037818908691e-01</stageThreshold>
  <weakClassifiers>
    <_>
      <internalNodes>
        0 -1 564853 4.0315464138984680e-02</internalNodes>
      <leafValues>
        6.3218392431735992e-02 6.2079513072967529e-01</leafValues></_>
    <_>
      <internalNodes>
        0 -1 277447 -8.7124230340123177e-03</internalNodes>
      <leafValues>
        2.9182478785514832e-01 -2.3205183446407318e-01</leafValues></_>
    <_>
      <internalNodes>
        0 -1 162465 -8.9833850506693125e-04</internalNodes>
      <leafValues>
        3.0340024828910828e-01 -2.4355453252792358e-01</leafValues></_>
    <_>
      <internalNodes>
        0 -1 166164 4.1019981727004051e-03</internalNodes>
      <leafValues>
        -1.4118951559066772e-01 5.4106265306472778e-01</leafValues></_>
    <_>
      <internalNodes>
        0 -1 166559 -6.8722777068614960e-03</internalNodes>
      <leafValues>
        5.1771521568298340e-01 -1.5498234331607819e-01</leafValues></_>
    <_>
      <internalNodes>
        0 -1 429268 1.0539540089666843e-03</internalNodes>
      <leafValues>
        -1.4845600724220276e-01 4.5890218019485474e-01</leafValues></_>
    <_>
      <internalNodes>
        0 -1 296866 -1.5874869131948799e-04</internalNodes>
      <leafValues>
        -7.2944277524948120e-01 1.0102160274982452e-01</leafValues></_>
    <_>
      <internalNodes>
        0 -1 57584 1.8209391273558140e-03</internalNodes>
      <leafValues>
        1.1353662610054016e-01 -5.6320875883102417e-01</leafValues></_>
    <_>
      <internalNodes>
        0 -1 337935 -1.7947415472008288e-04</internalNodes>
      <leafValues>
        -7.1953636407852173e-01 9.5418184995651245e-02</leafValues></_>
    <_>
      <internalNodes>
        0 -1 462212 5.7085964363068342e-04</internalNodes>
      <leafValues>
        -1.1328808963298798e-01 6.3716745376586914e-01</leafValues></_>
    <_>
      <internalNodes>
        0 -1 121024 6.8056635558605194e-02</internalNodes>
      <leafValues>
        8.2354314625263214e-02 -7.4953943490982056e-01</leafValues></_>
    <_>
      <internalNodes>
        0 -1 527540 1.4389546122401953e-03</internalNodes>
      <leafValues>
        -1.2834507226943970e-01 5.3180646896362305e-01</leafValues></_>
    <_>
      <internalNodes>
        0 -1 79848 -9.2551838606595993e-03</internalNodes>
      <leafValues>
        -7.8108483552932739e-01 9.0888559818267822e-02</leafValues></_>
    <_>
      <internalNodes>
        0 -1 526674 -5.2888004574924707e-04</internalNodes>
      <leafValues>
        3.6424735188484192e-01 -2.0499829947948456e-01</leafValues></_>
    <_>
      <internalNodes>
        0 -1 574606 -4.7638820251449943e-04</internalNodes>
      <leafValues>
        -5.5899000167846680e-01 1.3919296860694885e-01</leafValues></_>
    <_>
      <internalNodes>
        0 -1 476323 -1.4531670603901148e-04</internalNodes>
      <leafValues>
        -3.2261642813682556e-01 1.9741573929786682e-01</leafValues></_>
    <_>
      <internalNodes>
        0 -1 534660 9.5806905301287770e-04</internalNodes>
      <leafValues>
        -2.9241156578063965e-01 2.1489638090133667e-01</leafValues></_>
    <_>
      <internalNodes>
        0 -1 554510 -4.1269427165389061e-03</internalNodes>
      <leafValues>
        4.2496502399444580e-01 -1.4280846714973450e-01</leafValues></_>
    <_>
      <internalNodes>
        0 -1 502100 2.0043945405632257e-03</internalNodes>
      <leafValues>
        -2.3336897790431976e-01 2.6872533559799194e-01</leafValues></_>
    <_>
      <internalNodes>
        0 -1 257898 5.6827031075954437e-03</internalNodes>
      <leafValues>
        -9.9255822598934174e-02 6.6672509908676147e-01</leafValues></_>
    <_>
      <internalNodes>
        0 -1 181691 -1.4403538079932332e-04</internalNodes>
      <leafValues>
        -3.8017013669013977e-01 1.6627435386180878e-01</leafValues></_></weakClassifiers></stage14>
</opencv_storage>
