<?xml version="1.0"?>
<opencv_storage>
<stage5>
  <maxWeakCount>14</maxWeakCount>
  <stageThreshold>-9.2306208610534668e-01</stageThreshold>
  <weakClassifiers>
    <_>
      <internalNodes>
        0 -1 36762 -1.3169365003705025e-02</internalNodes>
      <leafValues>
        7.6642334461212158e-01 -1.1278195679187775e-01</leafValues></_>
    <_>
      <internalNodes>
        0 -1 124561 -8.0997742712497711e-02</internalNodes>
      <leafValues>
        -1.6419503092765808e-01 6.5307444334030151e-01</leafValues></_>
    <_>
      <internalNodes>
        0 -1 573693 3.0650638043880463e-02</internalNodes>
      <leafValues>
        -1.9197997450828552e-01 5.9709960222244263e-01</leafValues></_>
    <_>
      <internalNodes>
        0 -1 2732 6.8148165941238403e-02</internalNodes>
      <leafValues>
        -2.3997282981872559e-01 6.2776553630828857e-01</leafValues></_>
    <_>
      <internalNodes>
        0 -1 573422 -1.1318782344460487e-03</internalNodes>
      <leafValues>
        -4.8456138372421265e-01 2.5423300266265869e-01</leafValues></_>
    <_>
      <internalNodes>
        0 -1 342721 -4.2303763329982758e-03</internalNodes>
      <leafValues>
        2.7412903308868408e-01 -4.2954254150390625e-01</leafValues></_>
    <_>
      <internalNodes>
        0 -1 469437 -1.4923311769962311e-01</internalNodes>
      <leafValues>
        -6.8898290395736694e-01 1.7538453638553619e-01</leafValues></_>
    <_>
      <internalNodes>
        0 -1 10131 -2.2738453000783920e-02</internalNodes>
      <leafValues>
        7.5064885616302490e-01 -1.7551171779632568e-01</leafValues></_>
    <_>
      <internalNodes>
        0 -1 536913 -1.0961785912513733e-02</internalNodes>
      <leafValues>
        5.7841730117797852e-01 -2.0784252882003784e-01</leafValues></_>
    <_>
      <internalNodes>
        0 -1 339000 4.9367005703970790e-04</internalNodes>
      <leafValues>
        -3.0941763520240784e-01 3.5122713446617126e-01</leafValues></_>
    <_>
      <internalNodes>
        0 -1 254217 -9.2477392172440886e-04</internalNodes>
      <leafValues>
        -7.4097537994384766e-01 1.5629599988460541e-01</leafValues></_>
    <_>
      <internalNodes>
        0 -1 257098 -1.8028471386060119e-03</internalNodes>
      <leafValues>
        -7.7993100881576538e-01 1.2212693691253662e-01</leafValues></_>
    <_>
      <internalNodes>
        0 -1 457634 -1.0102396830916405e-02</internalNodes>
      <leafValues>
        1.9217364490032196e-01 -5.0124961137771606e-01</leafValues></_>
    <_>
      <internalNodes>
        0 -1 467629 3.5160072147846222e-02</internalNodes>
      <leafValues>
        -2.2527943551540375e-01 6.2049925327301025e-01</leafValues></_></weakClassifiers></stage5>
</opencv_storage>
