<?xml version="1.0"?>
<opencv_storage>
<stage2>
  <maxWeakCount>7</maxWeakCount>
  <stageThreshold>-4.6689897775650024e-01</stageThreshold>
  <weakClassifiers>
    <_>
      <internalNodes>
        0 -1 567472 3.6250367760658264e-02</internalNodes>
      <leafValues>
        -9.5115683972835541e-02 9.1608393192291260e-01</leafValues></_>
    <_>
      <internalNodes>
        0 -1 124037 -9.3842998147010803e-02</internalNodes>
      <leafValues>
        -3.0321758985519409e-01 5.8490103483200073e-01</leafValues></_>
    <_>
      <internalNodes>
        0 -1 164698 8.7965987622737885e-03</internalNodes>
      <leafValues>
        -2.3128978908061981e-01 7.7509772777557373e-01</leafValues></_>
    <_>
      <internalNodes>
        0 -1 114458 -2.4215908721089363e-02</internalNodes>
      <leafValues>
        6.6883403062820435e-01 -3.4890279173851013e-01</leafValues></_>
    <_>
      <internalNodes>
        0 -1 106405 -1.0034559294581413e-02</internalNodes>
      <leafValues>
        6.9137704372406006e-01 -2.5924167037010193e-01</leafValues></_>
    <_>
      <internalNodes>
        0 -1 556477 -8.4405047819018364e-03</internalNodes>
      <leafValues>
        6.0558289289474487e-01 -3.2300770282745361e-01</leafValues></_>
    <_>
      <internalNodes>
        0 -1 252735 -1.2416105717420578e-02</internalNodes>
      <leafValues>
        -7.2283297777175903e-01 2.7466315031051636e-01</leafValues></_></weakClassifiers></stage2>
</opencv_storage>
