<?xml version="1.0"?>
<opencv_storage>
<stage3>
  <maxWeakCount>7</maxWeakCount>
  <stageThreshold>-6.2273144721984863e-01</stageThreshold>
  <weakClassifiers>
    <_>
      <internalNodes>
        0 -1 52328 -1.0734212398529053e-01</internalNodes>
      <leafValues>
        -4.8175182938575745e-01 6.3885086774826050e-01</leafValues></_>
    <_>
      <internalNodes>
        0 -1 148291 3.1388537026941776e-03</internalNodes>
      <leafValues>
        -3.3509904146194458e-01 7.9235327243804932e-01</leafValues></_>
    <_>
      <internalNodes>
        0 -1 99550 -2.6879410725086927e-03</internalNodes>
      <leafValues>
        6.4205569028854370e-01 -3.3545938134193420e-01</leafValues></_>
    <_>
      <internalNodes>
        0 -1 86909 2.3469771258533001e-03</internalNodes>
      <leafValues>
        -2.8047582507133484e-01 6.8094015121459961e-01</leafValues></_>
    <_>
      <internalNodes>
        0 -1 109622 3.8151936605572701e-03</internalNodes>
      <leafValues>
        -4.6736535429954529e-01 4.8737213015556335e-01</leafValues></_>
    <_>
      <internalNodes>
        0 -1 159161 5.4919412359595299e-03</internalNodes>
      <leafValues>
        -3.9569169282913208e-01 5.7102274894714355e-01</leafValues></_>
    <_>
      <internalNodes>
        0 -1 69573 -1.6727976500988007e-02</internalNodes>
      <leafValues>
        -2.4304178357124329e-01 6.5526396036148071e-01</leafValues></_></weakClassifiers></stage3>
</opencv_storage>
