<?xml version="1.0"?>
<opencv_storage>
<stage15>
  <maxWeakCount>16</maxWeakCount>
  <stageThreshold>-7.0761519670486450e-01</stageThreshold>
  <weakClassifiers>
    <_>
      <internalNodes>
        0 -1 25466 -1.8109232187271118e-03</internalNodes>
      <leafValues>
        5.5763238668441772e-01 -6.3360884785652161e-02</leafValues></_>
    <_>
      <internalNodes>
        0 -1 67604 2.1527139469981194e-03</internalNodes>
      <leafValues>
        -2.2606463730335236e-01 4.3586447834968567e-01</leafValues></_>
    <_>
      <internalNodes>
        0 -1 24342 -5.5489791557192802e-03</internalNodes>
      <leafValues>
        4.2030087113380432e-01 -1.8848808109760284e-01</leafValues></_>
    <_>
      <internalNodes>
        0 -1 34902 -1.3743725419044495e-01</internalNodes>
      <leafValues>
        -8.7954235076904297e-01 7.3108851909637451e-02</leafValues></_>
    <_>
      <internalNodes>
        0 -1 92853 4.8166266642510891e-03</internalNodes>
      <leafValues>
        -3.5984423756599426e-01 2.3831048607826233e-01</leafValues></_>
    <_>
      <internalNodes>
        0 -1 47876 -3.8134437054395676e-02</internalNodes>
      <leafValues>
        -9.0042024850845337e-01 7.7090837061405182e-02</leafValues></_>
    <_>
      <internalNodes>
        0 -1 1333 -3.3586630597710609e-03</internalNodes>
      <leafValues>
        3.5298830270767212e-01 -2.2217307984828949e-01</leafValues></_>
    <_>
      <internalNodes>
        0 -1 13372 -1.1440608650445938e-03</internalNodes>
      <leafValues>
        -7.5550848245620728e-01 1.0107823461294174e-01</leafValues></_>
    <_>
      <internalNodes>
        0 -1 137087 7.0592237170785666e-04</internalNodes>
      <leafValues>
        -1.8679858744144440e-01 4.2021331191062927e-01</leafValues></_>
    <_>
      <internalNodes>
        0 -1 99264 -1.3554318808019161e-02</internalNodes>
      <leafValues>
        4.3446958065032959e-01 -1.7083115875720978e-01</leafValues></_>
    <_>
      <internalNodes>
        0 -1 2825 3.2882928848266602e-02</internalNodes>
      <leafValues>
        1.3601504266262054e-01 -6.9463133811950684e-01</leafValues></_>
    <_>
      <internalNodes>
        0 -1 80841 4.3285395950078964e-03</internalNodes>
      <leafValues>
        -1.6013911366462708e-01 5.9409505128860474e-01</leafValues></_>
    <_>
      <internalNodes>
        0 -1 4276 -5.8558709919452667e-02</internalNodes>
      <leafValues>
        3.2062673568725586e-01 -2.5942757725715637e-01</leafValues></_>
    <_>
      <internalNodes>
        0 -1 43743 6.7074717953801155e-03</internalNodes>
      <leafValues>
        -1.3945071399211884e-01 7.0259827375411987e-01</leafValues></_>
    <_>
      <internalNodes>
        0 -1 99430 1.8307855352759361e-02</internalNodes>
      <leafValues>
        1.3502538204193115e-01 -6.6696190834045410e-01</leafValues></_>
    <_>
      <internalNodes>
        0 -1 119023 1.8899783026427031e-03</internalNodes>
      <leafValues>
        -1.7297773063182831e-01 5.3340017795562744e-01</leafValues></_></weakClassifiers></stage15>
</opencv_storage>
