<?xml version="1.0"?>
<opencv_storage>
<stage1>
  <maxWeakCount>12</maxWeakCount>
  <stageThreshold>-5.7117694616317749e-01</stageThreshold>
  <weakClassifiers>
    <_>
      <internalNodes>
        0 -1 46908 -8.1413136795163155e-03</internalNodes>
      <leafValues>
        7.3180079460144043e-01 -1.0655737668275833e-01</leafValues></_>
    <_>
      <internalNodes>
        0 -1 553225 9.5181753858923912e-03</internalNodes>
      <leafValues>
        -2.6376855373382568e-01 5.8860081434249878e-01</leafValues></_>
    <_>
      <internalNodes>
        0 -1 360762 -1.3260239735245705e-02</internalNodes>
      <leafValues>
        5.0359672307968140e-01 -2.8783106803894043e-01</leafValues></_>
    <_>
      <internalNodes>
        0 -1 288581 -1.5733812004327774e-02</internalNodes>
      <leafValues>
        -7.2553896903991699e-01 2.0455367863178253e-01</leafValues></_>
    <_>
      <internalNodes>
        0 -1 108523 -4.0142185986042023e-02</internalNodes>
      <leafValues>
        8.1327062845230103e-01 -2.1032512187957764e-01</leafValues></_>
    <_>
      <internalNodes>
        0 -1 289704 2.8775569051504135e-02</internalNodes>
      <leafValues>
        -1.6349746286869049e-01 7.3607850074768066e-01</leafValues></_>
    <_>
      <internalNodes>
        0 -1 424931 9.7981020808219910e-03</internalNodes>
      <leafValues>
        -1.6324014961719513e-01 7.3411357402801514e-01</leafValues></_>
    <_>
      <internalNodes>
        0 -1 362882 -8.4202690050005913e-03</internalNodes>
      <leafValues>
        6.6200387477874756e-01 -2.0730789005756378e-01</leafValues></_>
    <_>
      <internalNodes>
        0 -1 547081 -7.8399982303380966e-03</internalNodes>
      <leafValues>
        5.5024880170822144e-01 -2.2450852394104004e-01</leafValues></_>
    <_>
      <internalNodes>
        0 -1 98233 -1.8658067286014557e-01</internalNodes>
      <leafValues>
        -3.6136534810066223e-01 3.8411295413970947e-01</leafValues></_>
    <_>
      <internalNodes>
        0 -1 425052 4.2938059195876122e-03</internalNodes>
      <leafValues>
        -1.5793789923191071e-01 8.2712656259536743e-01</leafValues></_>
    <_>
      <internalNodes>
        0 -1 378385 -1.9563492387533188e-03</internalNodes>
      <leafValues>
        4.2613270878791809e-01 -2.7318835258483887e-01</leafValues></_></weakClassifiers></stage1>
</opencv_storage>
