<?xml version="1.0"?>
<opencv_storage>
<stage7>
  <maxWeakCount>20</maxWeakCount>
  <stageThreshold>-3.3372765779495239e-01</stageThreshold>
  <weakClassifiers>
    <_>
      <internalNodes>
        0 -1 545755 3.1260401010513306e-02</internalNodes>
      <leafValues>
        3.0821917578577995e-02 7.3239433765411377e-01</leafValues></_>
    <_>
      <internalNodes>
        0 -1 270 -2.3391373455524445e-02</internalNodes>
      <leafValues>
        5.2166956663131714e-01 -1.4666573703289032e-01</leafValues></_>
    <_>
      <internalNodes>
        0 -1 106916 -1.4690027572214603e-02</internalNodes>
      <leafValues>
        5.4393643140792847e-01 -1.5793374180793762e-01</leafValues></_>
    <_>
      <internalNodes>
        0 -1 1901 -2.8279863297939301e-02</internalNodes>
      <leafValues>
        7.0625615119934082e-01 -1.3866536319255829e-01</leafValues></_>
    <_>
      <internalNodes>
        0 -1 58580 4.4541601091623306e-03</internalNodes>
      <leafValues>
        -1.8203032016754150e-01 5.4166322946548462e-01</leafValues></_>
    <_>
      <internalNodes>
        0 -1 166386 -6.2727972865104675e-02</internalNodes>
      <leafValues>
        -7.5386144220829010e-02 8.5601830482482910e-01</leafValues></_>
    <_>
      <internalNodes>
        0 -1 24565 -7.8707477077841759e-03</internalNodes>
      <leafValues>
        3.1818810105323792e-01 -2.9934772849082947e-01</leafValues></_>
    <_>
      <internalNodes>
        0 -1 156025 -4.7190422192215919e-03</internalNodes>
      <leafValues>
        -7.0532345771789551e-01 1.2852001190185547e-01</leafValues></_>
    <_>
      <internalNodes>
        0 -1 40632 2.8127074241638184e-02</internalNodes>
      <leafValues>
        -2.2595348954200745e-01 3.9141449332237244e-01</leafValues></_>
    <_>
      <internalNodes>
        0 -1 39489 -3.8857571780681610e-02</internalNodes>
      <leafValues>
        4.5963391661643982e-01 -2.2126223146915436e-01</leafValues></_>
    <_>
      <internalNodes>
        0 -1 202260 -1.1932728812098503e-02</internalNodes>
      <leafValues>
        4.4321238994598389e-01 -1.9427585601806641e-01</leafValues></_>
    <_>
      <internalNodes>
        0 -1 361621 7.7137635089457035e-03</internalNodes>
      <leafValues>
        1.5586727857589722e-01 -6.2122726440429688e-01</leafValues></_>
    <_>
      <internalNodes>
        0 -1 113205 -6.5172389149665833e-02</internalNodes>
      <leafValues>
        7.5215572118759155e-01 -1.2379907816648483e-01</leafValues></_>
    <_>
      <internalNodes>
        0 -1 500571 -4.0542997419834137e-02</internalNodes>
      <leafValues>
        -9.8992891609668732e-02 6.6946667432785034e-01</leafValues></_>
    <_>
      <internalNodes>
        0 -1 369 7.1914796717464924e-03</internalNodes>
      <leafValues>
        -1.1704373359680176e-01 7.0656096935272217e-01</leafValues></_>
    <_>
      <internalNodes>
        0 -1 347088 -9.5008042990230024e-05</internalNodes>
      <leafValues>
        1.6818004846572876e-01 -5.8653634786605835e-01</leafValues></_>
    <_>
      <internalNodes>
        0 -1 553072 -1.7578885890543461e-03</internalNodes>
      <leafValues>
        -5.3303289413452148e-01 1.4932255446910858e-01</leafValues></_>
    <_>
      <internalNodes>
        0 -1 207192 -2.9289787635207176e-03</internalNodes>
      <leafValues>
        5.6862115859985352e-01 -1.4979438483715057e-01</leafValues></_>
    <_>
      <internalNodes>
        0 -1 77339 -3.9134281687438488e-03</internalNodes>
      <leafValues>
        -5.2907842397689819e-01 1.5539765357971191e-01</leafValues></_>
    <_>
      <internalNodes>
        0 -1 544103 6.8365088663995266e-03</internalNodes>
      <leafValues>
        -1.6630260646343231e-01 5.0917375087738037e-01</leafValues></_></weakClassifiers></stage7>
</opencv_storage>
