<?xml version="1.0"?>
<opencv_storage>
<cascade>
  <stageType>BOOST</stageType>
  <featureType>HAAR</featureType>
  <height>54</height>
  <width>20</width>
  <stageParams>
    <boostType>GAB</boostType>
    <minHitRate>9.9000000953674316e-01</minHitRate>
    <maxFalseAlarm>3.0000001192092896e-01</maxFalseAlarm>
    <weightTrimRate>9.4999999999999996e-01</weightTrimRate>
    <maxDepth>1</maxDepth>
    <maxWeakCount>100</maxWeakCount></stageParams>
  <featureParams>
    <maxCatCount>0</maxCatCount>
    <featSize>1</featSize>
    <mode>BASIC</mode></featureParams>
  <stageNum>15</stageNum>
  <stages>
    <!-- stage 0 -->
    <_>
      <maxWeakCount>8</maxWeakCount>
      <stageThreshold>-6.4377838373184204e-01</stageThreshold>
      <weakClassifiers>
        <_>
          <internalNodes>
            0 -1 134 -1.8458414822816849e-02</internalNodes>
          <leafValues>
            -7.3584908246994019e-01 7.0469796657562256e-01</leafValues></_>
        <_>
          <internalNodes>
            0 -1 167 -5.0314046442508698e-02</internalNodes>
          <leafValues>
            8.1361788511276245e-01 -3.3935374021530151e-01</leafValues></_>
        <_>
          <internalNodes>
            0 -1 78 -1.4678390324115753e-01</internalNodes>
          <leafValues>
            -2.8250336647033691e-01 8.1094992160797119e-01</leafValues></_>
        <_>
          <internalNodes>
            0 -1 148 -1.3975000008940697e-02</internalNodes>
          <leafValues>
            6.3238787651062012e-01 -3.7308096885681152e-01</leafValues></_>
        <_>
          <internalNodes>
            0 -1 138 -1.4226488769054413e-02</internalNodes>
          <leafValues>
            8.2462805509567261e-01 -2.0520310103893280e-01</leafValues></_>
        <_>
          <internalNodes>
            0 -1 192 9.1780824586749077e-03</internalNodes>
          <leafValues>
            -1.7512190341949463e-01 8.4990638494491577e-01</leafValues></_>
        <_>
          <internalNodes>
            0 -1 47 2.6453288272023201e-02</internalNodes>
          <leafValues>
            -2.6075094938278198e-01 6.0928076505661011e-01</leafValues></_>
        <_>
          <internalNodes>
            0 -1 288 -7.5616980902850628e-03</internalNodes>
          <leafValues>
            -6.5045642852783203e-01 2.8753766417503357e-01</leafValues></_></weakClassifiers></_>
    <!-- stage 1 -->
    <_>
      <maxWeakCount>12</maxWeakCount>
      <stageThreshold>-5.7117694616317749e-01</stageThreshold>
      <weakClassifiers>
        <_>
          <internalNodes>
            0 -1 31 -8.1413136795163155e-03</internalNodes>
          <leafValues>
            7.3180079460144043e-01 -1.0655737668275833e-01</leafValues></_>
        <_>
          <internalNodes>
            0 -1 278 9.5181753858923912e-03</internalNodes>
          <leafValues>
            -2.6376855373382568e-01 5.8860081434249878e-01</leafValues></_>
        <_>
          <internalNodes>
            0 -1 179 -1.3260239735245705e-02</internalNodes>
          <leafValues>
            5.0359672307968140e-01 -2.8783106803894043e-01</leafValues></_>
        <_>
          <internalNodes>
            0 -1 151 -1.5733812004327774e-02</internalNodes>
          <leafValues>
            -7.2553896903991699e-01 2.0455367863178253e-01</leafValues></_>
        <_>
          <internalNodes>
            0 -1 71 -4.0142185986042023e-02</internalNodes>
          <leafValues>
            8.1327062845230103e-01 -2.1032512187957764e-01</leafValues></_>
        <_>
          <internalNodes>
            0 -1 154 2.8775569051504135e-02</internalNodes>
          <leafValues>
            -1.6349746286869049e-01 7.3607850074768066e-01</leafValues></_>
        <_>
          <internalNodes>
            0 -1 200 9.7981020808219910e-03</internalNodes>
          <leafValues>
            -1.6324014961719513e-01 7.3411357402801514e-01</leafValues></_>
        <_>
          <internalNodes>
            0 -1 183 -8.4202690050005913e-03</internalNodes>
          <leafValues>
            6.6200387477874756e-01 -2.0730789005756378e-01</leafValues></_>
        <_>
          <internalNodes>
            0 -1 271 -7.8399982303380966e-03</internalNodes>
          <leafValues>
            5.5024880170822144e-01 -2.2450852394104004e-01</leafValues></_>
        <_>
          <internalNodes>
            0 -1 60 -1.8658067286014557e-01</internalNodes>
          <leafValues>
            -3.6136534810066223e-01 3.8411295413970947e-01</leafValues></_>
        <_>
          <internalNodes>
            0 -1 201 4.2938059195876122e-03</internalNodes>
          <leafValues>
            -1.5793789923191071e-01 8.2712656259536743e-01</leafValues></_>
        <_>
          <internalNodes>
            0 -1 184 -1.9563492387533188e-03</internalNodes>
          <leafValues>
            4.2613270878791809e-01 -2.7318835258483887e-01</leafValues></_></weakClassifiers></_>
    <!-- stage 2 -->
    <_>
      <maxWeakCount>14</maxWeakCount>
      <stageThreshold>-6.0847169160842896e-01</stageThreshold>
      <weakClassifiers>
        <_>
          <internalNodes>
            0 -1 20 -2.4247996509075165e-02</internalNodes>
          <leafValues>
            8.6129754781723022e-01 -9.7690939903259277e-02</leafValues></_>
        <_>
          <internalNodes>
            0 -1 258 -4.5677714049816132e-02</internalNodes>
          <leafValues>
            -2.0863132178783417e-01 7.1539199352264404e-01</leafValues></_>
        <_>
          <internalNodes>
            0 -1 272 6.8819828331470490e-02</internalNodes>
          <leafValues>
            -1.5345029532909393e-01 8.3041757345199585e-01</leafValues></_>
        <_>
          <internalNodes>
            0 -1 51 2.9241815209388733e-02</internalNodes>
          <leafValues>
            -2.0562712848186493e-01 6.9849342107772827e-01</leafValues></_>
        <_>
          <internalNodes>
            0 -1 205 -2.1062850952148438e-02</internalNodes>
          <leafValues>
            -2.3487441241741180e-01 5.4583150148391724e-01</leafValues></_>
        <_>
          <internalNodes>
            0 -1 149 -1.3547927141189575e-02</internalNodes>
          <leafValues>
            5.6805217266082764e-01 -2.3120220005512238e-01</leafValues></_>
        <_>
          <internalNodes>
            0 -1 82 -7.2130099870264530e-03</internalNodes>
          <leafValues>
            -6.1286962032318115e-01 2.2438652813434601e-01</leafValues></_>
        <_>
          <internalNodes>
            0 -1 69 2.8644576668739319e-02</internalNodes>
          <leafValues>
            -1.8468859791755676e-01 7.2034245729446411e-01</leafValues></_>
        <_>
          <internalNodes>
            0 -1 24 5.4138086852617562e-05</internalNodes>
          <leafValues>
            3.3303490281105042e-01 -3.7413170933723450e-01</leafValues></_>
        <_>
          <internalNodes>
            0 -1 13 2.8426073491573334e-02</internalNodes>
          <leafValues>
            -1.9755269587039948e-01 5.6503558158874512e-01</leafValues></_>
        <_>
          <internalNodes>
            0 -1 185 -6.4712448511272669e-04</internalNodes>
          <leafValues>
            5.0254034996032715e-01 -2.1567890048027039e-01</leafValues></_>
        <_>
          <internalNodes>
            0 -1 23 3.5659976303577423e-02</internalNodes>
          <leafValues>
            -1.1887358129024506e-01 8.9066916704177856e-01</leafValues></_>
        <_>
          <internalNodes>
            0 -1 124 -6.8035162985324860e-03</internalNodes>
          <leafValues>
            -1.3211198151111603e-01 7.3465335369110107e-01</leafValues></_>
        <_>
          <internalNodes>
            0 -1 114 4.9833776429295540e-03</internalNodes>
          <leafValues>
            -1.3137719035148621e-01 6.9232052564620972e-01</leafValues></_></weakClassifiers></_>
    <!-- stage 3 -->
    <_>
      <maxWeakCount>14</maxWeakCount>
      <stageThreshold>-3.9873549342155457e-01</stageThreshold>
      <weakClassifiers>
        <_>
          <internalNodes>
            0 -1 42 -4.0767556428909302e-01</internalNodes>
          <leafValues>
            -1.2138728052377701e-01 8.0040735006332397e-01</leafValues></_>
        <_>
          <internalNodes>
            0 -1 272 5.1755256950855255e-02</internalNodes>
          <leafValues>
            -1.6497184336185455e-01 7.6496165990829468e-01</leafValues></_>
        <_>
          <internalNodes>
            0 -1 141 -1.4474382996559143e-01</internalNodes>
          <leafValues>
            -2.9970887303352356e-01 4.5222476124763489e-01</leafValues></_>
        <_>
          <internalNodes>
            0 -1 286 -1.0182939469814301e-02</internalNodes>
          <leafValues>
            7.2629845142364502e-01 -2.3106731474399567e-01</leafValues></_>
        <_>
          <internalNodes>
            0 -1 257 -1.4304170385003090e-02</internalNodes>
          <leafValues>
            -7.4853934347629547e-02 7.9382693767547607e-01</leafValues></_>
        <_>
          <internalNodes>
            0 -1 190 6.0771992430090904e-03</internalNodes>
          <leafValues>
            -1.3986690342426300e-01 7.0674639940261841e-01</leafValues></_>
        <_>
          <internalNodes>
            0 -1 92 9.4600412994623184e-03</internalNodes>
          <leafValues>
            -1.0919662564992905e-01 8.3167701959609985e-01</leafValues></_>
        <_>
          <internalNodes>
            0 -1 74 -4.1407972574234009e-02</internalNodes>
          <leafValues>
            -1.3798514008522034e-01 7.5182384252548218e-01</leafValues></_>
        <_>
          <internalNodes>
            0 -1 72 -9.2101739719510078e-03</internalNodes>
          <leafValues>
            5.8485531806945801e-01 -1.6267026960849762e-01</leafValues></_>
        <_>
          <internalNodes>
            0 -1 73 5.9923585504293442e-03</internalNodes>
          <leafValues>
            -1.6564328968524933e-01 6.9029474258422852e-01</leafValues></_>
        <_>
          <internalNodes>
            0 -1 19 -9.9047143012285233e-03</internalNodes>
          <leafValues>
            -1.3964305818080902e-01 6.5772879123687744e-01</leafValues></_>
        <_>
          <internalNodes>
            0 -1 17 -9.1821849346160889e-03</internalNodes>
          <leafValues>
            5.8262723684310913e-01 -1.7266219854354858e-01</leafValues></_>
        <_>
          <internalNodes>
            0 -1 177 -1.7842844128608704e-02</internalNodes>
          <leafValues>
            -1.4391054213047028e-01 8.0841141939163208e-01</leafValues></_>
        <_>
          <internalNodes>
            0 -1 253 -5.7233893312513828e-03</internalNodes>
          <leafValues>
            -7.7198797464370728e-01 1.6201674938201904e-01</leafValues></_></weakClassifiers></_>
    <!-- stage 4 -->
    <_>
      <maxWeakCount>16</maxWeakCount>
      <stageThreshold>-5.9294956922531128e-01</stageThreshold>
      <weakClassifiers>
        <_>
          <internalNodes>
            0 -1 4 -4.0564723312854767e-02</internalNodes>
          <leafValues>
            6.9477909803390503e-01 -3.1250000000000000e-02</leafValues></_>
        <_>
          <internalNodes>
            0 -1 129 -1.3916031457483768e-02</internalNodes>
          <leafValues>
            4.9031630158424377e-01 -2.4146875739097595e-01</leafValues></_>
        <_>
          <internalNodes>
            0 -1 44 -3.8077846169471741e-02</internalNodes>
          <leafValues>
            6.7418926954269409e-01 -1.8128752708435059e-01</leafValues></_>
        <_>
          <internalNodes>
            0 -1 223 -2.5374090764671564e-03</internalNodes>
          <leafValues>
            7.2258710861206055e-01 -2.0110592246055603e-01</leafValues></_>
        <_>
          <internalNodes>
            0 -1 157 -1.0252776555716991e-02</internalNodes>
          <leafValues>
            4.6335178613662720e-01 -2.3195157945156097e-01</leafValues></_>
        <_>
          <internalNodes>
            0 -1 100 -1.6005606949329376e-01</internalNodes>
          <leafValues>
            -1.0821474343538284e-01 8.5453522205352783e-01</leafValues></_>
        <_>
          <internalNodes>
            0 -1 281 -2.4840184487402439e-03</internalNodes>
          <leafValues>
            6.3010793924331665e-01 -1.8451490998268127e-01</leafValues></_>
        <_>
          <internalNodes>
            0 -1 169 -5.7775359600782394e-03</internalNodes>
          <leafValues>
            -1.4368087053298950e-01 7.0530915260314941e-01</leafValues></_>
        <_>
          <internalNodes>
            0 -1 276 -5.7773035950958729e-03</internalNodes>
          <leafValues>
            -4.9476307630538940e-01 2.5502046942710876e-01</leafValues></_>
        <_>
          <internalNodes>
            0 -1 125 -6.6972896456718445e-03</internalNodes>
          <leafValues>
            3.3281740546226501e-01 -2.9769811034202576e-01</leafValues></_>
        <_>
          <internalNodes>
            0 -1 226 -1.0417346493341029e-04</internalNodes>
          <leafValues>
            5.0776737928390503e-01 -1.7966160178184509e-01</leafValues></_>
        <_>
          <internalNodes>
            0 -1 115 -2.5832332670688629e-02</internalNodes>
          <leafValues>
            7.0535671710968018e-01 -1.2941855192184448e-01</leafValues></_>
        <_>
          <internalNodes>
            0 -1 173 -2.2270580753684044e-02</internalNodes>
          <leafValues>
            4.7560405731201172e-01 -1.9412595033645630e-01</leafValues></_>
        <_>
          <internalNodes>
            0 -1 234 -2.5160468649119139e-03</internalNodes>
          <leafValues>
            6.1297321319580078e-01 -1.2961837649345398e-01</leafValues></_>
        <_>
          <internalNodes>
            0 -1 106 -2.4971932172775269e-02</internalNodes>
          <leafValues>
            -1.4411646127700806e-01 6.6186612844467163e-01</leafValues></_>
        <_>
          <internalNodes>
            0 -1 189 -2.3836551699787378e-03</internalNodes>
          <leafValues>
            5.3408938646316528e-01 -1.7017398774623871e-01</leafValues></_></weakClassifiers></_>
    <!-- stage 5 -->
    <_>
      <maxWeakCount>19</maxWeakCount>
      <stageThreshold>-5.9163838624954224e-01</stageThreshold>
      <weakClassifiers>
        <_>
          <internalNodes>
            0 -1 27 -9.3015447258949280e-02</internalNodes>
          <leafValues>
            -6.3302749395370483e-01 4.4284129142761230e-01</leafValues></_>
        <_>
          <internalNodes>
            0 -1 193 -4.6723343431949615e-02</internalNodes>
          <leafValues>
            3.8412842154502869e-01 -3.0426353216171265e-01</leafValues></_>
        <_>
          <internalNodes>
            0 -1 130 -8.0814845860004425e-03</internalNodes>
          <leafValues>
            3.9646372199058533e-01 -2.7775016427040100e-01</leafValues></_>
        <_>
          <internalNodes>
            0 -1 119 -8.3268824964761734e-03</internalNodes>
          <leafValues>
            4.2167648673057556e-01 -2.6525816321372986e-01</leafValues></_>
        <_>
          <internalNodes>
            0 -1 218 -6.7440848797559738e-03</internalNodes>
          <leafValues>
            5.0875264406204224e-01 -2.0635348558425903e-01</leafValues></_>
        <_>
          <internalNodes>
            0 -1 81 -6.5860420465469360e-02</internalNodes>
          <leafValues>
            -4.1704785823822021e-01 2.5158858299255371e-01</leafValues></_>
        <_>
          <internalNodes>
            0 -1 45 -2.8415943233994767e-05</internalNodes>
          <leafValues>
            4.2082878947257996e-01 -2.2130548954010010e-01</leafValues></_>
        <_>
          <internalNodes>
            0 -1 250 4.2385947890579700e-03</internalNodes>
          <leafValues>
            -2.2595058381557465e-01 3.8440662622451782e-01</leafValues></_>
        <_>
          <internalNodes>
            0 -1 131 4.7319825738668442e-02</internalNodes>
          <leafValues>
            -1.2681710720062256e-01 8.0657279491424561e-01</leafValues></_>
        <_>
          <internalNodes>
            0 -1 249 -5.4700451437383890e-04</internalNodes>
          <leafValues>
            4.4250562787055969e-01 -1.8641445040702820e-01</leafValues></_>
        <_>
          <internalNodes>
            0 -1 14 -4.4068731367588043e-03</internalNodes>
          <leafValues>
            5.2176332473754883e-01 -1.4699889719486237e-01</leafValues></_>
        <_>
          <internalNodes>
            0 -1 256 -1.1429241858422756e-02</internalNodes>
          <leafValues>
            -6.5255218744277954e-01 1.4303617179393768e-01</leafValues></_>
        <_>
          <internalNodes>
            0 -1 48 1.0900084860622883e-02</internalNodes>
          <leafValues>
            -1.3186693191528320e-01 7.2502380609512329e-01</leafValues></_>
        <_>
          <internalNodes>
            0 -1 212 -2.5305799208581448e-03</internalNodes>
          <leafValues>
            4.7587594389915466e-01 -1.7052219808101654e-01</leafValues></_>
        <_>
          <internalNodes>
            0 -1 159 3.5002164077013731e-03</internalNodes>
          <leafValues>
            -1.6159391403198242e-01 5.3088533878326416e-01</leafValues></_>
        <_>
          <internalNodes>
            0 -1 133 6.7112888209521770e-03</internalNodes>
          <leafValues>
            1.5161128342151642e-01 -7.2858345508575439e-01</leafValues></_>
        <_>
          <internalNodes>
            0 -1 57 -1.1441981769166887e-04</internalNodes>
          <leafValues>
            3.9729091525077820e-01 -2.8403359651565552e-01</leafValues></_>
        <_>
          <internalNodes>
            0 -1 233 -3.4386795014142990e-02</internalNodes>
          <leafValues>
            -2.0115259289741516e-01 5.0212222337722778e-01</leafValues></_>
        <_>
          <internalNodes>
            0 -1 161 1.8314406275749207e-02</internalNodes>
          <leafValues>
            -2.3483374714851379e-01 4.0261641144752502e-01</leafValues></_></weakClassifiers></_>
    <!-- stage 6 -->
    <_>
      <maxWeakCount>17</maxWeakCount>
      <stageThreshold>-4.5921060442924500e-01</stageThreshold>
      <weakClassifiers>
        <_>
          <internalNodes>
            0 -1 22 -3.9246670901775360e-02</internalNodes>
          <leafValues>
            7.3417723178863525e-01 -3.3582091331481934e-02</leafValues></_>
        <_>
          <internalNodes>
            0 -1 284 1.7537616193294525e-02</internalNodes>
          <leafValues>
            -1.8104921281337738e-01 6.2077045440673828e-01</leafValues></_>
        <_>
          <internalNodes>
            0 -1 50 4.0619865059852600e-02</internalNodes>
          <leafValues>
            -1.3838449120521545e-01 7.4878567457199097e-01</leafValues></_>
        <_>
          <internalNodes>
            0 -1 91 -2.8278447687625885e-02</internalNodes>
          <leafValues>
            6.4915013313293457e-01 -1.5781885385513306e-01</leafValues></_>
        <_>
          <internalNodes>
            0 -1 34 -2.4276701733469963e-03</internalNodes>
          <leafValues>
            4.6278113126754761e-01 -2.2239235043525696e-01</leafValues></_>
        <_>
          <internalNodes>
            0 -1 219 -3.2260462641716003e-02</internalNodes>
          <leafValues>
            4.3459254503250122e-01 -1.8694503605365753e-01</leafValues></_>
        <_>
          <internalNodes>
            0 -1 202 3.5517946816980839e-03</internalNodes>
          <leafValues>
            9.5063030719757080e-02 -9.7916042804718018e-01</leafValues></_>
        <_>
          <internalNodes>
            0 -1 280 7.1860384196043015e-04</internalNodes>
          <leafValues>
            -2.1955262124538422e-01 3.6906483769416809e-01</leafValues></_>
        <_>
          <internalNodes>
            0 -1 94 -1.8007303774356842e-01</internalNodes>
          <leafValues>
            -1.1484272778034210e-01 7.6059532165527344e-01</leafValues></_>
        <_>
          <internalNodes>
            0 -1 296 -2.5010160170495510e-03</internalNodes>
          <leafValues>
            5.4595917463302612e-01 -1.5152955055236816e-01</leafValues></_>
        <_>
          <internalNodes>
            0 -1 21 2.1333204582333565e-02</internalNodes>
          <leafValues>
            -1.7062582075595856e-01 5.1826244592666626e-01</leafValues></_>
        <_>
          <internalNodes>
            0 -1 146 -2.4090522900223732e-02</internalNodes>
          <leafValues>
            -6.6346341371536255e-01 1.5603181719779968e-01</leafValues></_>
        <_>
          <internalNodes>
            0 -1 251 -7.2735697031021118e-03</internalNodes>
          <leafValues>
            2.7890828251838684e-01 -3.3552423119544983e-01</leafValues></_>
        <_>
          <internalNodes>
            0 -1 108 4.6317731030285358e-03</internalNodes>
          <leafValues>
            1.0080102086067200e-01 -8.5525530576705933e-01</leafValues></_>
        <_>
          <internalNodes>
            0 -1 107 -1.6935258463490754e-04</internalNodes>
          <leafValues>
            1.4671726524829865e-01 -5.3155088424682617e-01</leafValues></_>
        <_>
          <internalNodes>
            0 -1 105 4.6211224049329758e-02</internalNodes>
          <leafValues>
            -1.7761150002479553e-01 5.9550499916076660e-01</leafValues></_>
        <_>
          <internalNodes>
            0 -1 163 -2.5120207574218512e-03</internalNodes>
          <leafValues>
            5.1330083608627319e-01 -1.6586352884769440e-01</leafValues></_></weakClassifiers></_>
    <!-- stage 7 -->
    <_>
      <maxWeakCount>20</maxWeakCount>
      <stageThreshold>-3.3372765779495239e-01</stageThreshold>
      <weakClassifiers>
        <_>
          <internalNodes>
            0 -1 269 3.1260401010513306e-02</internalNodes>
          <leafValues>
            3.0821917578577995e-02 7.3239433765411377e-01</leafValues></_>
        <_>
          <internalNodes>
            0 -1 3 -2.3391373455524445e-02</internalNodes>
          <leafValues>
            5.2166956663131714e-01 -1.4666573703289032e-01</leafValues></_>
        <_>
          <internalNodes>
            0 -1 70 -1.4690027572214603e-02</internalNodes>
          <leafValues>
            5.4393643140792847e-01 -1.5793374180793762e-01</leafValues></_>
        <_>
          <internalNodes>
            0 -1 11 -2.8279863297939301e-02</internalNodes>
          <leafValues>
            7.0625615119934082e-01 -1.3866536319255829e-01</leafValues></_>
        <_>
          <internalNodes>
            0 -1 46 4.4541601091623306e-03</internalNodes>
          <leafValues>
            -1.8203032016754150e-01 5.4166322946548462e-01</leafValues></_>
        <_>
          <internalNodes>
            0 -1 98 -6.2727972865104675e-02</internalNodes>
          <leafValues>
            -7.5386144220829010e-02 8.5601830482482910e-01</leafValues></_>
        <_>
          <internalNodes>
            0 -1 25 -7.8707477077841759e-03</internalNodes>
          <leafValues>
            3.1818810105323792e-01 -2.9934772849082947e-01</leafValues></_>
        <_>
          <internalNodes>
            0 -1 86 -4.7190422192215919e-03</internalNodes>
          <leafValues>
            -7.0532345771789551e-01 1.2852001190185547e-01</leafValues></_>
        <_>
          <internalNodes>
            0 -1 29 2.8127074241638184e-02</internalNodes>
          <leafValues>
            -2.2595348954200745e-01 3.9141449332237244e-01</leafValues></_>
        <_>
          <internalNodes>
            0 -1 28 -3.8857571780681610e-02</internalNodes>
          <leafValues>
            4.5963391661643982e-01 -2.2126223146915436e-01</leafValues></_>
        <_>
          <internalNodes>
            0 -1 110 -1.1932728812098503e-02</internalNodes>
          <leafValues>
            4.4321238994598389e-01 -1.9427585601806641e-01</leafValues></_>
        <_>
          <internalNodes>
            0 -1 180 7.7137635089457035e-03</internalNodes>
          <leafValues>
            1.5586727857589722e-01 -6.2122726440429688e-01</leafValues></_>
        <_>
          <internalNodes>
            0 -1 75 -6.5172389149665833e-02</internalNodes>
          <leafValues>
            7.5215572118759155e-01 -1.2379907816648483e-01</leafValues></_>
        <_>
          <internalNodes>
            0 -1 227 -4.0542997419834137e-02</internalNodes>
          <leafValues>
            -9.8992891609668732e-02 6.6946667432785034e-01</leafValues></_>
        <_>
          <internalNodes>
            0 -1 5 7.1914796717464924e-03</internalNodes>
          <leafValues>
            -1.1704373359680176e-01 7.0656096935272217e-01</leafValues></_>
        <_>
          <internalNodes>
            0 -1 175 -9.5008042990230024e-05</internalNodes>
          <leafValues>
            1.6818004846572876e-01 -5.8653634786605835e-01</leafValues></_>
        <_>
          <internalNodes>
            0 -1 277 -1.7578885890543461e-03</internalNodes>
          <leafValues>
            -5.3303289413452148e-01 1.4932255446910858e-01</leafValues></_>
        <_>
          <internalNodes>
            0 -1 118 -2.9289787635207176e-03</internalNodes>
          <leafValues>
            5.6862115859985352e-01 -1.4979438483715057e-01</leafValues></_>
        <_>
          <internalNodes>
            0 -1 55 -3.9134281687438488e-03</internalNodes>
          <leafValues>
            -5.2907842397689819e-01 1.5539765357971191e-01</leafValues></_>
        <_>
          <internalNodes>
            0 -1 262 6.8365088663995266e-03</internalNodes>
          <leafValues>
            -1.6630260646343231e-01 5.0917375087738037e-01</leafValues></_></weakClassifiers></_>
    <!-- stage 8 -->
    <_>
      <maxWeakCount>24</maxWeakCount>
      <stageThreshold>-3.4707403182983398e-01</stageThreshold>
      <weakClassifiers>
        <_>
          <internalNodes>
            0 -1 52 -2.9212787747383118e-01</internalNodes>
          <leafValues>
            1.0135135054588318e-01 6.4593303203582764e-01</leafValues></_>
        <_>
          <internalNodes>
            0 -1 111 1.3536205515265465e-02</internalNodes>
          <leafValues>
            -1.4789362251758575e-01 4.8778799176216125e-01</leafValues></_>
        <_>
          <internalNodes>
            0 -1 65 -5.7311723940074444e-03</internalNodes>
          <leafValues>
            5.7687664031982422e-01 -1.3114319741725922e-01</leafValues></_>
        <_>
          <internalNodes>
            0 -1 143 -8.9855035766959190e-03</internalNodes>
          <leafValues>
            -1.6058245301246643e-01 5.7742422819137573e-01</leafValues></_>
        <_>
          <internalNodes>
            0 -1 112 7.5398487970232964e-03</internalNodes>
          <leafValues>
            1.5364731848239899e-01 -6.3684576749801636e-01</leafValues></_>
        <_>
          <internalNodes>
            0 -1 246 -7.5337335467338562e-02</internalNodes>
          <leafValues>
            6.5085619688034058e-01 -1.3270096480846405e-01</leafValues></_>
        <_>
          <internalNodes>
            0 -1 89 -5.6413030251860619e-03</internalNodes>
          <leafValues>
            -5.5484537035226822e-02 1.</leafValues></_>
        <_>
          <internalNodes>
            0 -1 220 2.7113687247037888e-03</internalNodes>
          <leafValues>
            -1.0660804063081741e-01 5.6323051452636719e-01</leafValues></_>
        <_>
          <internalNodes>
            0 -1 290 -6.2474561855196953e-03</internalNodes>
          <leafValues>
            5.6206792593002319e-01 -1.1740776151418686e-01</leafValues></_>
        <_>
          <internalNodes>
            0 -1 245 3.2180994749069214e-02</internalNodes>
          <leafValues>
            -1.5692253410816193e-01 4.7831606864929199e-01</leafValues></_>
        <_>
          <internalNodes>
            0 -1 137 1.1126333265565336e-04</internalNodes>
          <leafValues>
            -1.5632486343383789e-01 4.6395826339721680e-01</leafValues></_>
        <_>
          <internalNodes>
            0 -1 170 -1.2155205011367798e-02</internalNodes>
          <leafValues>
            4.7394254803657532e-01 -1.8772464990615845e-01</leafValues></_>
        <_>
          <internalNodes>
            0 -1 207 7.4978107586503029e-03</internalNodes>
          <leafValues>
            1.0356972366571426e-01 -7.8718841075897217e-01</leafValues></_>
        <_>
          <internalNodes>
            0 -1 164 1.0948643321171403e-03</internalNodes>
          <leafValues>
            1.0541073977947235e-01 -6.7438524961471558e-01</leafValues></_>
        <_>
          <internalNodes>
            0 -1 147 -2.2337147966027260e-03</internalNodes>
          <leafValues>
            -3.3835542201995850e-01 2.1745491027832031e-01</leafValues></_>
        <_>
          <internalNodes>
            0 -1 247 -1.7226984724402428e-02</internalNodes>
          <leafValues>
            9.5808750391006470e-01 -8.4607720375061035e-02</leafValues></_>
        <_>
          <internalNodes>
            0 -1 285 -5.6011057458817959e-03</internalNodes>
          <leafValues>
            -1.2631662189960480e-01 5.0087422132492065e-01</leafValues></_>
        <_>
          <internalNodes>
            0 -1 174 -7.0171226980164647e-05</internalNodes>
          <leafValues>
            4.9888899922370911e-01 -1.7752662301063538e-01</leafValues></_>
        <_>
          <internalNodes>
            0 -1 117 1.4333408325910568e-02</internalNodes>
          <leafValues>
            -1.2808479368686676e-01 6.7026227712631226e-01</leafValues></_>
        <_>
          <internalNodes>
            0 -1 43 -2.1244646981358528e-02</internalNodes>
          <leafValues>
            5.3077006340026855e-01 -1.2227202951908112e-01</leafValues></_>
        <_>
          <internalNodes>
            0 -1 58 -1.0581097565591335e-02</internalNodes>
          <leafValues>
            -6.1562371253967285e-01 1.4401923120021820e-01</leafValues></_>
        <_>
          <internalNodes>
            0 -1 139 4.0250495076179504e-02</internalNodes>
          <leafValues>
            -1.5177859365940094e-01 5.4809767007827759e-01</leafValues></_>
        <_>
          <internalNodes>
            0 -1 225 -1.6628522425889969e-02</internalNodes>
          <leafValues>
            4.8830014467239380e-01 -1.3377037644386292e-01</leafValues></_>
        <_>
          <internalNodes>
            0 -1 287 -3.0480846762657166e-03</internalNodes>
          <leafValues>
            5.3922390937805176e-01 -1.4255200326442719e-01</leafValues></_></weakClassifiers></_>
    <!-- stage 9 -->
    <_>
      <maxWeakCount>24</maxWeakCount>
      <stageThreshold>-5.5083960294723511e-01</stageThreshold>
      <weakClassifiers>
        <_>
          <internalNodes>
            0 -1 187 -6.8978123366832733e-02</internalNodes>
          <leafValues>
            1.4529915153980255e-01 7.4025976657867432e-01</leafValues></_>
        <_>
          <internalNodes>
            0 -1 270 -2.6417062617838383e-03</internalNodes>
          <leafValues>
            -1.1581658571958542e-01 5.3708475828170776e-01</leafValues></_>
        <_>
          <internalNodes>
            0 -1 261 4.4223605655133724e-03</internalNodes>
          <leafValues>
            -2.0191480219364166e-01 4.5456486940383911e-01</leafValues></_>
        <_>
          <internalNodes>
            0 -1 8 -2.1547220647335052e-02</internalNodes>
          <leafValues>
            4.7849333286285400e-01 -1.5417133271694183e-01</leafValues></_>
        <_>
          <internalNodes>
            0 -1 90 5.7202456519007683e-03</internalNodes>
          <leafValues>
            1.1123050749301910e-01 -7.7649182081222534e-01</leafValues></_>
        <_>
          <internalNodes>
            0 -1 229 -3.0458795663435012e-05</internalNodes>
          <leafValues>
            3.4865242242813110e-01 -2.0622360706329346e-01</leafValues></_>
        <_>
          <internalNodes>
            0 -1 95 3.0155444619595073e-05</internalNodes>
          <leafValues>
            -2.1492998301982880e-01 3.6521553993225098e-01</leafValues></_>
        <_>
          <internalNodes>
            0 -1 35 -1.7257254570722580e-02</internalNodes>
          <leafValues>
            4.5070862770080566e-01 -1.4508201181888580e-01</leafValues></_>
        <_>
          <internalNodes>
            0 -1 113 -1.5696528553962708e-01</internalNodes>
          <leafValues>
            -8.7096877396106720e-02 7.6095879077911377e-01</leafValues></_>
        <_>
          <internalNodes>
            0 -1 196 1.9580784282879904e-05</internalNodes>
          <leafValues>
            -1.5266960859298706e-01 4.9654957652091980e-01</leafValues></_>
        <_>
          <internalNodes>
            0 -1 178 -2.3102246224880219e-02</internalNodes>
          <leafValues>
            7.1589112281799316e-01 -9.5061115920543671e-02</leafValues></_>
        <_>
          <internalNodes>
            0 -1 294 8.6333770304918289e-03</internalNodes>
          <leafValues>
            -1.2575016915798187e-01 5.1063400506973267e-01</leafValues></_>
        <_>
          <internalNodes>
            0 -1 199 -2.4883862584829330e-02</internalNodes>
          <leafValues>
            -7.3646104335784912e-01 1.1395911872386932e-01</leafValues></_>
        <_>
          <internalNodes>
            0 -1 216 1.9917361438274384e-02</internalNodes>
          <leafValues>
            -1.1945185810327530e-01 7.4479633569717407e-01</leafValues></_>
        <_>
          <internalNodes>
            0 -1 228 -1.5062693506479263e-02</internalNodes>
          <leafValues>
            -1.0367425531148911e-01 7.1778613328933716e-01</leafValues></_>
        <_>
          <internalNodes>
            0 -1 176 2.9916611310909502e-05</internalNodes>
          <leafValues>
            -1.6914843022823334e-01 4.5580714941024780e-01</leafValues></_>
        <_>
          <internalNodes>
            0 -1 53 -3.6125686019659042e-03</internalNodes>
          <leafValues>
            -5.7658165693283081e-01 1.3678960502147675e-01</leafValues></_>
        <_>
          <internalNodes>
            0 -1 236 6.4659407362341881e-03</internalNodes>
          <leafValues>
            -1.5597248077392578e-01 4.8972076177597046e-01</leafValues></_>
        <_>
          <internalNodes>
            0 -1 267 -4.1435887396801263e-05</internalNodes>
          <leafValues>
            5.4399681091308594e-01 -1.3560433685779572e-01</leafValues></_>
        <_>
          <internalNodes>
            0 -1 217 8.5018444806337357e-03</internalNodes>
          <leafValues>
            -1.5850611031055450e-01 5.5548745393753052e-01</leafValues></_>
        <_>
          <internalNodes>
            0 -1 16 9.4782412052154541e-03</internalNodes>
          <leafValues>
            2.2719809412956238e-01 -4.1433838009834290e-01</leafValues></_>
        <_>
          <internalNodes>
            0 -1 156 -1.0662530362606049e-01</internalNodes>
          <leafValues>
            -1.2709054350852966e-01 7.3765444755554199e-01</leafValues></_>
        <_>
          <internalNodes>
            0 -1 61 5.5063893087208271e-03</internalNodes>
          <leafValues>
            1.1697646975517273e-01 -7.7217990159988403e-01</leafValues></_>
        <_>
          <internalNodes>
            0 -1 194 -1.5982949116732925e-04</internalNodes>
          <leafValues>
            4.6833938360214233e-01 -1.6258370876312256e-01</leafValues></_></weakClassifiers></_>
    <!-- stage 10 -->
    <_>
      <maxWeakCount>27</maxWeakCount>
      <stageThreshold>-4.6736130118370056e-01</stageThreshold>
      <weakClassifiers>
        <_>
          <internalNodes>
            0 -1 2 -1.3892717659473419e-02</internalNodes>
          <leafValues>
            6.7554479837417603e-01 8.5427135229110718e-02</leafValues></_>
        <_>
          <internalNodes>
            0 -1 268 2.8094936162233353e-02</internalNodes>
          <leafValues>
            -1.3246300816535950e-01 5.1496058702468872e-01</leafValues></_>
        <_>
          <internalNodes>
            0 -1 165 -1.7971633002161980e-02</internalNodes>
          <leafValues>
            4.0449172258377075e-01 -1.5887288749217987e-01</leafValues></_>
        <_>
          <internalNodes>
            0 -1 68 4.8679955303668976e-02</internalNodes>
          <leafValues>
            -8.6116597056388855e-02 8.9437133073806763e-01</leafValues></_>
        <_>
          <internalNodes>
            0 -1 132 -1.0818073526024818e-02</internalNodes>
          <leafValues>
            4.2982336878776550e-01 -1.9756555557250977e-01</leafValues></_>
        <_>
          <internalNodes>
            0 -1 135 -3.5174400545656681e-03</internalNodes>
          <leafValues>
            -4.8572245240211487e-01 1.5538460016250610e-01</leafValues></_>
        <_>
          <internalNodes>
            0 -1 222 -4.9059935845434666e-03</internalNodes>
          <leafValues>
            -5.1026839017868042e-01 1.3037656247615814e-01</leafValues></_>
        <_>
          <internalNodes>
            0 -1 41 8.6695142090320587e-03</internalNodes>
          <leafValues>
            -1.4509290456771851e-01 5.2502131462097168e-01</leafValues></_>
        <_>
          <internalNodes>
            0 -1 99 -1.4436426758766174e-01</internalNodes>
          <leafValues>
            -6.1770208179950714e-02 9.3579018115997314e-01</leafValues></_>
        <_>
          <internalNodes>
            0 -1 211 2.2823740728199482e-03</internalNodes>
          <leafValues>
            -1.5255649387836456e-01 4.3053555488586426e-01</leafValues></_>
        <_>
          <internalNodes>
            0 -1 63 3.1289104372262955e-02</internalNodes>
          <leafValues>
            -1.2809634208679199e-01 5.0048822164535522e-01</leafValues></_>
        <_>
          <internalNodes>
            0 -1 289 -1.2979075836483389e-04</internalNodes>
          <leafValues>
            4.2995250225067139e-01 -1.5509112179279327e-01</leafValues></_>
        <_>
          <internalNodes>
            0 -1 209 -1.1565208842512220e-04</internalNodes>
          <leafValues>
            4.6250164508819580e-01 -1.4349830150604248e-01</leafValues></_>
        <_>
          <internalNodes>
            0 -1 56 -5.9445211663842201e-03</internalNodes>
          <leafValues>
            -7.9783773422241211e-01 1.0061802715063095e-01</leafValues></_>
        <_>
          <internalNodes>
            0 -1 235 9.9695324897766113e-03</internalNodes>
          <leafValues>
            1.3870534300804138e-01 -4.1339623928070068e-01</leafValues></_>
        <_>
          <internalNodes>
            0 -1 255 -1.0767783969640732e-02</internalNodes>
          <leafValues>
            -7.4707955121994019e-01 9.0610809624195099e-02</leafValues></_>
        <_>
          <internalNodes>
            0 -1 79 -1.2092702090740204e-02</internalNodes>
          <leafValues>
            -1.5273264050483704e-01 4.5577815175056458e-01</leafValues></_>
        <_>
          <internalNodes>
            0 -1 297 -2.4755659978836775e-03</internalNodes>
          <leafValues>
            3.9516881108283997e-01 -2.0495906472206116e-01</leafValues></_>
        <_>
          <internalNodes>
            0 -1 32 -1.0925979353487492e-02</internalNodes>
          <leafValues>
            -5.3835695981979370e-01 1.3190409541130066e-01</leafValues></_>
        <_>
          <internalNodes>
            0 -1 140 -2.6533262804150581e-02</internalNodes>
          <leafValues>
            4.9773609638214111e-01 -1.6255737841129303e-01</leafValues></_>
        <_>
          <internalNodes>
            0 -1 87 3.9151925593614578e-03</internalNodes>
          <leafValues>
            1.1793819814920425e-01 -6.5333086252212524e-01</leafValues></_>
        <_>
          <internalNodes>
            0 -1 206 -6.8921251222491264e-03</internalNodes>
          <leafValues>
            -8.6212670803070068e-01 7.2316735982894897e-02</leafValues></_>
        <_>
          <internalNodes>
            0 -1 239 -1.1587597429752350e-02</internalNodes>
          <leafValues>
            -1.6224306821823120e-01 4.9781531095504761e-01</leafValues></_>
        <_>
          <internalNodes>
            0 -1 158 2.9880857255193405e-05</internalNodes>
          <leafValues>
            -1.3735002279281616e-01 4.6957361698150635e-01</leafValues></_>
        <_>
          <internalNodes>
            0 -1 160 6.7836875095963478e-03</internalNodes>
          <leafValues>
            -1.0272219032049179e-01 5.8598673343658447e-01</leafValues></_>
        <_>
          <internalNodes>
            0 -1 62 -3.0334549956023693e-03</internalNodes>
          <leafValues>
            2.6055139303207397e-01 -2.5794640183448792e-01</leafValues></_>
        <_>
          <internalNodes>
            0 -1 244 -1.4652676880359650e-02</internalNodes>
          <leafValues>
            -2.2116625308990479e-01 3.0099081993103027e-01</leafValues></_></weakClassifiers></_>
    <!-- stage 11 -->
    <_>
      <maxWeakCount>25</maxWeakCount>
      <stageThreshold>-5.4668879508972168e-01</stageThreshold>
      <weakClassifiers>
        <_>
          <internalNodes>
            0 -1 266 -5.5329869501292706e-03</internalNodes>
          <leafValues>
            5.8677685260772705e-01 8.7452471256256104e-02</leafValues></_>
        <_>
          <internalNodes>
            0 -1 80 -2.1265712380409241e-01</internalNodes>
          <leafValues>
            -7.3937468230724335e-02 7.0630830526351929e-01</leafValues></_>
        <_>
          <internalNodes>
            0 -1 295 -2.4644755758345127e-03</internalNodes>
          <leafValues>
            3.9840087294578552e-01 -2.3628105223178864e-01</leafValues></_>
        <_>
          <internalNodes>
            0 -1 208 -2.3008910939097404e-03</internalNodes>
          <leafValues>
            -3.3587306737899780e-01 2.3301930725574493e-01</leafValues></_>
        <_>
          <internalNodes>
            0 -1 12 -5.9944635722786188e-04</internalNodes>
          <leafValues>
            2.9848849773406982e-01 -2.2517059743404388e-01</leafValues></_>
        <_>
          <internalNodes>
            0 -1 142 6.2582665123045444e-03</internalNodes>
          <leafValues>
            -2.4050231277942657e-01 3.1171849370002747e-01</leafValues></_>
        <_>
          <internalNodes>
            0 -1 101 2.2197235375642776e-03</internalNodes>
          <leafValues>
            1.4099849760532379e-01 -5.2397203445434570e-01</leafValues></_>
        <_>
          <internalNodes>
            0 -1 127 -1.1692523548845202e-04</internalNodes>
          <leafValues>
            5.3996664285659790e-01 -1.4307492971420288e-01</leafValues></_>
        <_>
          <internalNodes>
            0 -1 66 6.1199325136840343e-03</internalNodes>
          <leafValues>
            1.2116840481758118e-01 -5.6126207113265991e-01</leafValues></_>
        <_>
          <internalNodes>
            0 -1 88 -2.9970314353704453e-03</internalNodes>
          <leafValues>
            -8.1040441989898682e-01 8.5831344127655029e-02</leafValues></_>
        <_>
          <internalNodes>
            0 -1 123 -1.7136305570602417e-02</internalNodes>
          <leafValues>
            -2.1083900332450867e-01 3.7599387764930725e-01</leafValues></_>
        <_>
          <internalNodes>
            0 -1 38 -2.6205913163721561e-03</internalNodes>
          <leafValues>
            6.6599845886230469e-01 -1.0748600214719772e-01</leafValues></_>
        <_>
          <internalNodes>
            0 -1 162 -6.7475605756044388e-03</internalNodes>
          <leafValues>
            5.4272776842117310e-01 -1.0827446728944778e-01</leafValues></_>
        <_>
          <internalNodes>
            0 -1 230 4.3407490011304617e-05</internalNodes>
          <leafValues>
            -1.3310489058494568e-01 4.8404771089553833e-01</leafValues></_>
        <_>
          <internalNodes>
            0 -1 197 -1.3858120655640960e-03</internalNodes>
          <leafValues>
            -4.9166330695152283e-01 1.5755353868007660e-01</leafValues></_>
        <_>
          <internalNodes>
            0 -1 221 4.8665409849490970e-05</internalNodes>
          <leafValues>
            -1.6119274497032166e-01 4.5322629809379578e-01</leafValues></_>
        <_>
          <internalNodes>
            0 -1 260 -1.7040718812495470e-03</internalNodes>
          <leafValues>
            -7.5371694564819336e-01 1.1430768668651581e-01</leafValues></_>
        <_>
          <internalNodes>
            0 -1 195 -1.0489459964446723e-04</internalNodes>
          <leafValues>
            2.3461952805519104e-01 -2.8352752327919006e-01</leafValues></_>
        <_>
          <internalNodes>
            0 -1 1 -2.4450339376926422e-02</internalNodes>
          <leafValues>
            5.3716629743576050e-01 -1.1966013163328171e-01</leafValues></_>
        <_>
          <internalNodes>
            0 -1 76 -2.0615112036466599e-02</internalNodes>
          <leafValues>
            4.7211357951164246e-01 -1.5419566631317139e-01</leafValues></_>
        <_>
          <internalNodes>
            0 -1 263 -4.2858016677200794e-03</internalNodes>
          <leafValues>
            -8.2091122865676880e-01 1.0359913855791092e-01</leafValues></_>
        <_>
          <internalNodes>
            0 -1 126 1.6959313303232193e-02</internalNodes>
          <leafValues>
            -1.3116271793842316e-01 6.0566121339797974e-01</leafValues></_>
        <_>
          <internalNodes>
            0 -1 128 1.1071499902755022e-03</internalNodes>
          <leafValues>
            1.7498421669006348e-01 -4.3063995242118835e-01</leafValues></_>
        <_>
          <internalNodes>
            0 -1 93 5.6992722675204277e-03</internalNodes>
          <leafValues>
            9.0218566358089447e-02 -6.9707268476486206e-01</leafValues></_>
        <_>
          <internalNodes>
            0 -1 213 -5.8168545365333557e-05</internalNodes>
          <leafValues>
            4.7963303327560425e-01 -1.4677140116691589e-01</leafValues></_></weakClassifiers></_>
    <!-- stage 12 -->
    <_>
      <maxWeakCount>27</maxWeakCount>
      <stageThreshold>-4.8202306032180786e-01</stageThreshold>
      <weakClassifiers>
        <_>
          <internalNodes>
            0 -1 0 -2.4189669638872147e-03</internalNodes>
          <leafValues>
            6.5641027688980103e-01 1.1935483664274216e-01</leafValues></_>
        <_>
          <internalNodes>
            0 -1 279 1.0224306024610996e-02</internalNodes>
          <leafValues>
            -2.3570594191551208e-01 2.9202616214752197e-01</leafValues></_>
        <_>
          <internalNodes>
            0 -1 40 1.3002846390008926e-02</internalNodes>
          <leafValues>
            -1.4121532440185547e-01 4.5487472414970398e-01</leafValues></_>
        <_>
          <internalNodes>
            0 -1 37 -2.2949080448597670e-03</internalNodes>
          <leafValues>
            1.9612671434879303e-01 -3.3438032865524292e-01</leafValues></_>
        <_>
          <internalNodes>
            0 -1 252 1.6214972361922264e-02</internalNodes>
          <leafValues>
            -9.3169055879116058e-02 6.9436520338058472e-01</leafValues></_>
        <_>
          <internalNodes>
            0 -1 274 -5.6225340813398361e-03</internalNodes>
          <leafValues>
            4.5246824622154236e-01 -1.1818463355302811e-01</leafValues></_>
        <_>
          <internalNodes>
            0 -1 238 -3.9496336132287979e-02</internalNodes>
          <leafValues>
            -1.6422571241855621e-01 5.2530747652053833e-01</leafValues></_>
        <_>
          <internalNodes>
            0 -1 264 -2.9145814478397369e-03</internalNodes>
          <leafValues>
            5.8686935901641846e-01 -1.0833109170198441e-01</leafValues></_>
        <_>
          <internalNodes>
            0 -1 243 -1.1801731307059526e-04</internalNodes>
          <leafValues>
            3.9163181185722351e-01 -1.7281289398670197e-01</leafValues></_>
        <_>
          <internalNodes>
            0 -1 39 -1.5178918838500977e-02</internalNodes>
          <leafValues>
            7.4384564161300659e-01 -7.8797660768032074e-02</leafValues></_>
        <_>
          <internalNodes>
            0 -1 273 -2.1255377214401960e-03</internalNodes>
          <leafValues>
            -4.8475152254104614e-01 1.3738939166069031e-01</leafValues></_>
        <_>
          <internalNodes>
            0 -1 145 9.2373583465814590e-03</internalNodes>
          <leafValues>
            -1.4583161473274231e-01 4.5926871895790100e-01</leafValues></_>
        <_>
          <internalNodes>
            0 -1 293 -7.5366602686699480e-05</internalNodes>
          <leafValues>
            5.1137340068817139e-01 -1.3164427876472473e-01</leafValues></_>
        <_>
          <internalNodes>
            0 -1 15 -5.0151929259300232e-02</internalNodes>
          <leafValues>
            4.3981733918190002e-01 -1.5961654484272003e-01</leafValues></_>
        <_>
          <internalNodes>
            0 -1 203 -4.3874774128198624e-02</internalNodes>
          <leafValues>
            -8.3284854888916016e-02 8.4946489334106445e-01</leafValues></_>
        <_>
          <internalNodes>
            0 -1 83 4.6108059905236587e-05</internalNodes>
          <leafValues>
            -1.5193401277065277e-01 4.5550897717475891e-01</leafValues></_>
        <_>
          <internalNodes>
            0 -1 152 5.3644599393010139e-03</internalNodes>
          <leafValues>
            1.5504418313503265e-01 -4.8482060432434082e-01</leafValues></_>
        <_>
          <internalNodes>
            0 -1 275 1.1516481637954712e-02</internalNodes>
          <leafValues>
            8.0618955194950104e-02 -7.6702016592025757e-01</leafValues></_>
        <_>
          <internalNodes>
            0 -1 224 -7.7328574843704700e-04</internalNodes>
          <leafValues>
            -4.4628271460533142e-01 1.2870116531848907e-01</leafValues></_>
        <_>
          <internalNodes>
            0 -1 265 9.2819724231958389e-03</internalNodes>
          <leafValues>
            -1.8929350376129150e-01 3.2014971971511841e-01</leafValues></_>
        <_>
          <internalNodes>
            0 -1 242 2.6421526854392141e-05</internalNodes>
          <leafValues>
            -1.4567856490612030e-01 4.2802089452743530e-01</leafValues></_>
        <_>
          <internalNodes>
            0 -1 59 -9.5807518810033798e-03</internalNodes>
          <leafValues>
            -8.9601919054985046e-02 7.1257913112640381e-01</leafValues></_>
        <_>
          <internalNodes>
            0 -1 33 -2.5010623503476381e-03</internalNodes>
          <leafValues>
            4.3131086230278015e-01 -1.3816668093204498e-01</leafValues></_>
        <_>
          <internalNodes>
            0 -1 172 1.5302374958992004e-02</internalNodes>
          <leafValues>
            -1.1403727531433105e-01 5.4548513889312744e-01</leafValues></_>
        <_>
          <internalNodes>
            0 -1 254 -2.1108365617692471e-03</internalNodes>
          <leafValues>
            -3.3476629853248596e-01 2.2711583971977234e-01</leafValues></_>
        <_>
          <internalNodes>
            0 -1 104 1.0786252096295357e-04</internalNodes>
          <leafValues>
            -1.5499646961688995e-01 5.0807529687881470e-01</leafValues></_>
        <_>
          <internalNodes>
            0 -1 9 2.2326208651065826e-02</internalNodes>
          <leafValues>
            -1.5890145301818848e-01 3.9585864543914795e-01</leafValues></_></weakClassifiers></_>
    <!-- stage 13 -->
    <_>
      <maxWeakCount>25</maxWeakCount>
      <stageThreshold>-3.9825630187988281e-01</stageThreshold>
      <weakClassifiers>
        <_>
          <internalNodes>
            0 -1 181 -4.7551030293107033e-03</internalNodes>
          <leafValues>
            -4.8780488967895508e-01 3.9870688319206238e-01</leafValues></_>
        <_>
          <internalNodes>
            0 -1 64 -1.4101793931331486e-04</internalNodes>
          <leafValues>
            3.9255973696708679e-01 -1.5879966318607330e-01</leafValues></_>
        <_>
          <internalNodes>
            0 -1 153 -2.4290792644023895e-02</internalNodes>
          <leafValues>
            3.0295750498771667e-01 -2.3422287404537201e-01</leafValues></_>
        <_>
          <internalNodes>
            0 -1 18 -5.5915159173309803e-03</internalNodes>
          <leafValues>
            -6.8368166685104370e-01 9.2480048537254333e-02</leafValues></_>
        <_>
          <internalNodes>
            0 -1 120 -1.3830263167619705e-02</internalNodes>
          <leafValues>
            3.5627737641334534e-01 -1.8489405512809753e-01</leafValues></_>
        <_>
          <internalNodes>
            0 -1 96 -5.3036741912364960e-02</internalNodes>
          <leafValues>
            8.3219188451766968e-01 -1.2234435230493546e-01</leafValues></_>
        <_>
          <internalNodes>
            0 -1 10 -2.1143885329365730e-02</internalNodes>
          <leafValues>
            5.4774612188339233e-01 -1.1975982040166855e-01</leafValues></_>
        <_>
          <internalNodes>
            0 -1 283 -1.3672813656739891e-04</internalNodes>
          <leafValues>
            5.0966656208038330e-01 -1.4554952085018158e-01</leafValues></_>
        <_>
          <internalNodes>
            0 -1 168 -2.3094669450074434e-03</internalNodes>
          <leafValues>
            -3.2140776515007019e-01 2.0581488311290741e-01</leafValues></_>
        <_>
          <internalNodes>
            0 -1 188 -5.3368629887700081e-03</internalNodes>
          <leafValues>
            5.6089401245117188e-01 -1.2567339837551117e-01</leafValues></_>
        <_>
          <internalNodes>
            0 -1 116 -1.3975686393678188e-02</internalNodes>
          <leafValues>
            3.9561700820922852e-01 -1.6918677091598511e-01</leafValues></_>
        <_>
          <internalNodes>
            0 -1 282 2.3750751279294491e-03</internalNodes>
          <leafValues>
            -1.5727941691875458e-01 4.0663263201713562e-01</leafValues></_>
        <_>
          <internalNodes>
            0 -1 166 2.1047717891633511e-03</internalNodes>
          <leafValues>
            2.0208583772182465e-01 -3.2891446352005005e-01</leafValues></_>
        <_>
          <internalNodes>
            0 -1 186 6.1175611335784197e-05</internalNodes>
          <leafValues>
            -1.6698370873928070e-01 4.3487560749053955e-01</leafValues></_>
        <_>
          <internalNodes>
            0 -1 231 -9.6088740974664688e-05</internalNodes>
          <leafValues>
            3.7920740246772766e-01 -1.5785859525203705e-01</leafValues></_>
        <_>
          <internalNodes>
            0 -1 85 -1.9217090448364615e-03</internalNodes>
          <leafValues>
            -8.7655776739120483e-01 8.4621883928775787e-02</leafValues></_>
        <_>
          <internalNodes>
            0 -1 109 -2.0593903958797455e-02</internalNodes>
          <leafValues>
            -1.7890776693820953e-01 3.9103016257286072e-01</leafValues></_>
        <_>
          <internalNodes>
            0 -1 237 -1.4171548187732697e-02</internalNodes>
          <leafValues>
            4.2336717247962952e-01 -1.5839670598506927e-01</leafValues></_>
        <_>
          <internalNodes>
            0 -1 291 5.8498175349086523e-05</internalNodes>
          <leafValues>
            -2.4694077670574188e-01 2.8420960903167725e-01</leafValues></_>
        <_>
          <internalNodes>
            0 -1 214 -9.8052303656004369e-05</internalNodes>
          <leafValues>
            4.3052750825881958e-01 -1.4930598437786102e-01</leafValues></_>
        <_>
          <internalNodes>
            0 -1 54 3.9899861440062523e-03</internalNodes>
          <leafValues>
            1.1214883625507355e-01 -6.5512341260910034e-01</leafValues></_>
        <_>
          <internalNodes>
            0 -1 121 2.7209557592868805e-03</internalNodes>
          <leafValues>
            1.1562722921371460e-01 -5.4274833202362061e-01</leafValues></_>
        <_>
          <internalNodes>
            0 -1 248 7.5919772498309612e-03</internalNodes>
          <leafValues>
            -1.8593768775463104e-01 3.9152869582176208e-01</leafValues></_>
        <_>
          <internalNodes>
            0 -1 182 -8.2526370533742011e-05</internalNodes>
          <leafValues>
            -3.3126541972160339e-01 2.0775389671325684e-01</leafValues></_>
        <_>
          <internalNodes>
            0 -1 36 4.4469106942415237e-03</internalNodes>
          <leafValues>
            -2.2777654230594635e-01 3.1891599297523499e-01</leafValues></_></weakClassifiers></_>
    <!-- stage 14 -->
    <_>
      <maxWeakCount>27</maxWeakCount>
      <stageThreshold>-3.0206325650215149e-01</stageThreshold>
      <weakClassifiers>
        <_>
          <internalNodes>
            0 -1 7 -5.9539983049035072e-03</internalNodes>
          <leafValues>
            6.1764705181121826e-01 1.2956809997558594e-01</leafValues></_>
        <_>
          <internalNodes>
            0 -1 292 2.5376048870384693e-04</internalNodes>
          <leafValues>
            -1.8363150954246521e-01 3.5115763545036316e-01</leafValues></_>
        <_>
          <internalNodes>
            0 -1 84 -2.1295003592967987e-02</internalNodes>
          <leafValues>
            -9.1370739042758942e-02 6.1086118221282959e-01</leafValues></_>
        <_>
          <internalNodes>
            0 -1 215 -1.2436391552910209e-03</internalNodes>
          <leafValues>
            1.5397687256336212e-01 -3.7485051155090332e-01</leafValues></_>
        <_>
          <internalNodes>
            0 -1 67 -1.0748988017439842e-02</internalNodes>
          <leafValues>
            -8.2119482755661011e-01 6.8655453622341156e-02</leafValues></_>
        <_>
          <internalNodes>
            0 -1 30 -2.4652052670717239e-03</internalNodes>
          <leafValues>
            3.3121296763420105e-01 -1.7328944802284241e-01</leafValues></_>
        <_>
          <internalNodes>
            0 -1 77 1.1661872267723083e-02</internalNodes>
          <leafValues>
            -2.4881170690059662e-01 2.5314334034919739e-01</leafValues></_>
        <_>
          <internalNodes>
            0 -1 6 1.0458620265126228e-02</internalNodes>
          <leafValues>
            -1.1418887972831726e-01 6.0248285531997681e-01</leafValues></_>
        <_>
          <internalNodes>
            0 -1 97 -1.7446937272325158e-04</internalNodes>
          <leafValues>
            3.8679102063179016e-01 -1.5355774760246277e-01</leafValues></_>
        <_>
          <internalNodes>
            0 -1 241 -3.7113907746970654e-03</internalNodes>
          <leafValues>
            -1.1561248451471329e-01 4.9618890881538391e-01</leafValues></_>
        <_>
          <internalNodes>
            0 -1 49 1.4481906779110432e-02</internalNodes>
          <leafValues>
            -1.2903290987014771e-01 4.4271284341812134e-01</leafValues></_>
        <_>
          <internalNodes>
            0 -1 122 -4.3588723056018353e-03</internalNodes>
          <leafValues>
            -8.1330366432666779e-02 6.1879867315292358e-01</leafValues></_>
        <_>
          <internalNodes>
            0 -1 191 -9.1024943685624748e-05</internalNodes>
          <leafValues>
            -2.9955992102622986e-01 1.9824881851673126e-01</leafValues></_>
        <_>
          <internalNodes>
            0 -1 259 -1.4639389701187611e-02</internalNodes>
          <leafValues>
            3.5996720194816589e-01 -1.6404664516448975e-01</leafValues></_>
        <_>
          <internalNodes>
            0 -1 240 -2.9860591894248500e-05</internalNodes>
          <leafValues>
            2.9274147748947144e-01 -2.1141503751277924e-01</leafValues></_>
        <_>
          <internalNodes>
            0 -1 204 4.1866311803460121e-03</internalNodes>
          <leafValues>
            -9.8438069224357605e-02 5.7890987396240234e-01</leafValues></_>
        <_>
          <internalNodes>
            0 -1 150 -5.6732492521405220e-03</internalNodes>
          <leafValues>
            -7.5878316164016724e-01 9.1495849192142487e-02</leafValues></_>
        <_>
          <internalNodes>
            0 -1 144 -9.2619974166154861e-03</internalNodes>
          <leafValues>
            -4.6910592913627625e-01 1.0942781716585159e-01</leafValues></_>
        <_>
          <internalNodes>
            0 -1 103 -9.7369002178311348e-03</internalNodes>
          <leafValues>
            1.1501029133796692e-01 -5.1186692714691162e-01</leafValues></_>
        <_>
          <internalNodes>
            0 -1 102 -5.8138944208621979e-02</internalNodes>
          <leafValues>
            -3.4150195121765137e-01 1.7316465079784393e-01</leafValues></_>
        <_>
          <internalNodes>
            0 -1 198 -3.1142672523856163e-03</internalNodes>
          <leafValues>
            -6.6188275814056396e-01 9.8611511290073395e-02</leafValues></_>
        <_>
          <internalNodes>
            0 -1 136 4.5219689607620239e-02</internalNodes>
          <leafValues>
            -1.1738211661577225e-01 6.1338192224502563e-01</leafValues></_>
        <_>
          <internalNodes>
            0 -1 232 -8.2150043454021215e-05</internalNodes>
          <leafValues>
            4.0635374188423157e-01 -1.5201519429683685e-01</leafValues></_>
        <_>
          <internalNodes>
            0 -1 171 -1.0090472642332315e-03</internalNodes>
          <leafValues>
            -4.0531349182128906e-01 1.4893013238906860e-01</leafValues></_>
        <_>
          <internalNodes>
            0 -1 155 9.0253977105021477e-03</internalNodes>
          <leafValues>
            7.3132254183292389e-02 -8.1223458051681519e-01</leafValues></_>
        <_>
          <internalNodes>
            0 -1 210 -2.2559752687811852e-03</internalNodes>
          <leafValues>
            -3.1557062268257141e-01 1.7302294075489044e-01</leafValues></_>
        <_>
          <internalNodes>
            0 -1 26 -2.6108785532414913e-03</internalNodes>
          <leafValues>
            4.4720470905303955e-01 -1.3477784395217896e-01</leafValues></_></weakClassifiers></_></stages>
  <features>
    <_>
      <rects>
        <_>
          0 0 1 3 -1.</_>
        <_>
          0 1 1 1 2.</_></rects>
      <tilted>0</tilted></_>
    <_>
      <rects>
        <_>
          0 0 2 47 -1.</_>
        <_>
          1 0 1 47 2.</_></rects>
      <tilted>0</tilted></_>
    <_>
      <rects>
        <_>
          0 0 4 12 -1.</_>
        <_>
          2 0 2 12 2.</_></rects>
      <tilted>0</tilted></_>
    <_>
      <rects>
        <_>
          0 0 4 19 -1.</_>
        <_>
          2 0 2 19 2.</_></rects>
      <tilted>0</tilted></_>
    <_>
      <rects>
        <_>
          0 0 4 54 -1.</_>
        <_>
          2 0 2 54 2.</_></rects>
      <tilted>0</tilted></_>
    <_>
      <rects>
        <_>
          0 0 6 4 -1.</_>
        <_>
          0 0 3 2 2.</_>
        <_>
          3 2 3 2 2.</_></rects>
      <tilted>0</tilted></_>
    <_>
      <rects>
        <_>
          0 0 6 8 -1.</_>
        <_>
          0 0 3 4 2.</_>
        <_>
          3 4 3 4 2.</_></rects>
      <tilted>0</tilted></_>
    <_>
      <rects>
        <_>
          0 0 6 6 -1.</_>
        <_>
          3 0 3 6 2.</_></rects>
      <tilted>0</tilted></_>
    <_>
      <rects>
        <_>
          0 0 6 13 -1.</_>
        <_>
          3 0 3 13 2.</_></rects>
      <tilted>0</tilted></_>
    <_>
      <rects>
        <_>
          0 0 12 14 -1.</_>
        <_>
          0 0 6 7 2.</_>
        <_>
          6 7 6 7 2.</_></rects>
      <tilted>0</tilted></_>
    <_>
      <rects>
        <_>
          0 0 17 4 -1.</_>
        <_>
          0 2 17 2 2.</_></rects>
      <tilted>0</tilted></_>
    <_>
      <rects>
        <_>
          0 0 18 4 -1.</_>
        <_>
          0 2 18 2 2.</_></rects>
      <tilted>0</tilted></_>
    <_>
      <rects>
        <_>
          0 1 2 7 -1.</_>
        <_>
          1 1 1 7 2.</_></rects>
      <tilted>0</tilted></_>
    <_>
      <rects>
        <_>
          0 1 10 20 -1.</_>
        <_>
          5 1 5 20 2.</_></rects>
      <tilted>0</tilted></_>
    <_>
      <rects>
        <_>
          0 2 4 6 -1.</_>
        <_>
          0 2 2 3 2.</_>
        <_>
          2 5 2 3 2.</_></rects>
      <tilted>0</tilted></_>
    <_>
      <rects>
        <_>
          0 2 4 29 -1.</_>
        <_>
          2 2 2 29 2.</_></rects>
      <tilted>0</tilted></_>
    <_>
      <rects>
        <_>
          0 2 4 28 -1.</_>
        <_>
          0 16 4 14 2.</_></rects>
      <tilted>0</tilted></_>
    <_>
      <rects>
        <_>
          0 3 2 21 -1.</_>
        <_>
          1 3 1 21 2.</_></rects>
      <tilted>0</tilted></_>
    <_>
      <rects>
        <_>
          0 5 3 4 -1.</_>
        <_>
          0 7 3 2 2.</_></rects>
      <tilted>0</tilted></_>
    <_>
      <rects>
        <_>
          0 6 3 10 -1.</_>
        <_>
          1 6 1 10 2.</_></rects>
      <tilted>0</tilted></_>
    <_>
      <rects>
        <_>
          0 6 4 32 -1.</_>
        <_>
          2 6 2 32 2.</_></rects>
      <tilted>0</tilted></_>
    <_>
      <rects>
        <_>
          0 6 8 15 -1.</_>
        <_>
          4 6 4 15 2.</_></rects>
      <tilted>0</tilted></_>
    <_>
      <rects>
        <_>
          0 8 4 43 -1.</_>
        <_>
          2 8 2 43 2.</_></rects>
      <tilted>0</tilted></_>
    <_>
      <rects>
        <_>
          0 11 4 31 -1.</_>
        <_>
          2 11 2 31 2.</_></rects>
      <tilted>0</tilted></_>
    <_>
      <rects>
        <_>
          0 13 12 8 -1.</_>
        <_>
          0 17 12 4 2.</_></rects>
      <tilted>0</tilted></_>
    <_>
      <rects>
        <_>
          0 13 12 14 -1.</_>
        <_>
          0 20 12 7 2.</_></rects>
      <tilted>0</tilted></_>
    <_>
      <rects>
        <_>
          0 19 2 3 -1.</_>
        <_>
          1 19 1 3 2.</_></rects>
      <tilted>0</tilted></_>
    <_>
      <rects>
        <_>
          0 22 14 9 -1.</_>
        <_>
          0 25 14 3 2.</_></rects>
      <tilted>0</tilted></_>
    <_>
      <rects>
        <_>
          0 25 6 27 -1.</_>
        <_>
          3 25 3 27 2.</_></rects>
      <tilted>0</tilted></_>
    <_>
      <rects>
        <_>
          0 26 8 22 -1.</_>
        <_>
          4 26 4 22 2.</_></rects>
      <tilted>0</tilted></_>
    <_>
      <rects>
        <_>
          0 33 1 3 -1.</_>
        <_>
          0 34 1 1 2.</_></rects>
      <tilted>0</tilted></_>
    <_>
      <rects>
        <_>
          0 33 4 20 -1.</_>
        <_>
          2 33 2 20 2.</_></rects>
      <tilted>0</tilted></_>
    <_>
      <rects>
        <_>
          0 33 5 3 -1.</_>
        <_>
          0 34 5 1 2.</_></rects>
      <tilted>0</tilted></_>
    <_>
      <rects>
        <_>
          0 38 1 3 -1.</_>
        <_>
          0 39 1 1 2.</_></rects>
      <tilted>0</tilted></_>
    <_>
      <rects>
        <_>
          0 41 1 3 -1.</_>
        <_>
          0 42 1 1 2.</_></rects>
      <tilted>0</tilted></_>
    <_>
      <rects>
        <_>
          0 44 10 10 -1.</_>
        <_>
          0 44 5 5 2.</_>
        <_>
          5 49 5 5 2.</_></rects>
      <tilted>0</tilted></_>
    <_>
      <rects>
        <_>
          0 46 6 8 -1.</_>
        <_>
          0 50 6 4 2.</_></rects>
      <tilted>0</tilted></_>
    <_>
      <rects>
        <_>
          0 47 16 6 -1.</_>
        <_>
          0 50 16 3 2.</_></rects>
      <tilted>0</tilted></_>
    <_>
      <rects>
        <_>
          0 48 1 3 -1.</_>
        <_>
          0 49 1 1 2.</_></rects>
      <tilted>0</tilted></_>
    <_>
      <rects>
        <_>
          0 48 12 3 -1.</_>
        <_>
          6 48 6 3 2.</_></rects>
      <tilted>0</tilted></_>
    <_>
      <rects>
        <_>
          0 48 7 6 -1.</_>
        <_>
          0 51 7 3 2.</_></rects>
      <tilted>0</tilted></_>
    <_>
      <rects>
        <_>
          0 52 20 2 -1.</_>
        <_>
          0 53 20 1 2.</_></rects>
      <tilted>0</tilted></_>
    <_>
      <rects>
        <_>
          1 0 18 50 -1.</_>
        <_>
          7 0 6 50 2.</_></rects>
      <tilted>0</tilted></_>
    <_>
      <rects>
        <_>
          1 0 7 12 -1.</_>
        <_>
          1 6 7 6 2.</_></rects>
      <tilted>0</tilted></_>
    <_>
      <rects>
        <_>
          1 0 19 8 -1.</_>
        <_>
          1 4 19 4 2.</_></rects>
      <tilted>0</tilted></_>
    <_>
      <rects>
        <_>
          1 1 2 2 -1.</_>
        <_>
          1 2 2 1 2.</_></rects>
      <tilted>0</tilted></_>
    <_>
      <rects>
        <_>
          1 1 12 2 -1.</_>
        <_>
          1 2 12 1 2.</_></rects>
      <tilted>0</tilted></_>
    <_>
      <rects>
        <_>
          1 3 8 45 -1.</_>
        <_>
          5 3 4 45 2.</_></rects>
      <tilted>0</tilted></_>
    <_>
      <rects>
        <_>
          1 4 2 25 -1.</_>
        <_>
          2 4 1 25 2.</_></rects>
      <tilted>0</tilted></_>
    <_>
      <rects>
        <_>
          1 4 4 17 -1.</_>
        <_>
          3 4 2 17 2.</_></rects>
      <tilted>0</tilted></_>
    <_>
      <rects>
        <_>
          1 4 4 47 -1.</_>
        <_>
          3 4 2 47 2.</_></rects>
      <tilted>0</tilted></_>
    <_>
      <rects>
        <_>
          1 5 4 41 -1.</_>
        <_>
          3 5 2 41 2.</_></rects>
      <tilted>0</tilted></_>
    <_>
      <rects>
        <_>
          1 5 18 47 -1.</_>
        <_>
          7 5 6 47 2.</_></rects>
      <tilted>0</tilted></_>
    <_>
      <rects>
        <_>
          1 8 2 8 -1.</_>
        <_>
          1 12 2 4 2.</_></rects>
      <tilted>0</tilted></_>
    <_>
      <rects>
        <_>
          1 8 3 4 -1.</_>
        <_>
          1 10 3 2 2.</_></rects>
      <tilted>0</tilted></_>
    <_>
      <rects>
        <_>
          1 13 3 6 -1.</_>
        <_>
          1 16 3 3 2.</_></rects>
      <tilted>0</tilted></_>
    <_>
      <rects>
        <_>
          1 13 4 4 -1.</_>
        <_>
          1 15 4 2 2.</_></rects>
      <tilted>0</tilted></_>
    <_>
      <rects>
        <_>
          1 20 2 1 -1.</_>
        <_>
          2 20 1 1 2.</_></rects>
      <tilted>0</tilted></_>
    <_>
      <rects>
        <_>
          1 29 7 10 -1.</_>
        <_>
          1 34 7 5 2.</_></rects>
      <tilted>0</tilted></_>
    <_>
      <rects>
        <_>
          1 30 3 16 -1.</_>
        <_>
          2 30 1 16 2.</_></rects>
      <tilted>0</tilted></_>
    <_>
      <rects>
        <_>
          1 31 17 21 -1.</_>
        <_>
          1 38 17 7 2.</_></rects>
      <tilted>0</tilted></_>
    <_>
      <rects>
        <_>
          1 37 4 4 -1.</_>
        <_>
          1 39 4 2 2.</_></rects>
      <tilted>0</tilted></_>
    <_>
      <rects>
        <_>
          1 40 6 14 -1.</_>
        <_>
          1 40 3 7 2.</_>
        <_>
          4 47 3 7 2.</_></rects>
      <tilted>0</tilted></_>
    <_>
      <rects>
        <_>
          1 40 12 7 -1.</_>
        <_>
          7 40 6 7 2.</_></rects>
      <tilted>0</tilted></_>
    <_>
      <rects>
        <_>
          1 41 2 1 -1.</_>
        <_>
          2 41 1 1 2.</_></rects>
      <tilted>0</tilted></_>
    <_>
      <rects>
        <_>
          1 41 2 6 -1.</_>
        <_>
          2 41 1 6 2.</_></rects>
      <tilted>0</tilted></_>
    <_>
      <rects>
        <_>
          1 42 4 8 -1.</_>
        <_>
          1 46 4 4 2.</_></rects>
      <tilted>0</tilted></_>
    <_>
      <rects>
        <_>
          1 46 5 4 -1.</_>
        <_>
          1 48 5 2 2.</_></rects>
      <tilted>0</tilted></_>
    <_>
      <rects>
        <_>
          1 46 13 8 -1.</_>
        <_>
          1 50 13 4 2.</_></rects>
      <tilted>0</tilted></_>
    <_>
      <rects>
        <_>
          1 48 19 6 -1.</_>
        <_>
          1 51 19 3 2.</_></rects>
      <tilted>0</tilted></_>
    <_>
      <rects>
        <_>
          1 53 18 1 -1.</_>
        <_>
          7 53 6 1 2.</_></rects>
      <tilted>0</tilted></_>
    <_>
      <rects>
        <_>
          2 0 13 12 -1.</_>
        <_>
          2 6 13 6 2.</_></rects>
      <tilted>0</tilted></_>
    <_>
      <rects>
        <_>
          2 1 8 4 -1.</_>
        <_>
          2 3 8 2 2.</_></rects>
      <tilted>0</tilted></_>
    <_>
      <rects>
        <_>
          2 1 11 2 -1.</_>
        <_>
          2 2 11 1 2.</_></rects>
      <tilted>0</tilted></_>
    <_>
      <rects>
        <_>
          2 2 18 6 -1.</_>
        <_>
          2 4 18 2 2.</_></rects>
      <tilted>0</tilted></_>
    <_>
      <rects>
        <_>
          2 3 10 45 -1.</_>
        <_>
          7 3 5 45 2.</_></rects>
      <tilted>0</tilted></_>
    <_>
      <rects>
        <_>
          2 5 2 49 -1.</_>
        <_>
          3 5 1 49 2.</_></rects>
      <tilted>0</tilted></_>
    <_>
      <rects>
        <_>
          2 5 8 14 -1.</_>
        <_>
          2 12 8 7 2.</_></rects>
      <tilted>0</tilted></_>
    <_>
      <rects>
        <_>
          2 6 18 18 -1.</_>
        <_>
          2 12 18 6 2.</_></rects>
      <tilted>0</tilted></_>
    <_>
      <rects>
        <_>
          2 7 14 3 -1.</_>
        <_>
          2 8 14 1 2.</_></rects>
      <tilted>0</tilted></_>
    <_>
      <rects>
        <_>
          2 7 15 45 -1.</_>
        <_>
          2 22 15 15 2.</_></rects>
      <tilted>0</tilted></_>
    <_>
      <rects>
        <_>
          2 16 12 9 -1.</_>
        <_>
          2 19 12 3 2.</_></rects>
      <tilted>0</tilted></_>
    <_>
      <rects>
        <_>
          2 25 3 3 -1.</_>
        <_>
          2 26 3 1 2.</_></rects>
      <tilted>0</tilted></_>
    <_>
      <rects>
        <_>
          2 29 2 1 -1.</_>
        <_>
          3 29 1 1 2.</_></rects>
      <tilted>0</tilted></_>
    <_>
      <rects>
        <_>
          2 32 15 6 -1.</_>
        <_>
          2 34 15 2 2.</_></rects>
      <tilted>0</tilted></_>
    <_>
      <rects>
        <_>
          2 44 4 2 -1.</_>
        <_>
          2 44 2 1 2.</_>
        <_>
          4 45 2 1 2.</_></rects>
      <tilted>0</tilted></_>
    <_>
      <rects>
        <_>
          2 44 18 2 -1.</_>
        <_>
          2 45 18 1 2.</_></rects>
      <tilted>0</tilted></_>
    <_>
      <rects>
        <_>
          2 45 16 2 -1.</_>
        <_>
          2 45 8 1 2.</_>
        <_>
          10 46 8 1 2.</_></rects>
      <tilted>0</tilted></_>
    <_>
      <rects>
        <_>
          2 46 4 2 -1.</_>
        <_>
          2 47 4 1 2.</_></rects>
      <tilted>0</tilted></_>
    <_>
      <rects>
        <_>
          2 51 13 3 -1.</_>
        <_>
          2 52 13 1 2.</_></rects>
      <tilted>0</tilted></_>
    <_>
      <rects>
        <_>
          3 0 4 3 -1.</_>
        <_>
          5 0 2 3 2.</_></rects>
      <tilted>0</tilted></_>
    <_>
      <rects>
        <_>
          3 0 8 10 -1.</_>
        <_>
          3 5 8 5 2.</_></rects>
      <tilted>0</tilted></_>
    <_>
      <rects>
        <_>
          3 0 9 2 -1.</_>
        <_>
          3 1 9 1 2.</_></rects>
      <tilted>0</tilted></_>
    <_>
      <rects>
        <_>
          3 1 4 3 -1.</_>
        <_>
          5 1 2 3 2.</_></rects>
      <tilted>0</tilted></_>
    <_>
      <rects>
        <_>
          3 1 11 51 -1.</_>
        <_>
          3 18 11 17 2.</_></rects>
      <tilted>0</tilted></_>
    <_>
      <rects>
        <_>
          3 2 2 2 -1.</_>
        <_>
          4 2 1 2 2.</_></rects>
      <tilted>0</tilted></_>
    <_>
      <rects>
        <_>
          3 2 11 12 -1.</_>
        <_>
          3 8 11 6 2.</_></rects>
      <tilted>0</tilted></_>
    <_>
      <rects>
        <_>
          3 3 2 2 -1.</_>
        <_>
          3 4 2 1 2.</_></rects>
      <tilted>0</tilted></_>
    <_>
      <rects>
        <_>
          3 5 6 48 -1.</_>
        <_>
          3 21 6 16 2.</_></rects>
      <tilted>0</tilted></_>
    <_>
      <rects>
        <_>
          3 6 14 45 -1.</_>
        <_>
          3 21 14 15 2.</_></rects>
      <tilted>0</tilted></_>
    <_>
      <rects>
        <_>
          3 6 15 33 -1.</_>
        <_>
          3 17 15 11 2.</_></rects>
      <tilted>0</tilted></_>
    <_>
      <rects>
        <_>
          3 9 2 4 -1.</_>
        <_>
          3 11 2 2 2.</_></rects>
      <tilted>0</tilted></_>
    <_>
      <rects>
        <_>
          3 15 11 9 -1.</_>
        <_>
          3 18 11 3 2.</_></rects>
      <tilted>0</tilted></_>
    <_>
      <rects>
        <_>
          3 16 5 9 -1.</_>
        <_>
          3 19 5 3 2.</_></rects>
      <tilted>0</tilted></_>
    <_>
      <rects>
        <_>
          3 22 2 2 -1.</_>
        <_>
          3 22 1 1 2.</_>
        <_>
          4 23 1 1 2.</_></rects>
      <tilted>0</tilted></_>
    <_>
      <rects>
        <_>
          3 36 10 15 -1.</_>
        <_>
          8 36 5 15 2.</_></rects>
      <tilted>0</tilted></_>
    <_>
      <rects>
        <_>
          3 36 6 15 -1.</_>
        <_>
          3 41 6 5 2.</_></rects>
      <tilted>0</tilted></_>
    <_>
      <rects>
        <_>
          3 38 3 1 -1.</_>
        <_>
          4 38 1 1 2.</_></rects>
      <tilted>0</tilted></_>
    <_>
      <rects>
        <_>
          3 44 4 4 -1.</_>
        <_>
          3 46 4 2 2.</_></rects>
      <tilted>0</tilted></_>
    <_>
      <rects>
        <_>
          3 44 10 6 -1.</_>
        <_>
          3 46 10 2 2.</_></rects>
      <tilted>0</tilted></_>
    <_>
      <rects>
        <_>
          3 46 8 8 -1.</_>
        <_>
          3 50 8 4 2.</_></rects>
      <tilted>0</tilted></_>
    <_>
      <rects>
        <_>
          3 50 15 4 -1.</_>
        <_>
          3 52 15 2 2.</_></rects>
      <tilted>0</tilted></_>
    <_>
      <rects>
        <_>
          4 0 6 4 -1.</_>
        <_>
          7 0 3 4 2.</_></rects>
      <tilted>0</tilted></_>
    <_>
      <rects>
        <_>
          4 0 10 48 -1.</_>
        <_>
          4 16 10 16 2.</_></rects>
      <tilted>0</tilted></_>
    <_>
      <rects>
        <_>
          4 0 15 2 -1.</_>
        <_>
          4 1 15 1 2.</_></rects>
      <tilted>0</tilted></_>
    <_>
      <rects>
        <_>
          4 0 16 4 -1.</_>
        <_>
          4 2 16 2 2.</_></rects>
      <tilted>0</tilted></_>
    <_>
      <rects>
        <_>
          4 1 9 12 -1.</_>
        <_>
          4 7 9 6 2.</_></rects>
      <tilted>0</tilted></_>
    <_>
      <rects>
        <_>
          4 1 11 4 -1.</_>
        <_>
          4 3 11 2 2.</_></rects>
      <tilted>0</tilted></_>
    <_>
      <rects>
        <_>
          4 2 6 2 -1.</_>
        <_>
          4 3 6 1 2.</_></rects>
      <tilted>0</tilted></_>
    <_>
      <rects>
        <_>
          4 2 12 4 -1.</_>
        <_>
          4 4 12 2 2.</_></rects>
      <tilted>0</tilted></_>
    <_>
      <rects>
        <_>
          4 2 14 4 -1.</_>
        <_>
          4 4 14 2 2.</_></rects>
      <tilted>0</tilted></_>
    <_>
      <rects>
        <_>
          4 3 4 2 -1.</_>
        <_>
          6 3 2 2 2.</_></rects>
      <tilted>0</tilted></_>
    <_>
      <rects>
        <_>
          4 6 2 39 -1.</_>
        <_>
          4 19 2 13 2.</_></rects>
      <tilted>0</tilted></_>
    <_>
      <rects>
        <_>
          4 6 3 18 -1.</_>
        <_>
          4 12 3 6 2.</_></rects>
      <tilted>0</tilted></_>
    <_>
      <rects>
        <_>
          4 9 8 3 -1.</_>
        <_>
          4 10 8 1 2.</_></rects>
      <tilted>0</tilted></_>
    <_>
      <rects>
        <_>
          4 13 11 10 -1.</_>
        <_>
          4 18 11 5 2.</_></rects>
      <tilted>0</tilted></_>
    <_>
      <rects>
        <_>
          4 15 14 8 -1.</_>
        <_>
          4 15 7 4 2.</_>
        <_>
          11 19 7 4 2.</_></rects>
      <tilted>0</tilted></_>
    <_>
      <rects>
        <_>
          4 23 1 2 -1.</_>
        <_>
          4 24 1 1 2.</_></rects>
      <tilted>0</tilted></_>
    <_>
      <rects>
        <_>
          4 40 1 8 -1.</_>
        <_>
          4 44 1 4 2.</_></rects>
      <tilted>0</tilted></_>
    <_>
      <rects>
        <_>
          4 44 13 8 -1.</_>
        <_>
          4 48 13 4 2.</_></rects>
      <tilted>0</tilted></_>
    <_>
      <rects>
        <_>
          4 46 15 6 -1.</_>
        <_>
          4 49 15 3 2.</_></rects>
      <tilted>0</tilted></_>
    <_>
      <rects>
        <_>
          4 46 16 8 -1.</_>
        <_>
          4 50 16 4 2.</_></rects>
      <tilted>0</tilted></_>
    <_>
      <rects>
        <_>
          4 48 9 6 -1.</_>
        <_>
          4 51 9 3 2.</_></rects>
      <tilted>0</tilted></_>
    <_>
      <rects>
        <_>
          4 52 6 2 -1.</_>
        <_>
          7 52 3 2 2.</_></rects>
      <tilted>0</tilted></_>
    <_>
      <rects>
        <_>
          5 0 3 8 -1.</_>
        <_>
          6 0 1 8 2.</_></rects>
      <tilted>0</tilted></_>
    <_>
      <rects>
        <_>
          5 0 6 3 -1.</_>
        <_>
          8 0 3 3 2.</_></rects>
      <tilted>0</tilted></_>
    <_>
      <rects>
        <_>
          5 0 9 14 -1.</_>
        <_>
          5 7 9 7 2.</_></rects>
      <tilted>0</tilted></_>
    <_>
      <rects>
        <_>
          5 1 1 2 -1.</_>
        <_>
          5 2 1 1 2.</_></rects>
      <tilted>0</tilted></_>
    <_>
      <rects>
        <_>
          5 1 12 4 -1.</_>
        <_>
          5 3 12 2 2.</_></rects>
      <tilted>0</tilted></_>
    <_>
      <rects>
        <_>
          5 2 11 12 -1.</_>
        <_>
          5 8 11 6 2.</_></rects>
      <tilted>0</tilted></_>
    <_>
      <rects>
        <_>
          5 5 10 20 -1.</_>
        <_>
          5 15 10 10 2.</_></rects>
      <tilted>0</tilted></_>
    <_>
      <rects>
        <_>
          5 5 14 21 -1.</_>
        <_>
          5 12 14 7 2.</_></rects>
      <tilted>0</tilted></_>
    <_>
      <rects>
        <_>
          5 6 6 8 -1.</_>
        <_>
          5 10 6 4 2.</_></rects>
      <tilted>0</tilted></_>
    <_>
      <rects>
        <_>
          5 6 12 3 -1.</_>
        <_>
          5 7 12 1 2.</_></rects>
      <tilted>0</tilted></_>
    <_>
      <rects>
        <_>
          5 20 3 4 -1.</_>
        <_>
          6 20 1 4 2.</_></rects>
      <tilted>0</tilted></_>
    <_>
      <rects>
        <_>
          5 22 5 10 -1.</_>
        <_>
          5 27 5 5 2.</_></rects>
      <tilted>0</tilted></_>
    <_>
      <rects>
        <_>
          5 27 11 3 -1.</_>
        <_>
          5 28 11 1 2.</_></rects>
      <tilted>0</tilted></_>
    <_>
      <rects>
        <_>
          5 28 3 1 -1.</_>
        <_>
          6 28 1 1 2.</_></rects>
      <tilted>0</tilted></_>
    <_>
      <rects>
        <_>
          5 43 13 10 -1.</_>
        <_>
          5 48 13 5 2.</_></rects>
      <tilted>0</tilted></_>
    <_>
      <rects>
        <_>
          5 48 10 6 -1.</_>
        <_>
          5 51 10 3 2.</_></rects>
      <tilted>0</tilted></_>
    <_>
      <rects>
        <_>
          5 51 4 3 -1.</_>
        <_>
          7 51 2 3 2.</_></rects>
      <tilted>0</tilted></_>
    <_>
      <rects>
        <_>
          6 0 3 7 -1.</_>
        <_>
          7 0 1 7 2.</_></rects>
      <tilted>0</tilted></_>
    <_>
      <rects>
        <_>
          6 0 6 4 -1.</_>
        <_>
          9 0 3 4 2.</_></rects>
      <tilted>0</tilted></_>
    <_>
      <rects>
        <_>
          6 0 14 20 -1.</_>
        <_>
          6 0 7 10 2.</_>
        <_>
          13 10 7 10 2.</_></rects>
      <tilted>0</tilted></_>
    <_>
      <rects>
        <_>
          6 0 9 14 -1.</_>
        <_>
          6 7 9 7 2.</_></rects>
      <tilted>0</tilted></_>
    <_>
      <rects>
        <_>
          6 1 8 2 -1.</_>
        <_>
          10 1 4 2 2.</_></rects>
      <tilted>0</tilted></_>
    <_>
      <rects>
        <_>
          6 16 9 36 -1.</_>
        <_>
          6 28 9 12 2.</_></rects>
      <tilted>0</tilted></_>
    <_>
      <rects>
        <_>
          6 19 12 16 -1.</_>
        <_>
          6 19 6 8 2.</_>
        <_>
          12 27 6 8 2.</_></rects>
      <tilted>0</tilted></_>
    <_>
      <rects>
        <_>
          6 23 1 2 -1.</_>
        <_>
          6 24 1 1 2.</_></rects>
      <tilted>0</tilted></_>
    <_>
      <rects>
        <_>
          6 24 2 9 -1.</_>
        <_>
          7 24 1 9 2.</_></rects>
      <tilted>0</tilted></_>
    <_>
      <rects>
        <_>
          6 25 2 12 -1.</_>
        <_>
          7 25 1 12 2.</_></rects>
      <tilted>0</tilted></_>
    <_>
      <rects>
        <_>
          6 29 13 18 -1.</_>
        <_>
          6 38 13 9 2.</_></rects>
      <tilted>0</tilted></_>
    <_>
      <rects>
        <_>
          6 34 7 4 -1.</_>
        <_>
          6 36 7 2 2.</_></rects>
      <tilted>0</tilted></_>
    <_>
      <rects>
        <_>
          6 44 1 3 -1.</_>
        <_>
          6 45 1 1 2.</_></rects>
      <tilted>0</tilted></_>
    <_>
      <rects>
        <_>
          6 45 3 2 -1.</_>
        <_>
          6 46 3 1 2.</_></rects>
      <tilted>0</tilted></_>
    <_>
      <rects>
        <_>
          6 45 11 6 -1.</_>
        <_>
          6 48 11 3 2.</_></rects>
      <tilted>0</tilted></_>
    <_>
      <rects>
        <_>
          6 50 8 4 -1.</_>
        <_>
          10 50 4 4 2.</_></rects>
      <tilted>0</tilted></_>
    <_>
      <rects>
        <_>
          7 0 12 42 -1.</_>
        <_>
          13 0 6 42 2.</_></rects>
      <tilted>0</tilted></_>
    <_>
      <rects>
        <_>
          7 1 1 3 -1.</_>
        <_>
          7 2 1 1 2.</_></rects>
      <tilted>0</tilted></_>
    <_>
      <rects>
        <_>
          7 1 7 3 -1.</_>
        <_>
          7 2 7 1 2.</_></rects>
      <tilted>0</tilted></_>
    <_>
      <rects>
        <_>
          7 1 11 4 -1.</_>
        <_>
          7 3 11 2 2.</_></rects>
      <tilted>0</tilted></_>
    <_>
      <rects>
        <_>
          7 2 4 2 -1.</_>
        <_>
          9 2 2 2 2.</_></rects>
      <tilted>0</tilted></_>
    <_>
      <rects>
        <_>
          7 6 12 15 -1.</_>
        <_>
          13 6 6 15 2.</_></rects>
      <tilted>0</tilted></_>
    <_>
      <rects>
        <_>
          7 10 6 38 -1.</_>
        <_>
          10 10 3 38 2.</_></rects>
      <tilted>0</tilted></_>
    <_>
      <rects>
        <_>
          7 17 2 2 -1.</_>
        <_>
          7 17 1 1 2.</_>
        <_>
          8 18 1 1 2.</_></rects>
      <tilted>0</tilted></_>
    <_>
      <rects>
        <_>
          7 19 1 3 -1.</_>
        <_>
          7 20 1 1 2.</_></rects>
      <tilted>0</tilted></_>
    <_>
      <rects>
        <_>
          7 24 1 2 -1.</_>
        <_>
          7 25 1 1 2.</_></rects>
      <tilted>0</tilted></_>
    <_>
      <rects>
        <_>
          7 26 3 16 -1.</_>
        <_>
          8 26 1 16 2.</_></rects>
      <tilted>0</tilted></_>
    <_>
      <rects>
        <_>
          7 40 6 4 -1.</_>
        <_>
          9 40 2 4 2.</_></rects>
      <tilted>0</tilted></_>
    <_>
      <rects>
        <_>
          7 44 10 10 -1.</_>
        <_>
          7 49 10 5 2.</_></rects>
      <tilted>0</tilted></_>
    <_>
      <rects>
        <_>
          7 50 8 4 -1.</_>
        <_>
          11 50 4 4 2.</_></rects>
      <tilted>0</tilted></_>
    <_>
      <rects>
        <_>
          7 51 4 3 -1.</_>
        <_>
          9 51 2 3 2.</_></rects>
      <tilted>0</tilted></_>
    <_>
      <rects>
        <_>
          8 0 12 1 -1.</_>
        <_>
          14 0 6 1 2.</_></rects>
      <tilted>0</tilted></_>
    <_>
      <rects>
        <_>
          8 0 10 4 -1.</_>
        <_>
          8 2 10 2 2.</_></rects>
      <tilted>0</tilted></_>
    <_>
      <rects>
        <_>
          8 15 10 2 -1.</_>
        <_>
          13 15 5 2 2.</_></rects>
      <tilted>0</tilted></_>
    <_>
      <rects>
        <_>
          8 19 1 6 -1.</_>
        <_>
          8 22 1 3 2.</_></rects>
      <tilted>0</tilted></_>
    <_>
      <rects>
        <_>
          8 23 2 2 -1.</_>
        <_>
          8 23 1 1 2.</_>
        <_>
          9 24 1 1 2.</_></rects>
      <tilted>0</tilted></_>
    <_>
      <rects>
        <_>
          8 34 11 18 -1.</_>
        <_>
          8 40 11 6 2.</_></rects>
      <tilted>0</tilted></_>
    <_>
      <rects>
        <_>
          8 35 1 6 -1.</_>
        <_>
          8 37 1 2 2.</_></rects>
      <tilted>0</tilted></_>
    <_>
      <rects>
        <_>
          8 51 9 2 -1.</_>
        <_>
          8 52 9 1 2.</_></rects>
      <tilted>0</tilted></_>
    <_>
      <rects>
        <_>
          8 52 8 2 -1.</_>
        <_>
          8 53 8 1 2.</_></rects>
      <tilted>0</tilted></_>
    <_>
      <rects>
        <_>
          8 53 12 1 -1.</_>
        <_>
          14 53 6 1 2.</_></rects>
      <tilted>0</tilted></_>
    <_>
      <rects>
        <_>
          9 0 6 4 -1.</_>
        <_>
          9 2 6 2 2.</_></rects>
      <tilted>0</tilted></_>
    <_>
      <rects>
        <_>
          9 8 10 43 -1.</_>
        <_>
          14 8 5 43 2.</_></rects>
      <tilted>0</tilted></_>
    <_>
      <rects>
        <_>
          9 25 2 2 -1.</_>
        <_>
          9 25 1 1 2.</_>
        <_>
          10 26 1 1 2.</_></rects>
      <tilted>0</tilted></_>
    <_>
      <rects>
        <_>
          9 25 8 2 -1.</_>
        <_>
          9 25 4 1 2.</_>
        <_>
          13 26 4 1 2.</_></rects>
      <tilted>0</tilted></_>
    <_>
      <rects>
        <_>
          9 33 1 2 -1.</_>
        <_>
          9 34 1 1 2.</_></rects>
      <tilted>0</tilted></_>
    <_>
      <rects>
        <_>
          9 44 4 4 -1.</_>
        <_>
          9 44 2 2 2.</_>
        <_>
          11 46 2 2 2.</_></rects>
      <tilted>0</tilted></_>
    <_>
      <rects>
        <_>
          9 52 4 2 -1.</_>
        <_>
          11 52 2 2 2.</_></rects>
      <tilted>0</tilted></_>
    <_>
      <rects>
        <_>
          10 0 6 5 -1.</_>
        <_>
          12 0 2 5 2.</_></rects>
      <tilted>0</tilted></_>
    <_>
      <rects>
        <_>
          10 0 5 4 -1.</_>
        <_>
          10 2 5 2 2.</_></rects>
      <tilted>0</tilted></_>
    <_>
      <rects>
        <_>
          10 0 6 2 -1.</_>
        <_>
          10 1 6 1 2.</_></rects>
      <tilted>0</tilted></_>
    <_>
      <rects>
        <_>
          10 1 2 5 -1.</_>
        <_>
          11 1 1 5 2.</_></rects>
      <tilted>0</tilted></_>
    <_>
      <rects>
        <_>
          10 3 6 36 -1.</_>
        <_>
          10 15 6 12 2.</_></rects>
      <tilted>0</tilted></_>
    <_>
      <rects>
        <_>
          10 28 2 9 -1.</_>
        <_>
          11 28 1 9 2.</_></rects>
      <tilted>0</tilted></_>
    <_>
      <rects>
        <_>
          10 42 6 9 -1.</_>
        <_>
          10 45 6 3 2.</_></rects>
      <tilted>0</tilted></_>
    <_>
      <rects>
        <_>
          10 51 4 3 -1.</_>
        <_>
          12 51 2 3 2.</_></rects>
      <tilted>0</tilted></_>
    <_>
      <rects>
        <_>
          11 0 4 6 -1.</_>
        <_>
          13 0 2 6 2.</_></rects>
      <tilted>0</tilted></_>
    <_>
      <rects>
        <_>
          11 2 1 3 -1.</_>
        <_>
          11 3 1 1 2.</_></rects>
      <tilted>0</tilted></_>
    <_>
      <rects>
        <_>
          11 17 2 2 -1.</_>
        <_>
          11 17 1 1 2.</_>
        <_>
          12 18 1 1 2.</_></rects>
      <tilted>0</tilted></_>
    <_>
      <rects>
        <_>
          11 18 1 3 -1.</_>
        <_>
          11 19 1 1 2.</_></rects>
      <tilted>0</tilted></_>
    <_>
      <rects>
        <_>
          11 21 2 8 -1.</_>
        <_>
          12 21 1 8 2.</_></rects>
      <tilted>0</tilted></_>
    <_>
      <rects>
        <_>
          11 21 4 6 -1.</_>
        <_>
          11 21 2 3 2.</_>
        <_>
          13 24 2 3 2.</_></rects>
      <tilted>0</tilted></_>
    <_>
      <rects>
        <_>
          11 26 1 2 -1.</_>
        <_>
          11 27 1 1 2.</_></rects>
      <tilted>0</tilted></_>
    <_>
      <rects>
        <_>
          11 28 2 1 -1.</_>
        <_>
          12 28 1 1 2.</_></rects>
      <tilted>0</tilted></_>
    <_>
      <rects>
        <_>
          11 45 7 6 -1.</_>
        <_>
          11 48 7 3 2.</_></rects>
      <tilted>0</tilted></_>
    <_>
      <rects>
        <_>
          11 46 8 8 -1.</_>
        <_>
          11 46 4 4 2.</_>
        <_>
          15 50 4 4 2.</_></rects>
      <tilted>0</tilted></_>
    <_>
      <rects>
        <_>
          12 0 4 6 -1.</_>
        <_>
          12 3 4 3 2.</_></rects>
      <tilted>0</tilted></_>
    <_>
      <rects>
        <_>
          12 1 8 6 -1.</_>
        <_>
          12 1 4 3 2.</_>
        <_>
          16 4 4 3 2.</_></rects>
      <tilted>0</tilted></_>
    <_>
      <rects>
        <_>
          12 2 8 26 -1.</_>
        <_>
          16 2 4 26 2.</_></rects>
      <tilted>0</tilted></_>
    <_>
      <rects>
        <_>
          12 18 2 10 -1.</_>
        <_>
          12 18 1 5 2.</_>
        <_>
          13 23 1 5 2.</_></rects>
      <tilted>0</tilted></_>
    <_>
      <rects>
        <_>
          12 25 2 2 -1.</_>
        <_>
          12 25 1 1 2.</_>
        <_>
          13 26 1 1 2.</_></rects>
      <tilted>0</tilted></_>
    <_>
      <rects>
        <_>
          12 31 7 6 -1.</_>
        <_>
          12 34 7 3 2.</_></rects>
      <tilted>0</tilted></_>
    <_>
      <rects>
        <_>
          12 46 1 3 -1.</_>
        <_>
          12 47 1 1 2.</_></rects>
      <tilted>0</tilted></_>
    <_>
      <rects>
        <_>
          12 53 4 1 -1.</_>
        <_>
          14 53 2 1 2.</_></rects>
      <tilted>0</tilted></_>
    <_>
      <rects>
        <_>
          13 0 6 14 -1.</_>
        <_>
          13 7 6 7 2.</_></rects>
      <tilted>0</tilted></_>
    <_>
      <rects>
        <_>
          13 4 1 2 -1.</_>
        <_>
          13 5 1 1 2.</_></rects>
      <tilted>0</tilted></_>
    <_>
      <rects>
        <_>
          13 4 5 39 -1.</_>
        <_>
          13 17 5 13 2.</_></rects>
      <tilted>0</tilted></_>
    <_>
      <rects>
        <_>
          13 7 3 30 -1.</_>
        <_>
          13 17 3 10 2.</_></rects>
      <tilted>0</tilted></_>
    <_>
      <rects>
        <_>
          13 15 1 6 -1.</_>
        <_>
          13 18 1 3 2.</_></rects>
      <tilted>0</tilted></_>
    <_>
      <rects>
        <_>
          13 16 1 2 -1.</_>
        <_>
          13 17 1 1 2.</_></rects>
      <tilted>0</tilted></_>
    <_>
      <rects>
        <_>
          13 25 2 1 -1.</_>
        <_>
          14 25 1 1 2.</_></rects>
      <tilted>0</tilted></_>
    <_>
      <rects>
        <_>
          13 30 2 1 -1.</_>
        <_>
          14 30 1 1 2.</_></rects>
      <tilted>0</tilted></_>
    <_>
      <rects>
        <_>
          13 36 6 14 -1.</_>
        <_>
          15 36 2 14 2.</_></rects>
      <tilted>0</tilted></_>
    <_>
      <rects>
        <_>
          13 44 1 3 -1.</_>
        <_>
          13 45 1 1 2.</_></rects>
      <tilted>0</tilted></_>
    <_>
      <rects>
        <_>
          14 0 2 30 -1.</_>
        <_>
          14 15 2 15 2.</_></rects>
      <tilted>0</tilted></_>
    <_>
      <rects>
        <_>
          14 1 6 6 -1.</_>
        <_>
          14 1 3 3 2.</_>
        <_>
          17 4 3 3 2.</_></rects>
      <tilted>0</tilted></_>
    <_>
      <rects>
        <_>
          14 2 6 15 -1.</_>
        <_>
          17 2 3 15 2.</_></rects>
      <tilted>0</tilted></_>
    <_>
      <rects>
        <_>
          14 3 3 49 -1.</_>
        <_>
          15 3 1 49 2.</_></rects>
      <tilted>0</tilted></_>
    <_>
      <rects>
        <_>
          14 5 6 7 -1.</_>
        <_>
          16 5 2 7 2.</_></rects>
      <tilted>0</tilted></_>
    <_>
      <rects>
        <_>
          14 5 5 2 -1.</_>
        <_>
          14 6 5 1 2.</_></rects>
      <tilted>0</tilted></_>
    <_>
      <rects>
        <_>
          14 7 1 33 -1.</_>
        <_>
          14 18 1 11 2.</_></rects>
      <tilted>0</tilted></_>
    <_>
      <rects>
        <_>
          14 20 1 2 -1.</_>
        <_>
          14 21 1 1 2.</_></rects>
      <tilted>0</tilted></_>
    <_>
      <rects>
        <_>
          14 24 2 1 -1.</_>
        <_>
          15 24 1 1 2.</_></rects>
      <tilted>0</tilted></_>
    <_>
      <rects>
        <_>
          14 31 3 13 -1.</_>
        <_>
          15 31 1 13 2.</_></rects>
      <tilted>0</tilted></_>
    <_>
      <rects>
        <_>
          14 32 6 20 -1.</_>
        <_>
          17 32 3 20 2.</_></rects>
      <tilted>0</tilted></_>
    <_>
      <rects>
        <_>
          14 39 6 13 -1.</_>
        <_>
          16 39 2 13 2.</_></rects>
      <tilted>0</tilted></_>
    <_>
      <rects>
        <_>
          14 42 3 6 -1.</_>
        <_>
          15 42 1 6 2.</_></rects>
      <tilted>0</tilted></_>
    <_>
      <rects>
        <_>
          14 46 6 8 -1.</_>
        <_>
          14 46 3 4 2.</_>
        <_>
          17 50 3 4 2.</_></rects>
      <tilted>0</tilted></_>
    <_>
      <rects>
        <_>
          14 48 4 1 -1.</_>
        <_>
          16 48 2 1 2.</_></rects>
      <tilted>0</tilted></_>
    <_>
      <rects>
        <_>
          14 48 6 5 -1.</_>
        <_>
          17 48 3 5 2.</_></rects>
      <tilted>0</tilted></_>
    <_>
      <rects>
        <_>
          15 0 5 3 -1.</_>
        <_>
          15 1 5 1 2.</_></rects>
      <tilted>0</tilted></_>
    <_>
      <rects>
        <_>
          15 7 2 39 -1.</_>
        <_>
          16 7 1 39 2.</_></rects>
      <tilted>0</tilted></_>
    <_>
      <rects>
        <_>
          15 9 3 6 -1.</_>
        <_>
          15 12 3 3 2.</_></rects>
      <tilted>0</tilted></_>
    <_>
      <rects>
        <_>
          15 11 3 1 -1.</_>
        <_>
          16 11 1 1 2.</_></rects>
      <tilted>0</tilted></_>
    <_>
      <rects>
        <_>
          15 13 5 6 -1.</_>
        <_>
          15 16 5 3 2.</_></rects>
      <tilted>0</tilted></_>
    <_>
      <rects>
        <_>
          15 15 4 10 -1.</_>
        <_>
          15 20 4 5 2.</_></rects>
      <tilted>0</tilted></_>
    <_>
      <rects>
        <_>
          15 17 3 17 -1.</_>
        <_>
          16 17 1 17 2.</_></rects>
      <tilted>0</tilted></_>
    <_>
      <rects>
        <_>
          15 19 3 34 -1.</_>
        <_>
          16 19 1 34 2.</_></rects>
      <tilted>0</tilted></_>
    <_>
      <rects>
        <_>
          15 19 4 20 -1.</_>
        <_>
          17 19 2 20 2.</_></rects>
      <tilted>0</tilted></_>
    <_>
      <rects>
        <_>
          15 35 2 2 -1.</_>
        <_>
          15 36 2 1 2.</_></rects>
      <tilted>0</tilted></_>
    <_>
      <rects>
        <_>
          15 46 4 6 -1.</_>
        <_>
          15 46 2 3 2.</_>
        <_>
          17 49 2 3 2.</_></rects>
      <tilted>0</tilted></_>
    <_>
      <rects>
        <_>
          15 46 4 8 -1.</_>
        <_>
          15 46 2 4 2.</_>
        <_>
          17 50 2 4 2.</_></rects>
      <tilted>0</tilted></_>
    <_>
      <rects>
        <_>
          15 49 2 5 -1.</_>
        <_>
          16 49 1 5 2.</_></rects>
      <tilted>0</tilted></_>
    <_>
      <rects>
        <_>
          16 0 4 4 -1.</_>
        <_>
          16 0 2 2 2.</_>
        <_>
          18 2 2 2 2.</_></rects>
      <tilted>0</tilted></_>
    <_>
      <rects>
        <_>
          16 0 4 10 -1.</_>
        <_>
          18 0 2 10 2.</_></rects>
      <tilted>0</tilted></_>
    <_>
      <rects>
        <_>
          16 0 3 10 -1.</_>
        <_>
          16 5 3 5 2.</_></rects>
      <tilted>0</tilted></_>
    <_>
      <rects>
        <_>
          16 1 1 2 -1.</_>
        <_>
          16 2 1 1 2.</_></rects>
      <tilted>0</tilted></_>
    <_>
      <rects>
        <_>
