<?xml version="1.0"?>
<opencv_storage>
<stage5>
  <maxWeakCount>19</maxWeakCount>
  <stageThreshold>-5.9163838624954224e-01</stageThreshold>
  <weakClassifiers>
    <_>
      <internalNodes>
        0 -1 36757 -9.3015447258949280e-02</internalNodes>
      <leafValues>
        -6.3302749395370483e-01 4.4284129142761230e-01</leafValues></_>
    <_>
      <internalNodes>
        0 -1 404022 -4.6723343431949615e-02</internalNodes>
      <leafValues>
        3.8412842154502869e-01 -3.0426353216171265e-01</leafValues></_>
    <_>
      <internalNodes>
        0 -1 246764 -8.0814845860004425e-03</internalNodes>
      <leafValues>
        3.9646372199058533e-01 -2.7775016427040100e-01</leafValues></_>
    <_>
      <internalNodes>
        0 -1 207685 -8.3268824964761734e-03</internalNodes>
      <leafValues>
        4.2167648673057556e-01 -2.6525816321372986e-01</leafValues></_>
    <_>
      <internalNodes>
        0 -1 477285 -6.7440848797559738e-03</internalNodes>
      <leafValues>
        5.0875264406204224e-01 -2.0635348558425903e-01</leafValues></_>
    <_>
      <internalNodes>
        0 -1 133477 -6.5860420465469360e-02</internalNodes>
      <leafValues>
        -4.1704785823822021e-01 2.5158858299255371e-01</leafValues></_>
    <_>
      <internalNodes>
        0 -1 57254 -2.8415943233994767e-05</internalNodes>
      <leafValues>
        4.2082878947257996e-01 -2.2130548954010010e-01</leafValues></_>
    <_>
      <internalNodes>
        0 -1 532222 4.2385947890579700e-03</internalNodes>
      <leafValues>
        -2.2595058381557465e-01 3.8440662622451782e-01</leafValues></_>
    <_>
      <internalNodes>
        0 -1 246771 4.7319825738668442e-02</internalNodes>
      <leafValues>
        -1.2681710720062256e-01 8.0657279491424561e-01</leafValues></_>
    <_>
      <internalNodes>
        0 -1 532190 -5.4700451437383890e-04</internalNodes>
      <leafValues>
        4.4250562787055969e-01 -1.8641445040702820e-01</leafValues></_>
    <_>
      <internalNodes>
        0 -1 4189 -4.4068731367588043e-03</internalNodes>
      <leafValues>
        5.2176332473754883e-01 -1.4699889719486237e-01</leafValues></_>
    <_>
      <internalNodes>
        0 -1 538353 -1.1429241858422756e-02</internalNodes>
      <leafValues>
        -6.5255218744277954e-01 1.4303617179393768e-01</leafValues></_>
    <_>
      <internalNodes>
        0 -1 62655 1.0900084860622883e-02</internalNodes>
      <leafValues>
        -1.3186693191528320e-01 7.2502380609512329e-01</leafValues></_>
    <_>
      <internalNodes>
        0 -1 467086 -2.5305799208581448e-03</internalNodes>
      <leafValues>
        4.7587594389915466e-01 -1.7052219808101654e-01</leafValues></_>
    <_>
      <internalNodes>
        0 -1 315041 3.5002164077013731e-03</internalNodes>
      <leafValues>
        -1.6159391403198242e-01 5.3088533878326416e-01</leafValues></_>
    <_>
      <internalNodes>
        0 -1 247489 6.7112888209521770e-03</internalNodes>
      <leafValues>
        1.5161128342151642e-01 -7.2858345508575439e-01</leafValues></_>
    <_>
      <internalNodes>
        0 -1 86350 -1.1441981769166887e-04</internalNodes>
      <leafValues>
        3.9729091525077820e-01 -2.8403359651565552e-01</leafValues></_>
    <_>
      <internalNodes>
        0 -1 513627 -3.4386795014142990e-02</internalNodes>
      <leafValues>
        -2.0115259289741516e-01 5.0212222337722778e-01</leafValues></_>
    <_>
      <internalNodes>
        0 -1 319235 1.8314406275749207e-02</internalNodes>
      <leafValues>
        -2.3483374714851379e-01 4.0261641144752502e-01</leafValues></_></weakClassifiers></stage5>
</opencv_storage>
