<?xml version="1.0"?>
<opencv_storage>
<stage8>
  <maxWeakCount>9</maxWeakCount>
  <stageThreshold>-7.2218853235244751e-01</stageThreshold>
  <weakClassifiers>
    <_>
      <internalNodes>
        0 -1 50376 -4.9649998545646667e-03</internalNodes>
      <leafValues>
        7.0480930805206299e-01 -2.3341523110866547e-01</leafValues></_>
    <_>
      <internalNodes>
        0 -1 483722 -1.8947507487609982e-04</internalNodes>
      <leafValues>
        -3.8181602954864502e-01 3.9166194200515747e-01</leafValues></_>
    <_>
      <internalNodes>
        0 -1 553943 3.9061931893229485e-03</internalNodes>
      <leafValues>
        -3.5443046689033508e-01 4.2739009857177734e-01</leafValues></_>
    <_>
      <internalNodes>
        0 -1 57092 -5.5872544180601835e-04</internalNodes>
      <leafValues>
        5.6351095438003540e-01 -2.3076479136943817e-01</leafValues></_>
    <_>
      <internalNodes>
        0 -1 71090 2.7492977678775787e-03</internalNodes>
      <leafValues>
        -2.9600286483764648e-01 7.1137595176696777e-01</leafValues></_>
    <_>
      <internalNodes>
        0 -1 542193 -2.4276509066112339e-04</internalNodes>
      <leafValues>
        -3.9059835672378540e-01 3.6007371544837952e-01</leafValues></_>
    <_>
      <internalNodes>
        0 -1 315727 1.6313778236508369e-02</internalNodes>
      <leafValues>
        1.1177677661180496e-01 -9.4177347421646118e-01</leafValues></_>
    <_>
      <internalNodes>
        0 -1 278259 1.8208281835541129e-04</internalNodes>
      <leafValues>
        -3.0740648508071899e-01 3.9944660663604736e-01</leafValues></_>
    <_>
      <internalNodes>
        0 -1 166707 -8.5002323612570763e-03</internalNodes>
      <leafValues>
        4.2224439978599548e-01 -3.1718492507934570e-01</leafValues></_></weakClassifiers></stage8>
</opencv_storage>
