<?xml version="1.0"?>
<opencv_storage>
<stage15>
  <maxWeakCount>17</maxWeakCount>
  <stageThreshold>-6.6622024774551392e-01</stageThreshold>
  <weakClassifiers>
    <_>
      <internalNodes>
        0 -1 635575 4.1020935168489814e-04</internalNodes>
      <leafValues>
        -7.6086953282356262e-02 5.5763238668441772e-01</leafValues></_>
    <_>
      <internalNodes>
        0 -1 339 -5.5294395424425602e-03</internalNodes>
      <leafValues>
        4.1837000846862793e-01 -2.1727737784385681e-01</leafValues></_>
    <_>
      <internalNodes>
        0 -1 554062 5.4581044241786003e-04</internalNodes>
      <leafValues>
        -2.3604120314121246e-01 3.6739078164100647e-01</leafValues></_>
    <_>
      <internalNodes>
        0 -1 584742 -9.8326266743242741e-04</internalNodes>
      <leafValues>
        1.7174042761325836e-01 -5.2659064531326294e-01</leafValues></_>
    <_>
      <internalNodes>
        0 -1 456039 -1.1542902886867523e-01</internalNodes>
      <leafValues>
        5.2002298831939697e-01 -2.1940797567367554e-01</leafValues></_>
    <_>
      <internalNodes>
        0 -1 433670 -5.7361789047718048e-02</internalNodes>
      <leafValues>
        -5.4719817638397217e-01 2.0324489474296570e-01</leafValues></_>
    <_>
      <internalNodes>
        0 -1 346211 -3.9188674418255687e-04</internalNodes>
      <leafValues>
        1.9383849203586578e-01 -4.6028533577919006e-01</leafValues></_>
    <_>
      <internalNodes>
        0 -1 557839 7.2791337966918945e-02</internalNodes>
      <leafValues>
        8.4405310451984406e-02 -6.6381096839904785e-01</leafValues></_>
    <_>
      <internalNodes>
        0 -1 565211 3.8565450813621283e-04</internalNodes>
      <leafValues>
        -1.7918790876865387e-01 4.3632850050926208e-01</leafValues></_>
    <_>
      <internalNodes>
        0 -1 571335 -2.6158874388784170e-03</internalNodes>
      <leafValues>
        -8.4077340364456177e-01 9.6301749348640442e-02</leafValues></_>
    <_>
      <internalNodes>
        0 -1 516464 -6.7193221184425056e-05</internalNodes>
      <leafValues>
        -6.2666183710098267e-01 9.0897582471370697e-02</leafValues></_>
    <_>
      <internalNodes>
        0 -1 74871 -1.8566970247775316e-03</internalNodes>
      <leafValues>
        3.8032546639442444e-01 -2.0473261177539825e-01</leafValues></_>
    <_>
      <internalNodes>
        0 -1 607834 -1.5790422912687063e-03</internalNodes>
      <leafValues>
        6.6510719060897827e-01 -1.3052414357662201e-01</leafValues></_>
    <_>
      <internalNodes>
        0 -1 376931 -3.5519729135558009e-04</internalNodes>
      <leafValues>
        3.4756296873092651e-01 -2.2367216646671295e-01</leafValues></_>
    <_>
      <internalNodes>
        0 -1 617755 -1.7205608310177922e-04</internalNodes>
      <leafValues>
        -6.4057791233062744e-01 1.3232970237731934e-01</leafValues></_>
    <_>
      <internalNodes>
        0 -1 102371 1.6897035529837012e-03</internalNodes>
      <leafValues>
        -1.6380210220813751e-01 5.2776783704757690e-01</leafValues></_>
    <_>
      <internalNodes>
        0 -1 370531 4.9755595682654530e-05</internalNodes>
      <leafValues>
        1.4350345730781555e-01 -5.8209943771362305e-01</leafValues></_></weakClassifiers></stage15>
</opencv_storage>
