<?xml version="1.0"?>
<opencv_storage>
<stage7>
  <maxWeakCount>16</maxWeakCount>
  <stageThreshold>-5.6698292493820190e-01</stageThreshold>
  <weakClassifiers>
    <_>
      <internalNodes>
        0 -1 40618 8.5116103291511536e-03</internalNodes>
      <leafValues>
        -1.3846154510974884e-01 6.1935484409332275e-01</leafValues></_>
    <_>
      <internalNodes>
        0 -1 36984 1.7432482913136482e-02</internalNodes>
      <leafValues>
        -1.8457254767417908e-01 4.9880361557006836e-01</leafValues></_>
    <_>
      <internalNodes>
        0 -1 40099 -1.2379784137010574e-02</internalNodes>
      <leafValues>
        7.2440481185913086e-01 -1.4693291485309601e-01</leafValues></_>
    <_>
      <internalNodes>
        0 -1 32712 -2.4995829910039902e-02</internalNodes>
      <leafValues>
        2.8126642107963562e-01 -3.9088508486747742e-01</leafValues></_>
    <_>
      <internalNodes>
        0 -1 5990 -3.2495364546775818e-02</internalNodes>
      <leafValues>
        3.4631633758544922e-01 -2.8994598984718323e-01</leafValues></_>
    <_>
      <internalNodes>
        0 -1 13544 -1.3991069793701172e-01</internalNodes>
      <leafValues>
        7.3870122432708740e-01 -1.1918908357620239e-01</leafValues></_>
    <_>
      <internalNodes>
        0 -1 38985 -1.7029386013746262e-02</internalNodes>
      <leafValues>
        5.4985088109970093e-01 -1.7750950157642365e-01</leafValues></_>
    <_>
      <internalNodes>
        0 -1 12391 5.2560959011316299e-03</internalNodes>
      <leafValues>
        -2.7255466580390930e-01 3.4453859925270081e-01</leafValues></_>
    <_>
      <internalNodes>
        0 -1 12179 1.3394692214205861e-03</internalNodes>
      <leafValues>
        1.9288291037082672e-01 -5.0390744209289551e-01</leafValues></_>
    <_>
      <internalNodes>
        0 -1 34090 -3.8728909566998482e-03</internalNodes>
      <leafValues>
        2.8766068816184998e-01 -3.5876995325088501e-01</leafValues></_>
    <_>
      <internalNodes>
        0 -1 18775 3.9652518928050995e-02</internalNodes>
      <leafValues>
        -2.6319390535354614e-01 4.6643251180648804e-01</leafValues></_>
    <_>
      <internalNodes>
        0 -1 32433 8.5536045953631401e-03</internalNodes>
      <leafValues>
        -2.2171160578727722e-01 4.9155661463737488e-01</leafValues></_>
    <_>
      <internalNodes>
        0 -1 17933 -5.5291064083576202e-02</internalNodes>
      <leafValues>
        -9.3592911958694458e-01 1.2876340746879578e-01</leafValues></_>
    <_>
      <internalNodes>
        0 -1 20908 -2.9702526517212391e-03</internalNodes>
      <leafValues>
        4.9267417192459106e-01 -2.1589706838130951e-01</leafValues></_>
    <_>
      <internalNodes>
        0 -1 19 -8.9730955660343170e-03</internalNodes>
      <leafValues>
        5.0912058353424072e-01 -1.8449921905994415e-01</leafValues></_>
    <_>
      <internalNodes>
        0 -1 25502 -1.5287047717720270e-03</internalNodes>
      <leafValues>
        5.3009676933288574e-01 -1.7378397285938263e-01</leafValues></_></weakClassifiers></stage7>
</opencv_storage>
