<?xml version="1.0"?>
<opencv_storage>
<stage0>
  <maxWeakCount>5</maxWeakCount>
  <stageThreshold>-2.5487190485000610e-01</stageThreshold>
  <weakClassifiers>
    <_>
      <internalNodes>
        0 -1 7569 -5.4421774111688137e-03</internalNodes>
      <leafValues>
        8.8007056713104248e-01 -3.8148984313011169e-01</leafValues></_>
    <_>
      <internalNodes>
        0 -1 35171 -5.9725004248321056e-03</internalNodes>
      <leafValues>
        6.4935272932052612e-01 -7.3161494731903076e-01</leafValues></_>
    <_>
      <internalNodes>
        0 -1 40510 9.5195099711418152e-03</internalNodes>
      <leafValues>
        -4.4063237309455872e-01 8.1026136875152588e-01</leafValues></_>
    <_>
      <internalNodes>
        0 -1 30822 -1.6302323201671243e-03</internalNodes>
      <leafValues>
        6.9791805744171143e-01 -4.2528110742568970e-01</leafValues></_>
    <_>
      <internalNodes>
        0 -1 25978 1.2603709474205971e-02</internalNodes>
      <leafValues>
        -4.8470342159271240e-01 6.0094720125198364e-01</leafValues></_></weakClassifiers></stage0>
</opencv_storage>
