<?xml version="1.0"?>
<opencv_storage>
<stage5>
  <maxWeakCount>17</maxWeakCount>
  <stageThreshold>-4.3816518783569336e-01</stageThreshold>
  <weakClassifiers>
    <_>
      <internalNodes>
        0 -1 7249 -3.3098193816840649e-03</internalNodes>
      <leafValues>
        5.6145250797271729e-01 -2.4489796161651611e-01</leafValues></_>
    <_>
      <internalNodes>
        0 -1 17881 2.4005079641938210e-02</internalNodes>
      <leafValues>
        -1.8499629199504852e-01 6.3235068321228027e-01</leafValues></_>
    <_>
      <internalNodes>
        0 -1 21231 2.9337028972804546e-03</internalNodes>
      <leafValues>
        -2.4807670712471008e-01 4.8991212248802185e-01</leafValues></_>
    <_>
      <internalNodes>
        0 -1 12573 9.6840262413024902e-03</internalNodes>
      <leafValues>
        -1.7521144449710846e-01 7.5352078676223755e-01</leafValues></_>
    <_>
      <internalNodes>
        0 -1 40534 6.8115885369479656e-03</internalNodes>
      <leafValues>
        -2.7358308434486389e-01 4.5640525221824646e-01</leafValues></_>
    <_>
      <internalNodes>
        0 -1 29281 -1.7554474994540215e-02</internalNodes>
      <leafValues>
        5.6909984350204468e-01 -2.3564828932285309e-01</leafValues></_>
    <_>
      <internalNodes>
        0 -1 8656 -3.6479867994785309e-02</internalNodes>
      <leafValues>
        -8.1333565711975098e-01 1.9924475252628326e-01</leafValues></_>
    <_>
      <internalNodes>
        0 -1 27328 -2.8354716487228870e-03</internalNodes>
      <leafValues>
        3.1986337900161743e-01 -3.5970440506935120e-01</leafValues></_>
    <_>
      <internalNodes>
        0 -1 37783 -8.2698464393615723e-03</internalNodes>
      <leafValues>
        5.4931128025054932e-01 -2.0241256058216095e-01</leafValues></_>
    <_>
      <internalNodes>
        0 -1 4494 -9.1573841869831085e-02</internalNodes>
      <leafValues>
        4.8665913939476013e-01 -2.5380608439445496e-01</leafValues></_>
    <_>
      <internalNodes>
        0 -1 16513 4.5687672682106495e-03</internalNodes>
      <leafValues>
        -1.5930396318435669e-01 7.3455464839935303e-01</leafValues></_>
    <_>
      <internalNodes>
        0 -1 1558 2.1446755528450012e-01</internalNodes>
      <leafValues>
        1.3038945198059082e-01 -9.3510556221008301e-01</leafValues></_>
    <_>
      <internalNodes>
        0 -1 22116 -9.4365924596786499e-03</internalNodes>
      <leafValues>
        6.7075860500335693e-01 -1.7372399568557739e-01</leafValues></_>
    <_>
      <internalNodes>
        0 -1 22909 -1.8675826489925385e-02</internalNodes>
      <leafValues>
        7.1554130315780640e-01 -1.3578465580940247e-01</leafValues></_>
    <_>
      <internalNodes>
        0 -1 13640 -7.8522339463233948e-03</internalNodes>
      <leafValues>
        3.4408035874366760e-01 -2.8331887722015381e-01</leafValues></_>
    <_>
      <internalNodes>
        0 -1 37022 1.3318061246536672e-04</internalNodes>
      <leafValues>
        -3.9623501896858215e-01 2.7618205547332764e-01</leafValues></_>
    <_>
      <internalNodes>
        0 -1 13719 3.8317232392728329e-03</internalNodes>
      <leafValues>
        -2.7479311823844910e-01 4.0693888068199158e-01</leafValues></_></weakClassifiers></stage5>
</opencv_storage>
