<?xml version="1.0"?>
<opencv_storage>
<stage0>
  <maxWeakCount>6</maxWeakCount>
  <stageThreshold>-1.8951381444931030e+00</stageThreshold>
  <weakClassifiers>
    <_>
      <internalNodes>
        0 -1 81991 -2.6251219213008881e-02</internalNodes>
      <leafValues>
        5.8208954334259033e-01 -7.3623043298721313e-01</leafValues></_>
    <_>
      <internalNodes>
        0 -1 359168 -9.8099289461970329e-03</internalNodes>
      <leafValues>
        -7.0256567001342773e-01 3.5833409428596497e-01</leafValues></_>
    <_>
      <internalNodes>
        0 -1 79074 1.2079723179340363e-02</internalNodes>
      <leafValues>
        -3.6236312985420227e-01 6.8724226951599121e-01</leafValues></_>
    <_>
      <internalNodes>
        0 -1 215156 9.3735836446285248e-02</internalNodes>
      <leafValues>
        2.5492361187934875e-01 -9.2275714874267578e-01</leafValues></_>
    <_>
      <internalNodes>
        0 -1 80571 1.6734287142753601e-02</internalNodes>
      <leafValues>
        -2.8606942296028137e-01 7.8715640306472778e-01</leafValues></_>
    <_>
      <internalNodes>
        0 -1 5223 -7.0808365941047668e-02</internalNodes>
      <leafValues>
        7.7573186159133911e-01 -2.0347227156162262e-01</leafValues></_></weakClassifiers></stage0>
</opencv_storage>
