<?xml version="1.0"?>
<opencv_storage>
<stage2>
  <maxWeakCount>10</maxWeakCount>
  <stageThreshold>-8.8132852315902710e-01</stageThreshold>
  <weakClassifiers>
    <_>
      <internalNodes>
        0 -1 10889 -4.5083779841661453e-02</internalNodes>
      <leafValues>
        8.5281383991241455e-01 -9.6774190664291382e-02</leafValues></_>
    <_>
      <internalNodes>
        0 -1 159435 -9.2181153595447540e-03</internalNodes>
      <leafValues>
        6.3298755884170532e-01 -2.9990330338478088e-01</leafValues></_>
    <_>
      <internalNodes>
        0 -1 52798 6.6604297608137131e-03</internalNodes>
      <leafValues>
        -2.6236471533775330e-01 6.6148525476455688e-01</leafValues></_>
    <_>
      <internalNodes>
        0 -1 475107 -2.5790513609535992e-04</internalNodes>
      <leafValues>
        2.5832086801528931e-01 -6.6274040937423706e-01</leafValues></_>
    <_>
      <internalNodes>
        0 -1 122203 -2.5003966689109802e-01</internalNodes>
      <leafValues>
        -8.6214977502822876e-01 1.9118957221508026e-01</leafValues></_>
    <_>
      <internalNodes>
        0 -1 56883 -1.6435892879962921e-01</internalNodes>
      <leafValues>
        -4.9744316935539246e-01 2.7081057429313660e-01</leafValues></_>
    <_>
      <internalNodes>
        0 -1 352255 4.1055284440517426e-02</internalNodes>
      <leafValues>
        1.5402626991271973e-01 -8.8789594173431396e-01</leafValues></_>
    <_>
      <internalNodes>
        0 -1 331937 2.0338337868452072e-02</internalNodes>
      <leafValues>
        -1.9820441305637360e-01 8.5873335599899292e-01</leafValues></_>
    <_>
      <internalNodes>
        0 -1 489165 -6.8847313523292542e-03</internalNodes>
      <leafValues>
        6.1768627166748047e-01 -2.5215169787406921e-01</leafValues></_>
    <_>
      <internalNodes>
        0 -1 524302 -1.9574488396756351e-04</internalNodes>
      <leafValues>
        2.7478379011154175e-01 -5.6243377923965454e-01</leafValues></_></weakClassifiers></stage2>
</opencv_storage>
