<?xml version="1.0"?>
<opencv_storage>
<cascade>
  <stageType>BOOST</stageType>
  <featureType>HAAR</featureType>
  <height>24</height>
  <width>24</width>
  <stageParams>
    <boostType>GAB</boostType>
    <minHitRate>9.9500000476837158e-01</minHitRate>
    <maxFalseAlarm>5.0000000000000000e-01</maxFalseAlarm>
    <weightTrimRate>9.4999999999999996e-01</weightTrimRate>
    <maxDepth>1</maxDepth>
    <maxWeakCount>100</maxWeakCount></stageParams>
  <featureParams>
    <maxCatCount>0</maxCatCount>
    <featSize>1</featSize>
    <mode>BASIC</mode></featureParams>
  <stageNum>15</stageNum>
  <stages>
    <!-- stage 0 -->
    <_>
      <maxWeakCount>2</maxWeakCount>
      <stageThreshold>2.1130192279815674e-01</stageThreshold>
      <weakClassifiers>
        <_>
          <internalNodes>
            0 -1 28 5.2898973226547241e-03</internalNodes>
          <leafValues>
            -7.3913043737411499e-01 1.</leafValues></_>
        <_>
          <internalNodes>
            0 -1 24 1.2609073892235756e-02</internalNodes>
          <leafValues>
            -7.8310465812683105e-01 9.5043236017227173e-01</leafValues></_></weakClassifiers></_>
    <!-- stage 1 -->
    <_>
      <maxWeakCount>2</maxWeakCount>
      <stageThreshold>1.3236844539642334e-01</stageThreshold>
      <weakClassifiers>
        <_>
          <internalNodes>
            0 -1 26 2.7654508594423532e-03</internalNodes>
          <leafValues>
            -7.1428573131561279e-01 8.9743590354919434e-01</leafValues></_>
        <_>
          <internalNodes>
            0 -1 20 5.9890269767493010e-04</internalNodes>
          <leafValues>
            -7.6506745815277100e-01 8.6045026779174805e-01</leafValues></_></weakClassifiers></_>
    <!-- stage 2 -->
    <_>
      <maxWeakCount>2</maxWeakCount>
      <stageThreshold>6.4670234918594360e-02</stageThreshold>
      <weakClassifiers>
        <_>
          <internalNodes>
            0 -1 4 -2.1424327045679092e-02</internalNodes>
          <leafValues>
            8.4615385532379150e-01 -6.1904764175415039e-01</leafValues></_>
        <_>
          <internalNodes>
            0 -1 11 1.1362212244421244e-03</internalNodes>
          <leafValues>
            -7.8148359060287476e-01 8.1522077322006226e-01</leafValues></_></weakClassifiers></_>
    <!-- stage 3 -->
    <_>
      <maxWeakCount>1</maxWeakCount>
      <stageThreshold>7.0212763547897339e-01</stageThreshold>
      <weakClassifiers>
        <_>
          <internalNodes>
            0 -1 12 -1.3477494940161705e-02</internalNodes>
          <leafValues>
            -1. 7.0212763547897339e-01</leafValues></_></weakClassifiers></_>
    <!-- stage 4 -->
    <_>
      <maxWeakCount>2</maxWeakCount>
      <stageThreshold>8.5805997252464294e-02</stageThreshold>
      <weakClassifiers>
        <_>
          <internalNodes>
            0 -1 19 -5.3559162188321352e-04</internalNodes>
          <leafValues>
            -8.6666667461395264e-01 7.3333334922790527e-01</leafValues></_>
        <_>
          <internalNodes>
            0 -1 18 1.2102766195312142e-03</internalNodes>
          <leafValues>
            -6.4746701717376709e-01 9.5247268676757813e-01</leafValues></_></weakClassifiers></_>
    <!-- stage 5 -->
    <_>
      <maxWeakCount>2</maxWeakCount>
      <stageThreshold>1.1278136819601059e-01</stageThreshold>
      <weakClassifiers>
        <_>
          <internalNodes>
            0 -1 9 -1.5414935769513249e-03</internalNodes>
          <leafValues>
            -6.3636362552642822e-01 8.9473682641983032e-01</leafValues></_>
        <_>
          <internalNodes>
            0 -1 25 7.0825130678713322e-03</internalNodes>
          <leafValues>
            -7.8195548057556152e-01 9.0242981910705566e-01</leafValues></_></weakClassifiers></_>
    <!-- stage 6 -->
    <_>
      <maxWeakCount>1</maxWeakCount>
      <stageThreshold>8.6046510934829712e-01</stageThreshold>
      <weakClassifiers>
        <_>
          <internalNodes>
            0 -1 3 -1.7872564494609833e-02</internalNodes>
          <leafValues>
            -1. 8.6046510934829712e-01</leafValues></_></weakClassifiers></_>
    <!-- stage 7 -->
    <_>
      <maxWeakCount>2</maxWeakCount>
      <stageThreshold>3.5033728927373886e-02</stageThreshold>
      <weakClassifiers>
        <_>
          <internalNodes>
            0 -1 8 -2.3565176874399185e-02</internalNodes>
          <leafValues>
            8.5365855693817139e-01 -7.8947371244430542e-01</leafValues></_>
        <_>
          <internalNodes>
            0 -1 27 1.3509637210518122e-03</internalNodes>
          <leafValues>
            8.2450741529464722e-01 -7.6747030019760132e-01</leafValues></_></weakClassifiers></_>
    <!-- stage 8 -->
    <_>
      <maxWeakCount>2</maxWeakCount>
      <stageThreshold>1.1111111193895340e-01</stageThreshold>
      <weakClassifiers>
        <_>
          <internalNodes>
            0 -1 2 -5.1852267980575562e-01</internalNodes>
          <leafValues>
            8.5714286565780640e-01 -8.8888889551162720e-01</leafValues></_>
        <_>
          <internalNodes>
            0 -1 17 6.9276392459869385e-03</internalNodes>
          <leafValues>
            -6.9330579042434692e-01 1.</leafValues></_></weakClassifiers></_>
    <!-- stage 9 -->
    <_>
      <maxWeakCount>2</maxWeakCount>
      <stageThreshold>-7.2506360709667206e-02</stageThreshold>
      <weakClassifiers>
        <_>
          <internalNodes>
            0 -1 1 -1.1877669394016266e-01</internalNodes>
          <leafValues>
            7.7272725105285645e-01 -8.7500000000000000e-01</leafValues></_>
        <_>
          <internalNodes>
            0 -1 21 -2.9232092201709747e-03</internalNodes>
          <leafValues>
            8.0249363183975220e-01 -8.3088278770446777e-01</leafValues></_></weakClassifiers></_>
    <!-- stage 10 -->
    <_>
      <maxWeakCount>3</maxWeakCount>
      <stageThreshold>-4.8050019145011902e-01</stageThreshold>
      <weakClassifiers>
        <_>
          <internalNodes>
            0 -1 23 -1.1175599647685885e-03</internalNodes>
          <leafValues>
            -6.0000002384185791e-01 8.0000001192092896e-01</leafValues></_>
        <_>
          <internalNodes>
            0 -1 22 7.0235109888017178e-03</internalNodes>
          <leafValues>
            -8.2251018285751343e-01 7.0400804281234741e-01</leafValues></_>
        <_>
          <internalNodes>
            0 -1 10 -2.6036677882075310e-03</internalNodes>
          <leafValues>
            9.5484888553619385e-01 -5.8450824022293091e-01</leafValues></_></weakClassifiers></_>
    <!-- stage 11 -->
    <_>
      <maxWeakCount>2</maxWeakCount>
      <stageThreshold>2.5912943482398987e-01</stageThreshold>
      <weakClassifiers>
        <_>
          <internalNodes>
            0 -1 15 4.5466260053217411e-03</internalNodes>
          <leafValues>
            -4.8148149251937866e-01 1.</leafValues></_>
        <_>
          <internalNodes>
            0 -1 14 -1.6517493873834610e-02</internalNodes>
          <leafValues>
            7.9799395799636841e-01 -7.4087053537368774e-01</leafValues></_></weakClassifiers></_>
    <!-- stage 12 -->
    <_>
      <maxWeakCount>1</maxWeakCount>
      <stageThreshold>7.0212763547897339e-01</stageThreshold>
      <weakClassifiers>
        <_>
          <internalNodes>
            0 -1 6 3.6020544357597828e-03</internalNodes>
          <leafValues>
            7.0212763547897339e-01 -1.</leafValues></_></weakClassifiers></_>
    <!-- stage 13 -->
    <_>
      <maxWeakCount>2</maxWeakCount>
      <stageThreshold>3.9290147833526134e-03</stageThreshold>
      <weakClassifiers>
        <_>
          <internalNodes>
            0 -1 7 7.0813605561852455e-03</internalNodes>
          <leafValues>
            7.3333334922790527e-01 -8.6666667461395264e-01</leafValues></_>
        <_>
          <internalNodes>
            0 -1 5 -3.3504150807857513e-02</internalNodes>
          <leafValues>
            8.7059569358825684e-01 -7.1178424358367920e-01</leafValues></_></weakClassifiers></_>
    <!-- stage 14 -->
    <_>
      <maxWeakCount>3</maxWeakCount>
      <stageThreshold>-3.0825196299701929e-03</stageThreshold>
      <weakClassifiers>
        <_>
          <internalNodes>
            0 -1 16 5.2799899131059647e-03</internalNodes>
          <leafValues>
            -4.6153846383094788e-01 9.4117647409439087e-01</leafValues></_>
        <_>
          <internalNodes>
            0 -1 13 -2.3329302668571472e-02</internalNodes>
          <leafValues>
            1. -4.8077240586280823e-01</leafValues></_>
        <_>
          <internalNodes>
            0 -1 0 -2.7837583329528570e-03</internalNodes>
          <leafValues>
            9.3922835588455200e-01 -5.1465117931365967e-01</leafValues></_></weakClassifiers></_></stages>
  <features>
    <_>
      <rects>
        <_>
          0 8 6 1 -1.</_>
        <_>
          3 8 3 1 2.</_></rects>
      <tilted>0</tilted></_>
    <_>
      <rects>
        <_>
          0 17 12 7 -1.</_>
        <_>
          4 17 4 7 2.</_></rects>
      <tilted>0</tilted></_>
    <_>
      <rects>
        <_>
          1 0 18 15 -1.</_>
        <_>
          1 5 18 5 2.</_></rects>
      <tilted>0</tilted></_>
    <_>
      <rects>
        <_>
          3 6 6 1 -1.</_>
        <_>
          5 6 2 1 2.</_></rects>
      <tilted>0</tilted></_>
    <_>
      <rects>
        <_>
          4 0 20 6 -1.</_>
        <_>
          4 3 20 3 2.</_></rects>
      <tilted>0</tilted></_>
    <_>
      <rects>
        <_>
          6 0 1 15 -1.</_>
        <_>
          6 5 1 5 2.</_></rects>
      <tilted>0</tilted></_>
    <_>
      <rects>
        <_>
          6 5 10 4 -1.</_>
        <_>
          6 5 5 2 2.</_>
        <_>
          11 7 5 2 2.</_></rects>
      <tilted>0</tilted></_>
    <_>
      <rects>
        <_>
          7 0 4 12 -1.</_>
        <_>
          7 6 4 6 2.</_></rects>
      <tilted>0</tilted></_>
    <_>
      <rects>
        <_>
          7 1 6 2 -1.</_>
        <_>
          9 1 2 2 2.</_></rects>
      <tilted>0</tilted></_>
    <_>
      <rects>
        <_>
          7 4 12 2 -1.</_>
        <_>
          7 5 12 1 2.</_></rects>
      <tilted>0</tilted></_>
    <_>
      <rects>
        <_>
          8 0 6 2 -1.</_>
        <_>
          8 1 6 1 2.</_></rects>
      <tilted>0</tilted></_>
    <_>
      <rects>
        <_>
          8 4 12 8 -1.</_>
        <_>
          8 4 6 4 2.</_>
        <_>
          14 8 6 4 2.</_></rects>
      <tilted>0</tilted></_>
    <_>
      <rects>
        <_>
          9 10 14 12 -1.</_>
        <_>
          9 10 7 6 2.</_>
        <_>
          16 16 7 6 2.</_></rects>
      <tilted>0</tilted></_>
    <_>
      <rects>
        <_>
          9 11 12 4 -1.</_>
        <_>
          9 13 12 2 2.</_></rects>
      <tilted>0</tilted></_>
    <_>
      <rects>
        <_>
          10 1 9 1 -1.</_>
        <_>
          13 1 3 1 2.</_></rects>
      <tilted>0</tilted></_>
    <_>
      <rects>
        <_>
          11 22 9 2 -1.</_>
        <_>
          11 23 9 1 2.</_></rects>
      <tilted>0</tilted></_>
    <_>
      <rects>
        <_>
          11 22 10 2 -1.</_>
        <_>
          11 23 10 1 2.</_></rects>
      <tilted>0</tilted></_>
    <_>
      <rects>
        <_>
          12 11 8 8 -1.</_>
        <_>
          12 11 4 4 2.</_>
        <_>
          16 15 4 4 2.</_></rects>
      <tilted>0</tilted></_>
    <_>
      <rects>
        <_>
          12 15 1 4 -1.</_>
        <_>
          12 17 1 2 2.</_></rects>
      <tilted>0</tilted></_>
    <_>
      <rects>
        <_>
          12 19 6 2 -1.</_>
        <_>
          12 19 3 1 2.</_>
        <_>
          15 20 3 1 2.</_></rects>
      <tilted>0</tilted></_>
    <_>
      <rects>
        <_>
          13 7 1 6 -1.</_>
        <_>
          13 10 1 3 2.</_></rects>
      <tilted>0</tilted></_>
    <_>
      <rects>
        <_>
          14 0 5 4 -1.</_>
        <_>
          14 2 5 2 2.</_></rects>
      <tilted>0</tilted></_>
    <_>
      <rects>
        <_>
          14 6 7 6 -1.</_>
        <_>
          14 9 7 3 2.</_></rects>
      <tilted>0</tilted></_>
    <_>
      <rects>
        <_>
          16 3 4 6 -1.</_>
        <_>
          16 3 2 3 2.</_>
        <_>
          18 6 2 3 2.</_></rects>
      <tilted>0</tilted></_>
    <_>
      <rects>
        <_>
          16 14 4 10 -1.</_>
        <_>
          16 19 4 5 2.</_></rects>
      <tilted>0</tilted></_>
    <_>
      <rects>
        <_>
          16 15 8 1 -1.</_>
        <_>
          20 15 4 1 2.</_></rects>
      <tilted>0</tilted></_>
    <_>
      <rects>
        <_>
          17 15 6 1 -1.</_>
        <_>
          20 15 3 1 2.</_></rects>
      <tilted>0</tilted></_>
    <_>
      <rects>
        <_>
          18 10 5 6 -1.</_>
        <_>
          18 13 5 3 2.</_></rects>
      <tilted>0</tilted></_>
    <_>
      <rects>
        <_>
          18 14 6 2 -1.</_>
        <_>
          21 14 3 2 2.</_></rects>
      <tilted>0</tilted></_></features></cascade>
</opencv_storage>
