<?xml version="1.0"?>
<opencv_storage>
<cascade>
  <stageType>BOOST</stageType>
  <featureType>HAAR</featureType>
  <height>49</height>
  <width>18</width>
  <stageParams>
    <boostType>GAB</boostType>
    <minHitRate>9.9500000476837158e-01</minHitRate>
    <maxFalseAlarm>5.0000000000000000e-01</maxFalseAlarm>
    <weightTrimRate>9.4999999999999996e-01</weightTrimRate>
    <maxDepth>1</maxDepth>
    <maxWeakCount>100</maxWeakCount></stageParams>
  <featureParams>
    <maxCatCount>0</maxCatCount>
    <featSize>1</featSize>
    <mode>BASIC</mode></featureParams>
  <stageNum>10</stageNum>
  <stages>
    <!-- stage 0 -->
    <_>
      <maxWeakCount>6</maxWeakCount>
      <stageThreshold>-1.8951381444931030e+00</stageThreshold>
      <weakClassifiers>
        <_>
          <internalNodes>
            0 -1 35 -2.6251219213008881e-02</internalNodes>
          <leafValues>
            5.8208954334259033e-01 -7.3623043298721313e-01</leafValues></_>
        <_>
          <internalNodes>
            0 -1 118 -9.8099289461970329e-03</internalNodes>
          <leafValues>
            -7.0256567001342773e-01 3.5833409428596497e-01</leafValues></_>
        <_>
          <internalNodes>
            0 -1 29 1.2079723179340363e-02</internalNodes>
          <leafValues>
            -3.6236312985420227e-01 6.8724226951599121e-01</leafValues></_>
        <_>
          <internalNodes>
            0 -1 78 9.3735836446285248e-02</internalNodes>
          <leafValues>
            2.5492361187934875e-01 -9.2275714874267578e-01</leafValues></_>
        <_>
          <internalNodes>
            0 -1 31 1.6734287142753601e-02</internalNodes>
          <leafValues>
            -2.8606942296028137e-01 7.8715640306472778e-01</leafValues></_>
        <_>
          <internalNodes>
            0 -1 5 -7.0808365941047668e-02</internalNodes>
          <leafValues>
            7.7573186159133911e-01 -2.0347227156162262e-01</leafValues></_></weakClassifiers></_>
    <!-- stage 1 -->
    <_>
      <maxWeakCount>6</maxWeakCount>
      <stageThreshold>-1.2495245933532715e+00</stageThreshold>
      <weakClassifiers>
        <_>
          <internalNodes>
            0 -1 124 3.8070842623710632e-02</internalNodes>
          <leafValues>
            -6.6480445861816406e-01 6.8091166019439697e-01</leafValues></_>
        <_>
          <internalNodes>
            0 -1 37 -2.9577486217021942e-02</internalNodes>
          <leafValues>
            -5.3824913501739502e-01 3.7255021929740906e-01</leafValues></_>
        <_>
          <internalNodes>
            0 -1 14 -2.6860803365707397e-02</internalNodes>
          <leafValues>
            6.3350731134414673e-01 -2.9311281442642212e-01</leafValues></_>
        <_>
          <internalNodes>
            0 -1 56 2.7320978697389364e-03</internalNodes>
          <leafValues>
            -3.0083197355270386e-01 7.0911574363708496e-01</leafValues></_>
        <_>
          <internalNodes>
            0 -1 105 -4.4453274458646774e-03</internalNodes>
          <leafValues>
            3.3726179599761963e-01 -5.5857741832733154e-01</leafValues></_>
        <_>
          <internalNodes>
            0 -1 36 -2.5101512670516968e-01</internalNodes>
          <leafValues>
            -7.9973572492599487e-01 2.4646008014678955e-01</leafValues></_></weakClassifiers></_>
    <!-- stage 2 -->
    <_>
      <maxWeakCount>9</maxWeakCount>
      <stageThreshold>-1.6584583520889282e+00</stageThreshold>
      <weakClassifiers>
        <_>
          <internalNodes>
            0 -1 131 2.9008263722062111e-02</internalNodes>
          <leafValues>
            -6.2900185585021973e-01 5.3168046474456787e-01</leafValues></_>
        <_>
          <internalNodes>
            0 -1 16 -8.6867615580558777e-02</internalNodes>
          <leafValues>
            -7.6237052679061890e-01 1.9329054653644562e-01</leafValues></_>
        <_>
          <internalNodes>
            0 -1 18 -8.4932055324316025e-03</internalNodes>
          <leafValues>
            5.0828510522842407e-01 -3.9614409208297729e-01</leafValues></_>
        <_>
          <internalNodes>
            0 -1 44 -1.8479241058230400e-02</internalNodes>
          <leafValues>
            4.6055027842521667e-01 -3.4161156415939331e-01</leafValues></_>
        <_>
          <internalNodes>
            0 -1 92 -2.3071188479661942e-03</internalNodes>
          <leafValues>
            3.1192532181739807e-01 -5.7595771551132202e-01</leafValues></_>
        <_>
          <internalNodes>
            0 -1 34 1.0316463187336922e-02</internalNodes>
          <leafValues>
            -4.0638613700866699e-01 4.3766722083091736e-01</leafValues></_>
        <_>
          <internalNodes>
            0 -1 81 9.0981721878051758e-03</internalNodes>
          <leafValues>
            -2.9407548904418945e-01 4.5097810029983521e-01</leafValues></_>
        <_>
          <internalNodes>
            0 -1 39 2.4233898147940636e-03</internalNodes>
          <leafValues>
            -2.5802987813949585e-01 4.0745171904563904e-01</leafValues></_>
        <_>
          <internalNodes>
            0 -1 100 -1.4840529765933752e-03</internalNodes>
          <leafValues>
            -7.0988214015960693e-01 1.6157487034797668e-01</leafValues></_></weakClassifiers></_>
    <!-- stage 3 -->
    <_>
      <maxWeakCount>10</maxWeakCount>
      <stageThreshold>-1.3915133476257324e+00</stageThreshold>
      <weakClassifiers>
        <_>
          <internalNodes>
            0 -1 11 -4.5784942805767059e-02</internalNodes>
          <leafValues>
            4.2098915576934814e-01 -6.4275109767913818e-01</leafValues></_>
        <_>
          <internalNodes>
            0 -1 127 2.7226485311985016e-02</internalNodes>
          <leafValues>
            -3.5604888200759888e-01 4.6546965837478638e-01</leafValues></_>
        <_>
          <internalNodes>
            0 -1 32 3.1238548457622528e-02</internalNodes>
          <leafValues>
            -1.7681652307510376e-01 8.2611358165740967e-01</leafValues></_>
        <_>
          <internalNodes>
            0 -1 68 -1.1632226407527924e-02</internalNodes>
          <leafValues>
            6.0353183746337891e-01 -2.8310716152191162e-01</leafValues></_>
        <_>
          <internalNodes>
            0 -1 64 -5.7662423932924867e-04</internalNodes>
          <leafValues>
            -7.8472930192947388e-01 1.7428599298000336e-01</leafValues></_>
        <_>
          <internalNodes>
            0 -1 102 -2.9992518946528435e-02</internalNodes>
          <leafValues>
            4.8629850149154663e-01 -2.4506437778472900e-01</leafValues></_>
        <_>
          <internalNodes>
            0 -1 42 -7.8404117375612259e-03</internalNodes>
          <leafValues>
            3.8362854719161987e-01 -3.1284430623054504e-01</leafValues></_>
        <_>
          <internalNodes>
            0 -1 24 2.6864210143685341e-02</internalNodes>
          <leafValues>
            -1.9204406440258026e-01 6.2177455425262451e-01</leafValues></_>
        <_>
          <internalNodes>
            0 -1 70 2.2343483578879386e-04</internalNodes>
          <leafValues>
            2.2313538193702698e-01 -5.4879355430603027e-01</leafValues></_>
        <_>
          <internalNodes>
            0 -1 74 2.9461737722158432e-03</internalNodes>
          <leafValues>
            -2.3616500198841095e-01 4.6129322052001953e-01</leafValues></_></weakClassifiers></_>
    <!-- stage 4 -->
    <_>
      <maxWeakCount>13</maxWeakCount>
      <stageThreshold>-1.5271309614181519e+00</stageThreshold>
      <weakClassifiers>
        <_>
          <internalNodes>
            0 -1 122 6.5099343657493591e-02</internalNodes>
          <leafValues>
            -6.0196340084075928e-01 6.5517240762710571e-01</leafValues></_>
        <_>
          <internalNodes>
            0 -1 9 -5.1456958055496216e-02</internalNodes>
          <leafValues>
            5.8169835805892944e-01 -3.1713315844535828e-01</leafValues></_>
        <_>
          <internalNodes>
            0 -1 97 -6.2826126813888550e-02</internalNodes>
          <leafValues>
            6.6934406757354736e-01 -2.3336789011955261e-01</leafValues></_>
        <_>
          <internalNodes>
            0 -1 93 -5.0242588622495532e-04</internalNodes>
          <leafValues>
            -6.8422132730484009e-01 2.0193710923194885e-01</leafValues></_>
        <_>
          <internalNodes>
            0 -1 133 -1.3081074575893581e-04</internalNodes>
          <leafValues>
            -6.4459073543548584e-01 1.8328513205051422e-01</leafValues></_>
        <_>
          <internalNodes>
            0 -1 58 3.0300298705697060e-02</internalNodes>
          <leafValues>
            -1.6345639526844025e-01 6.7941337823867798e-01</leafValues></_>
        <_>
          <internalNodes>
            0 -1 126 8.5172813851386309e-04</internalNodes>
          <leafValues>
            1.9722969830036163e-01 -5.6218576431274414e-01</leafValues></_>
        <_>
          <internalNodes>
            0 -1 99 2.5250328704714775e-02</internalNodes>
          <leafValues>
            -2.7723330259323120e-01 3.8003718852996826e-01</leafValues></_>
        <_>
          <internalNodes>
            0 -1 75 -2.5436669588088989e-02</internalNodes>
          <leafValues>
            4.0685775876045227e-01 -2.4855606257915497e-01</leafValues></_>
        <_>
          <internalNodes>
            0 -1 4 7.1532756090164185e-02</internalNodes>
          <leafValues>
            -2.1250344812870026e-01 5.9871202707290649e-01</leafValues></_>
        <_>
          <internalNodes>
            0 -1 73 -2.7618397143669426e-04</internalNodes>
          <leafValues>
            -7.5701791048049927e-01 1.7718863487243652e-01</leafValues></_>
        <_>
          <internalNodes>
            0 -1 6 -1.5807483345270157e-02</internalNodes>
          <leafValues>
            6.6714125871658325e-01 -1.5757879614830017e-01</leafValues></_>
        <_>
          <internalNodes>
            0 -1 63 4.9801432760432363e-04</internalNodes>
          <leafValues>
            1.5576563775539398e-01 -6.5634107589721680e-01</leafValues></_></weakClassifiers></_>
    <!-- stage 5 -->
    <_>
      <maxWeakCount>15</maxWeakCount>
      <stageThreshold>-1.6358324289321899e+00</stageThreshold>
      <weakClassifiers>
        <_>
          <internalNodes>
            0 -1 10 -7.4868112802505493e-02</internalNodes>
          <leafValues>
            3.1707316637039185e-01 -5.6060606241226196e-01</leafValues></_>
        <_>
          <internalNodes>
            0 -1 95 1.3693353394046426e-03</internalNodes>
          <leafValues>
            -3.5625731945037842e-01 3.9639961719512939e-01</leafValues></_>
        <_>
          <internalNodes>
            0 -1 130 8.9641436934471130e-03</internalNodes>
          <leafValues>
            -2.9095575213432312e-01 3.6455968022346497e-01</leafValues></_>
        <_>
          <internalNodes>
            0 -1 108 -1.2981953099370003e-02</internalNodes>
          <leafValues>
            5.7610368728637695e-01 -1.9154542684555054e-01</leafValues></_>
        <_>
          <internalNodes>
            0 -1 59 -1.3512762263417244e-02</internalNodes>
          <leafValues>
            3.5462498664855957e-01 -4.0448743104934692e-01</leafValues></_>
        <_>
          <internalNodes>
            0 -1 25 -5.1174823194742203e-02</internalNodes>
          <leafValues>
            -7.2821074724197388e-01 1.5600687265396118e-01</leafValues></_>
        <_>
          <internalNodes>
            0 -1 20 -4.7586923465132713e-03</internalNodes>
          <leafValues>
            3.9401108026504517e-01 -2.5468078255653381e-01</leafValues></_>
        <_>
          <internalNodes>
            0 -1 79 1.3868331443518400e-03</internalNodes>
          <leafValues>
            -1.8649470806121826e-01 5.1437449455261230e-01</leafValues></_>
        <_>
          <internalNodes>
            0 -1 120 1.4752309769392014e-02</internalNodes>
          <leafValues>
            -1.5269370377063751e-01 5.3100132942199707e-01</leafValues></_>
        <_>
          <internalNodes>
            0 -1 33 1.3610192108899355e-03</internalNodes>
          <leafValues>
            -2.2428911924362183e-01 4.3378719687461853e-01</leafValues></_>
        <_>
          <internalNodes>
            0 -1 47 -3.2459469512104988e-03</internalNodes>
          <leafValues>
            -4.1299650073051453e-01 2.0938995480537415e-01</leafValues></_>
        <_>
          <internalNodes>
            0 -1 89 8.2261994481086731e-02</internalNodes>
          <leafValues>
            8.5654720664024353e-02 -8.5976016521453857e-01</leafValues></_>
        <_>
          <internalNodes>
            0 -1 84 -1.3522999361157417e-03</internalNodes>
          <leafValues>
            -6.3975459337234497e-01 8.8541865348815918e-02</leafValues></_>
        <_>
          <internalNodes>
            0 -1 61 9.0736092533916235e-04</internalNodes>
          <leafValues>
            -1.7615637183189392e-01 4.5244386792182922e-01</leafValues></_>
        <_>
          <internalNodes>
            0 -1 28 -1.5396589413285255e-02</internalNodes>
          <leafValues>
            3.8271531462669373e-01 -1.7206141352653503e-01</leafValues></_></weakClassifiers></_>
    <!-- stage 6 -->
    <_>
      <maxWeakCount>18</maxWeakCount>
      <stageThreshold>-1.5118557214736938e+00</stageThreshold>
      <weakClassifiers>
        <_>
          <internalNodes>
            0 -1 54 1.6553945839405060e-02</internalNodes>
          <leafValues>
            -5.3624534606933594e-01 2.9226359724998474e-01</leafValues></_>
        <_>
          <internalNodes>
            0 -1 101 -6.2692537903785706e-03</internalNodes>
          <leafValues>
            2.9582479596138000e-01 -4.0261021256446838e-01</leafValues></_>
        <_>
          <internalNodes>
            0 -1 7 -3.2695073634386063e-02</internalNodes>
          <leafValues>
            4.7148719429969788e-01 -2.1097728610038757e-01</leafValues></_>
        <_>
          <internalNodes>
            0 -1 30 1.4226432889699936e-02</internalNodes>
          <leafValues>
            -1.7968435585498810e-01 5.7097041606903076e-01</leafValues></_>
        <_>
          <internalNodes>
            0 -1 22 -5.9468322433531284e-03</internalNodes>
          <leafValues>
            5.6236505508422852e-01 -1.8721510469913483e-01</leafValues></_>
        <_>
          <internalNodes>
            0 -1 82 7.6443841680884361e-03</internalNodes>
          <leafValues>
            -3.0436861515045166e-01 2.8954830765724182e-01</leafValues></_>
        <_>
          <internalNodes>
            0 -1 134 2.4531172588467598e-02</internalNodes>
          <leafValues>
            -1.2123581022024155e-01 6.1222112178802490e-01</leafValues></_>
        <_>
          <internalNodes>
            0 -1 135 -4.4712731614708900e-03</internalNodes>
          <leafValues>
            7.3006069660186768e-01 -1.3465465605258942e-01</leafValues></_>
        <_>
          <internalNodes>
            0 -1 106 3.7714941427111626e-03</internalNodes>
          <leafValues>
            -1.8275028467178345e-01 4.3231806159019470e-01</leafValues></_>
        <_>
          <internalNodes>
            0 -1 15 -1.4577092602849007e-02</internalNodes>
          <leafValues>
            -4.2750343680381775e-01 2.0328271389007568e-01</leafValues></_>
        <_>
          <internalNodes>
            0 -1 19 -2.6118686422705650e-02</internalNodes>
          <leafValues>
            3.0876022577285767e-01 -2.2439374029636383e-01</leafValues></_>
        <_>
          <internalNodes>
            0 -1 104 -2.6812630239874125e-03</internalNodes>
          <leafValues>
            1.6156949102878571e-01 -4.9167740345001221e-01</leafValues></_>
        <_>
          <internalNodes>
            0 -1 83 2.7797179063782096e-04</internalNodes>
          <leafValues>
            1.5541304647922516e-01 -4.4271209836006165e-01</leafValues></_>
        <_>
          <internalNodes>
            0 -1 48 6.7661656066775322e-03</internalNodes>
          <leafValues>
            -2.3917734622955322e-01 2.8867784142494202e-01</leafValues></_>
        <_>
          <internalNodes>
            0 -1 60 -4.0642493404448032e-03</internalNodes>
          <leafValues>
            4.3327322602272034e-01 -1.9785253703594208e-01</leafValues></_>
        <_>
          <internalNodes>
            0 -1 85 -1.5863904263824224e-04</internalNodes>
          <leafValues>
            -5.8972513675689697e-01 1.0958451032638550e-01</leafValues></_>
        <_>
          <internalNodes>
            0 -1 55 5.4982759058475494e-02</internalNodes>
          <leafValues>
            6.1786904931068420e-02 -8.5107517242431641e-01</leafValues></_>
        <_>
          <internalNodes>
            0 -1 62 4.0340442210435867e-03</internalNodes>
          <leafValues>
            -1.8786187469959259e-01 3.9415204524993896e-01</leafValues></_></weakClassifiers></_>
    <!-- stage 7 -->
    <_>
      <maxWeakCount>17</maxWeakCount>
      <stageThreshold>-1.4037401676177979e+00</stageThreshold>
      <weakClassifiers>
        <_>
          <internalNodes>
            0 -1 121 3.2865695655345917e-02</internalNodes>
          <leafValues>
            -5.7912087440490723e-01 1.0097087174654007e-01</leafValues></_>
        <_>
          <internalNodes>
            0 -1 0 -6.9085266441106796e-03</internalNodes>
          <leafValues>
            4.6411710977554321e-01 -2.2475372254848480e-01</leafValues></_>
        <_>
          <internalNodes>
            0 -1 67 2.0028106868267059e-02</internalNodes>
          <leafValues>
            -1.3578300178050995e-01 6.6822522878646851e-01</leafValues></_>
        <_>
          <internalNodes>
            0 -1 52 1.4096997911110520e-03</internalNodes>
          <leafValues>
            -2.7856269478797913e-01 3.2230511307716370e-01</leafValues></_>
        <_>
          <internalNodes>
            0 -1 112 -3.7367577897384763e-04</internalNodes>
          <leafValues>
            -6.7062497138977051e-01 1.1704928427934647e-01</leafValues></_>
        <_>
          <internalNodes>
            0 -1 43 -9.4751138240098953e-03</internalNodes>
          <leafValues>
            3.7018013000488281e-01 -2.0667767524719238e-01</leafValues></_>
        <_>
          <internalNodes>
            0 -1 98 -1.8856316804885864e-02</internalNodes>
          <leafValues>
            5.0942683219909668e-01 -1.8410596251487732e-01</leafValues></_>
        <_>
          <internalNodes>
            0 -1 51 1.1083502322435379e-03</internalNodes>
          <leafValues>
            1.2957702577114105e-01 -5.7138419151306152e-01</leafValues></_>
        <_>
          <internalNodes>
            0 -1 117 1.9118702039122581e-04</internalNodes>
          <leafValues>
            -3.0013373494148254e-01 2.3708547651767731e-01</leafValues></_>
        <_>
          <internalNodes>
            0 -1 76 5.9068456292152405e-02</internalNodes>
          <leafValues>
            1.1054182052612305e-01 -6.8965506553649902e-01</leafValues></_>
        <_>
          <internalNodes>
            0 -1 27 -9.7729921340942383e-02</internalNodes>
          <leafValues>
            -7.5448447465896606e-01 7.3140792548656464e-02</leafValues></_>
        <_>
          <internalNodes>
            0 -1 113 1.1991837993264198e-02</internalNodes>
          <leafValues>
            -2.5116825103759766e-01 2.5079730153083801e-01</leafValues></_>
        <_>
          <internalNodes>
            0 -1 115 -7.0535074919462204e-03</internalNodes>
          <leafValues>
            3.4065952897071838e-01 -2.1218982338905334e-01</leafValues></_>
        <_>
          <internalNodes>
            0 -1 50 -2.3958200472407043e-04</internalNodes>
          <leafValues>
            -4.9405330419540405e-01 1.4826175570487976e-01</leafValues></_>
        <_>
          <internalNodes>
            0 -1 91 -3.6238776519894600e-03</internalNodes>
          <leafValues>
            5.5492097139358521e-01 -1.2080982327461243e-01</leafValues></_>
        <_>
          <internalNodes>
            0 -1 69 7.0261477958410978e-04</internalNodes>
          <leafValues>
            -2.8542199730873108e-01 2.2260895371437073e-01</leafValues></_>
        <_>
          <internalNodes>
            0 -1 90 2.5685429573059082e-03</internalNodes>
          <leafValues>
            -2.3500843346118927e-01 2.8838571906089783e-01</leafValues></_></weakClassifiers></_>
    <!-- stage 8 -->
    <_>
      <maxWeakCount>19</maxWeakCount>
      <stageThreshold>-1.5152901411056519e+00</stageThreshold>
      <weakClassifiers>
        <_>
          <internalNodes>
            0 -1 8 -6.9276764988899231e-02</internalNodes>
          <leafValues>
            1.1310190707445145e-01 -5.3704649209976196e-01</leafValues></_>
        <_>
          <internalNodes>
            0 -1 129 -1.2208787957206368e-03</internalNodes>
          <leafValues>
            -5.0025701522827148e-01 1.3745264708995819e-01</leafValues></_>
        <_>
          <internalNodes>
            0 -1 49 -5.9059244813397527e-04</internalNodes>
          <leafValues>
            1.8894970417022705e-01 -4.2613694071769714e-01</leafValues></_>
        <_>
          <internalNodes>
            0 -1 41 2.0880267024040222e-02</internalNodes>
          <leafValues>
            -1.3892406225204468e-01 5.4163920879364014e-01</leafValues></_>
        <_>
          <internalNodes>
            0 -1 21 -5.8242082595825195e-02</internalNodes>
          <leafValues>
            4.0128162503242493e-01 -2.7596050500869751e-01</leafValues></_>
        <_>
          <internalNodes>
            0 -1 72 -5.1721115596592426e-04</internalNodes>
          <leafValues>
            -7.4113553762435913e-01 1.2196622043848038e-01</leafValues></_>
        <_>
          <internalNodes>
            0 -1 114 4.2387940920889378e-03</internalNodes>
          <leafValues>
            -2.3619787395000458e-01 3.4541475772857666e-01</leafValues></_>
        <_>
          <internalNodes>
            0 -1 77 3.1969028059393167e-03</internalNodes>
          <leafValues>
            -1.0489641875028610e-01 6.2847006320953369e-01</leafValues></_>
        <_>
          <internalNodes>
            0 -1 136 -5.8150937547907233e-04</internalNodes>
          <leafValues>
            -5.7435381412506104e-01 1.2743546068668365e-01</leafValues></_>
        <_>
          <internalNodes>
            0 -1 26 -1.6643537674099207e-03</internalNodes>
          <leafValues>
            -6.3182646036148071e-01 9.5539376139640808e-02</leafValues></_>
        <_>
          <internalNodes>
            0 -1 13 5.6362994015216827e-02</internalNodes>
          <leafValues>
            -1.2050615251064301e-01 5.8167815208435059e-01</leafValues></_>
        <_>
          <internalNodes>
            0 -1 132 -1.4407257549464703e-04</internalNodes>
          <leafValues>
            -5.2262204885482788e-01 1.3265779614448547e-01</leafValues></_>
        <_>
          <internalNodes>
            0 -1 3 -6.0658203437924385e-03</internalNodes>
          <leafValues>
            3.2547891139984131e-01 -2.0495878159999847e-01</leafValues></_>
        <_>
          <internalNodes>
            0 -1 1 -3.9087377488613129e-02</internalNodes>
          <leafValues>
            -7.4203330278396606e-01 6.0923937708139420e-02</leafValues></_>
        <_>
          <internalNodes>
            0 -1 110 -3.0719491187483072e-03</internalNodes>
          <leafValues>
            5.3480988740921021e-01 -1.1967021226882935e-01</leafValues></_>
        <_>
          <internalNodes>
            0 -1 87 -8.4707571659237146e-04</internalNodes>
          <leafValues>
            -6.2203139066696167e-01 1.1005149781703949e-01</leafValues></_>
        <_>
          <internalNodes>
            0 -1 46 -6.2190271914005280e-02</internalNodes>
          <leafValues>
            -7.0692759752273560e-01 6.1479691416025162e-02</leafValues></_>
        <_>
          <internalNodes>
            0 -1 107 2.9534599743783474e-03</internalNodes>
          <leafValues>
            8.9093931019306183e-02 -5.8047825098037720e-01</leafValues></_>
        <_>
          <internalNodes>
            0 -1 128 3.5195448435842991e-03</internalNodes>
          <leafValues>
            -2.8759333491325378e-01 2.4525591731071472e-01</leafValues></_></weakClassifiers></_>
    <!-- stage 9 -->
    <_>
      <maxWeakCount>25</maxWeakCount>
      <stageThreshold>-1.3121637105941772e+00</stageThreshold>
      <weakClassifiers>
        <_>
          <internalNodes>
            0 -1 17 -1.2599997222423553e-02</internalNodes>
          <leafValues>
            -4.8961423337459564e-02 -5.8854860067367554e-01</leafValues></_>
        <_>
          <internalNodes>
            0 -1 116 -4.6763294376432896e-03</internalNodes>
          <leafValues>
            -1.9155527651309967e-01 4.3967738747596741e-01</leafValues></_>
        <_>
          <internalNodes>
            0 -1 94 2.2051134146749973e-03</internalNodes>
          <leafValues>
            -1.8780857324600220e-01 3.1430405378341675e-01</leafValues></_>
        <_>
          <internalNodes>
            0 -1 57 4.2502708733081818e-02</internalNodes>
          <leafValues>
            -7.9732790589332581e-02 6.7201614379882813e-01</leafValues></_>
        <_>
          <internalNodes>
            0 -1 119 5.2531741559505463e-02</internalNodes>
          <leafValues>
            -1.9983091950416565e-01 3.2223322987556458e-01</leafValues></_>
        <_>
          <internalNodes>
            0 -1 123 -4.9931788817048073e-03</internalNodes>
          <leafValues>
            3.9538741111755371e-01 -1.4403960108757019e-01</leafValues></_>
        <_>
          <internalNodes>
            0 -1 23 -2.0390530116856098e-03</internalNodes>
          <leafValues>
            2.4787980318069458e-01 -3.1497201323509216e-01</leafValues></_>
        <_>
          <internalNodes>
            0 -1 125 1.2553123524412513e-03</internalNodes>
          <leafValues>
            -3.0999311804771423e-01 1.8111838400363922e-01</leafValues></_>
        <_>
          <internalNodes>
            0 -1 86 -3.9038056274875998e-04</internalNodes>
          <leafValues>
            -5.2372604608535767e-01 1.1394519358873367e-01</leafValues></_>
        <_>
          <internalNodes>
            0 -1 53 3.2051256857812405e-03</internalNodes>
          <leafValues>
            -2.2973956167697906e-01 2.5691622495651245e-01</leafValues></_>
        <_>
          <internalNodes>
            0 -1 71 2.3859245993662626e-04</internalNodes>
          <leafValues>
            1.2612681090831757e-01 -4.2607694864273071e-01</leafValues></_>
        <_>
          <internalNodes>
            0 -1 66 -1.7353077419102192e-03</internalNodes>
          <leafValues>
            5.4789972305297852e-01 -1.1074309796094894e-01</leafValues></_>
        <_>
          <internalNodes>
            0 -1 109 5.5710293352603912e-02</internalNodes>
          <leafValues>
            7.9413950443267822e-02 -7.5289994478225708e-01</leafValues></_>
        <_>
          <internalNodes>
            0 -1 45 -1.0230218991637230e-02</internalNodes>
          <leafValues>
            5.0276750326156616e-01 -1.2330020964145660e-01</leafValues></_>
        <_>
          <internalNodes>
            0 -1 40 1.2098605744540691e-02</internalNodes>
          <leafValues>
            -1.4770190417766571e-01 3.7662374973297119e-01</leafValues></_>
        <_>
          <internalNodes>
            0 -1 65 -1.1544469743967056e-03</internalNodes>
          <leafValues>
            -6.2367397546768188e-01 9.2509850859642029e-02</leafValues></_>
        <_>
          <internalNodes>
            0 -1 80 1.0936090257018805e-03</internalNodes>
          <leafValues>
            -1.5435834228992462e-01 3.7625026702880859e-01</leafValues></_>
        <_>
          <internalNodes>
            0 -1 2 2.7782638790085912e-04</internalNodes>
          <leafValues>
            1.1694429814815521e-01 -5.0658237934112549e-01</leafValues></_>
        <_>
          <internalNodes>
            0 -1 12 -1.5384447574615479e-01</internalNodes>
          <leafValues>
            3.5597223043441772e-01 -1.5485644340515137e-01</leafValues></_>
        <_>
          <internalNodes>
            0 -1 38 5.5663555860519409e-02</internalNodes>
          <leafValues>
            -1.5111729502677917e-01 3.9021944999694824e-01</leafValues></_>
        <_>
          <internalNodes>
            0 -1 111 -2.1210409700870514e-01</internalNodes>
          <leafValues>
            -9.6049070358276367e-01 6.0043998062610626e-02</leafValues></_>
        <_>
          <internalNodes>
            0 -1 96 -4.6153506264090538e-03</internalNodes>
          <leafValues>
            2.8479194641113281e-01 -1.8379032611846924e-01</leafValues></_>
        <_>
          <internalNodes>
            0 -1 88 4.8935927450656891e-02</internalNodes>
          <leafValues>
            7.4190601706504822e-02 -7.6846033334732056e-01</leafValues></_>
        <_>
          <internalNodes>
            0 -1 103 4.0777632966637611e-03</internalNodes>
          <leafValues>
            -1.4142601191997528e-01 4.2163741588592529e-01</leafValues></_>
        <_>
          <internalNodes>
            0 -1 137 3.0757574131712317e-04</internalNodes>
          <leafValues>
            1.0660240054130554e-01 -4.7716906666755676e-01</leafValues></_></weakClassifiers></_></stages>
  <features>
    <_>
      <rects>
        <_>
          0 0 4 8 -1.</_>
        <_>
          0 0 2 4 2.</_>
        <_>
          2 4 2 4 2.</_></rects>
      <tilted>0</tilted></_>
    <_>
      <rects>
        <_>
          0 0 16 4 -1.</_>
        <_>
          8 0 8 4 2.</_></rects>
      <tilted>0</tilted></_>
    <_>
      <rects>
        <_>
          0 1 1 2 -1.</_>
        <_>
          0 2 1 1 2.</_></rects>
      <tilted>0</tilted></_>
    <_>
      <rects>
        <_>
          0 1 4 10 -1.</_>
        <_>
          0 1 2 5 2.</_>
        <_>
          2 6 2 5 2.</_></rects>
      <tilted>0</tilted></_>
    <_>
      <rects>
        <_>
          0 1 8 33 -1.</_>
        <_>
          4 1 4 33 2.</_></rects>
      <tilted>0</tilted></_>
    <_>
      <rects>
        <_>
          0 3 4 44 -1.</_>
        <_>
          2 3 2 44 2.</_></rects>
      <tilted>0</tilted></_>
    <_>
      <rects>
        <_>
          0 5 4 6 -1.</_>
        <_>
          2 5 2 6 2.</_></rects>
      <tilted>0</tilted></_>
    <_>
      <rects>
        <_>
          0 5 4 15 -1.</_>
        <_>
          2 5 2 15 2.</_></rects>
      <tilted>0</tilted></_>
    <_>
      <rects>
        <_>
          0 6 4 37 -1.</_>
        <_>
          2 6 2 37 2.</_></rects>
      <tilted>0</tilted></_>
    <_>
      <rects>
        <_>
          0 6 4 43 -1.</_>
        <_>
          2 6 2 43 2.</_></rects>
      <tilted>0</tilted></_>
    <_>
      <rects>
        <_>
          0 7 4 40 -1.</_>
        <_>
          2 7 2 40 2.</_></rects>
      <tilted>0</tilted></_>
    <_>
      <rects>
        <_>
          0 8 4 39 -1.</_>
        <_>
          2 8 2 39 2.</_></rects>
      <tilted>0</tilted></_>
    <_>
      <rects>
        <_>
          0 11 12 38 -1.</_>
        <_>
          6 11 6 38 2.</_></rects>
      <tilted>0</tilted></_>
    <_>
      <rects>
        <_>
          0 13 6 29 -1.</_>
        <_>
          3 13 3 29 2.</_></rects>
      <tilted>0</tilted></_>
    <_>
      <rects>
        <_>
          0 19 4 28 -1.</_>
        <_>
          2 19 2 28 2.</_></rects>
      <tilted>0</tilted></_>
    <_>
      <rects>
        <_>
          0 20 4 3 -1.</_>
        <_>
          0 21 4 1 2.</_></rects>
      <tilted>0</tilted></_>
    <_>
      <rects>
        <_>
          0 28 15 4 -1.</_>
        <_>
          5 28 5 4 2.</_></rects>
      <tilted>0</tilted></_>
    <_>
      <rects>
        <_>
          0 32 4 17 -1.</_>
        <_>
          2 32 2 17 2.</_></rects>
      <tilted>0</tilted></_>
    <_>
      <rects>
        <_>
          0 34 4 12 -1.</_>
        <_>
          2 34 2 12 2.</_></rects>
      <tilted>0</tilted></_>
    <_>
      <rects>
        <_>
          0 35 6 14 -1.</_>
        <_>
          3 35 3 14 2.</_></rects>
      <tilted>0</tilted></_>
    <_>
      <rects>
        <_>
          0 42 14 6 -1.</_>
        <_>
          0 42 7 3 2.</_>
        <_>
          7 45 7 3 2.</_></rects>
      <tilted>0</tilted></_>
    <_>
      <rects>
        <_>
          1 0 15 8 -1.</_>
        <_>
          1 4 15 4 2.</_></rects>
      <tilted>0</tilted></_>
    <_>
      <rects>
        <_>
          1 1 14 2 -1.</_>
        <_>
          1 2 14 1 2.</_></rects>
      <tilted>0</tilted></_>
    <_>
      <rects>
        <_>
          1 2 4 6 -1.</_>
        <_>
          1 5 4 3 2.</_></rects>
      <tilted>0</tilted></_>
    <_>
      <rects>
        <_>
          1 3 4 30 -1.</_>
        <_>
          3 3 2 30 2.</_></rects>
      <tilted>0</tilted></_>
    <_>
      <rects>
        <_>
          1 7 15 2 -1.</_>
        <_>
          6 7 5 2 2.</_></rects>
      <tilted>0</tilted></_>
    <_>
      <rects>
        <_>
          1 10 2 4 -1.</_>
        <_>
          1 12 2 2 2.</_></rects>
      <tilted>0</tilted></_>
    <_>
      <rects>
        <_>
          1 16 7 28 -1.</_>
        <_>
          1 30 7 14 2.</_></rects>
      <tilted>0</tilted></_>
    <_>
      <rects>
        <_>
          1 34 4 14 -1.</_>
        <_>
          3 34 2 14 2.</_></rects>
      <tilted>0</tilted></_>
    <_>
      <rects>
        <_>
          1 45 17 4 -1.</_>
        <_>
          1 47 17 2 2.</_></rects>
      <tilted>0</tilted></_>
    <_>
      <rects>
        <_>
          2 0 12 4 -1.</_>
        <_>
          2 2 12 2 2.</_></rects>
      <tilted>0</tilted></_>
    <_>
      <rects>
        <_>
          2 0 14 4 -1.</_>
        <_>
          2 2 14 2 2.</_></rects>
      <tilted>0</tilted></_>
    <_>
      <rects>
        <_>
          2 0 15 4 -1.</_>
        <_>
          2 2 15 2 2.</_></rects>
      <tilted>0</tilted></_>
    <_>
      <rects>
        <_>
          2 1 2 9 -1.</_>
        <_>
          3 1 1 9 2.</_></rects>
      <tilted>0</tilted></_>
    <_>
      <rects>
        <_>
          2 1 6 13 -1.</_>
        <_>
          5 1 3 13 2.</_></rects>
      <tilted>0</tilted></_>
    <_>
      <rects>
        <_>
          2 1 13 8 -1.</_>
        <_>
          2 5 13 4 2.</_></rects>
      <tilted>0</tilted></_>
    <_>
      <rects>
        <_>
          2 6 14 42 -1.</_>
        <_>
          2 27 14 21 2.</_></rects>
      <tilted>0</tilted></_>
    <_>
      <rects>
        <_>
          2 8 15 2 -1.</_>
        <_>
          7 8 5 2 2.</_></rects>
      <tilted>0</tilted></_>
    <_>
      <rects>
        <_>
          2 16 8 30 -1.</_>
        <_>
          6 16 4 30 2.</_></rects>
      <tilted>0</tilted></_>
    <_>
      <rects>
        <_>
          2 47 12 2 -1.</_>
        <_>
          2 48 12 1 2.</_></rects>
      <tilted>0</tilted></_>
    <_>
      <rects>
        <_>
          3 0 11 4 -1.</_>
        <_>
          3 2 11 2 2.</_></rects>
      <tilted>0</tilted></_>
    <_>
      <rects>
        <_>
          3 0 12 4 -1.</_>
        <_>
          3 2 12 2 2.</_></rects>
      <tilted>0</tilted></_>
    <_>
      <rects>
        <_>
          3 1 3 10 -1.</_>
        <_>
          3 6 3 5 2.</_></rects>
      <tilted>0</tilted></_>
    <_>
      <rects>
        <_>
          3 1 9 4 -1.</_>
        <_>
          3 3 9 2 2.</_></rects>
      <tilted>0</tilted></_>
    <_>
      <rects>
        <_>
          3 1 11 6 -1.</_>
        <_>
          3 4 11 3 2.</_></rects>
      <tilted>0</tilted></_>
    <_>
      <rects>
        <_>
          3 1 13 2 -1.</_>
        <_>
          3 2 13 1 2.</_></rects>
      <tilted>0</tilted></_>
    <_>
      <rects>
        <_>
          3 6 12 26 -1.</_>
        <_>
          3 6 6 13 2.</_>
        <_>
          9 19 6 13 2.</_></rects>
      <tilted>0</tilted></_>
    <_>
      <rects>
        <_>
          3 9 12 8 -1.</_>
        <_>
          3 13 12 4 2.</_></rects>
      <tilted>0</tilted></_>
    <_>
      <rects>
        <_>
          3 15 11 12 -1.</_>
        <_>
          3 21 11 6 2.</_></rects>
      <tilted>0</tilted></_>
    <_>
      <rects>
        <_>
          3 22 6 22 -1.</_>
        <_>
          3 33 6 11 2.</_></rects>
      <tilted>0</tilted></_>
    <_>
      <rects>
        <_>
          3 38 4 2 -1.</_>
        <_>
          3 39 4 1 2.</_></rects>
      <tilted>0</tilted></_>
    <_>
      <rects>
        <_>
          3 40 2 4 -1.</_>
        <_>
          3 42 2 2 2.</_></rects>
      <tilted>0</tilted></_>
    <_>
      <rects>
        <_>
          3 45 3 4 -1.</_>
        <_>
          3 47 3 2 2.</_></rects>
      <tilted>0</tilted></_>
    <_>
      <rects>
        <_>
          3 45 6 4 -1.</_>
        <_>
          3 47 6 2 2.</_></rects>
      <tilted>0</tilted></_>
    <_>
      <rects>
        <_>
          3 45 14 4 -1.</_>
        <_>
          3 47 14 2 2.</_></rects>
      <tilted>0</tilted></_>
    <_>
      <rects>
        <_>
          4 0 12 8 -1.</_>
        <_>
          10 0 6 8 2.</_></rects>
      <tilted>0</tilted></_>
    <_>
      <rects>
        <_>
          4 0 7 2 -1.</_>
        <_>
          4 1 7 1 2.</_></rects>
      <tilted>0</tilted></_>
    <_>
      <rects>
        <_>
          4 0 11 4 -1.</_>
        <_>
          4 2 11 2 2.</_></rects>
      <tilted>0</tilted></_>
    <_>
      <rects>
        <_>
          4 0 12 4 -1.</_>
        <_>
          4 2 12 2 2.</_></rects>
      <tilted>0</tilted></_>
    <_>
      <rects>
        <_>
          4 1 7 8 -1.</_>
        <_>
          4 5 7 4 2.</_></rects>
      <tilted>0</tilted></_>
    <_>
      <rects>
        <_>
          4 17 6 6 -1.</_>
        <_>
          4 20 6 3 2.</_></rects>
      <tilted>0</tilted></_>
    <_>
      <rects>
        <_>
          4 24 6 2 -1.</_>
        <_>
          4 25 6 1 2.</_></rects>
      <tilted>0</tilted></_>
    <_>
      <rects>
        <_>
          4 32 14 1 -1.</_>
        <_>
          11 32 7 1 2.</_></rects>
      <tilted>0</tilted></_>
    <_>
      <rects>
        <_>
          4 35 1 4 -1.</_>
        <_>
          4 37 1 2 2.</_></rects>
      <tilted>0</tilted></_>
    <_>
      <rects>
        <_>
          4 38 3 2 -1.</_>
        <_>
          4 39 3 1 2.</_></rects>
      <tilted>0</tilted></_>
    <_>
      <rects>
        <_>
          4 40 2 4 -1.</_>
        <_>
          4 42 2 2 2.</_></rects>
      <tilted>0</tilted></_>
    <_>
      <rects>
        <_>
          4 46 7 2 -1.</_>
        <_>
          4 47 7 1 2.</_></rects>
      <tilted>0</tilted></_>
    <_>
      <rects>
        <_>
          5 0 7 4 -1.</_>
        <_>
          5 2 7 2 2.</_></rects>
      <tilted>0</tilted></_>
    <_>
      <rects>
        <_>
          5 1 10 4 -1.</_>
        <_>
          5 3 10 2 2.</_></rects>
      <tilted>0</tilted></_>
    <_>
      <rects>
        <_>
          5 9 7 10 -1.</_>
        <_>
          5 14 7 5 2.</_></rects>
      <tilted>0</tilted></_>
    <_>
      <rects>
        <_>
          5 38 2 2 -1.</_>
        <_>
          5 39 2 1 2.</_></rects>
      <tilted>0</tilted></_>
    <_>
      <rects>
        <_>
          5 40 1 4 -1.</_>
        <_>
          5 42 1 2 2.</_></rects>
      <tilted>0</tilted></_>
    <_>
      <rects>
        <_>
          5 41 2 2 -1.</_>
        <_>
          5 42 2 1 2.</_></rects>
      <tilted>0</tilted></_>
    <_>
      <rects>
        <_>
          5 42 2 2 -1.</_>
        <_>
          5 42 1 1 2.</_>
        <_>
          6 43 1 1 2.</_></rects>
      <tilted>0</tilted></_>
    <_>
      <rects>
        <_>
          5 47 11 2 -1.</_>
        <_>
          5 48 11 1 2.</_></rects>
      <tilted>0</tilted></_>
    <_>
      <rects>
        <_>
          6 0 10 6 -1.</_>
        <_>
          6 3 10 3 2.</_></rects>
      <tilted>0</tilted></_>
    <_>
      <rects>
        <_>
          6 0 11 38 -1.</_>
        <_>
          6 19 11 19 2.</_></rects>
      <tilted>0</tilted></_>
    <_>
      <rects>
        <_>
          6 3 9 2 -1.</_>
        <_>
          6 4 9 1 2.</_></rects>
      <tilted>0</tilted></_>
    <_>
      <rects>
        <_>
          6 4 9 44 -1.</_>
        <_>
          6 26 9 22 2.</_></rects>
      <tilted>0</tilted></_>
    <_>
      <rects>
        <_>
          6 21 5 2 -1.</_>
        <_>
          6 22 5 1 2.</_></rects>
      <tilted>0</tilted></_>
    <_>
      <rects>
        <_>
          6 22 4 2 -1.</_>
        <_>
          6 23 4 1 2.</_></rects>
      <tilted>0</tilted></_>
    <_>
      <rects>
        <_>
          6 26 10 18 -1.</_>
        <_>
          6 26 5 9 2.</_>
        <_>
          11 35 5 9 2.</_></rects>
      <tilted>0</tilted></_>
    <_>
      <rects>
        <_>
          6 27 10 16 -1.</_>
        <_>
          6 27 5 8 2.</_>
        <_>
          11 35 5 8 2.</_></rects>
      <tilted>0</tilted></_>
    <_>
      <rects>
        <_>
          6 38 1 4 -1.</_>
        <_>
          6 40 1 2 2.</_></rects>
      <tilted>0</tilted></_>
    <_>
      <rects>
        <_>
          6 38 2 6 -1.</_>
        <_>
          6 41 2 3 2.</_></rects>
      <tilted>0</tilted></_>
    <_>
      <rects>
        <_>
          6 39 1 2 -1.</_>
        <_>
          6 40 1 1 2.</_></rects>
      <tilted>0</tilted></_>
    <_>
      <rects>
        <_>
          7 37 6 2 -1.</_>
        <_>
          7 37 3 1 2.</_>
        <_>
          10 38 3 1 2.</_></rects>
      <tilted>0</tilted></_>
    <_>
      <rects>
        <_>
          7 38 8 2 -1.</_>
        <_>
          7 38 4 1 2.</_>
        <_>
          11 39 4 1 2.</_></rects>
      <tilted>0</tilted></_>
    <_>
      <rects>
        <_>
          8 2 5 44 -1.</_>
        <_>
          8 24 5 22 2.</_></rects>
      <tilted>0</tilted></_>
    <_>
      <rects>
        <_>
          8 5 8 40 -1.</_>
        <_>
          8 25 8 20 2.</_></rects>
      <tilted>0</tilted></_>
    <_>
      <rects>
        <_>
          8 9 4 16 -1.</_>
        <_>
          8 9 2 8 2.</_>
        <_>
          10 17 2 8 2.</_></rects>
      <tilted>0</tilted></_>
    <_>
      <rects>
        <_>
          9 19 2 9 -1.</_>
        <_>
          10 19 1 9 2.</_></rects>
      <tilted>0</tilted></_>
    <_>
      <rects>
        <_>
          9 20 8 18 -1.</_>
        <_>
          9 29 8 9 2.</_></rects>
      <tilted>0</tilted></_>
    <_>
      <rects>
        <_>
          9 40 4 2 -1.</_>
        <_>
          9 41 4 1 2.</_></rects>
      <tilted>0</tilted></_>
    <_>
      <rects>
        <_>
          9 44 8 4 -1.</_>
        <_>
          9 44 4 2 2.</_>
        <_>
          13 46 4 2 2.</_></rects>
      <tilted>0</tilted></_>
    <_>
      <rects>
        <_>
          9 47 7 2 -1.</_>
        <_>
          9 48 7 1 2.</_></rects>
      <tilted>0</tilted></_>
    <_>
      <rects>
        <_>
          10 1 3 4 -1.</_>
        <_>
          10 3 3 2 2.</_></rects>
      <tilted>0</tilted></_>
    <_>
      <rects>
        <_>
          10 2 8 26 -1.</_>
        <_>
          14 2 4 26 2.</_></rects>
      <tilted>0</tilted></_>
    <_>
      <rects>
        <_>
          10 21 8 6 -1.</_>
        <_>
          14 21 4 6 2.</_></rects>
      <tilted>0</tilted></_>
    <_>
      <rects>
        <_>
          10 32 8 17 -1.</_>
        <_>
          14 32 4 17 2.</_></rects>
      <tilted>0</tilted></_>
    <_>
      <rects>
        <_>
          10 36 2 6 -1.</_>
        <_>
          10 39 2 3 2.</_></rects>
      <tilted>0</tilted></_>
    <_>
      <rects>
        <_>
          11 2 6 6 -1.</_>
        <_>
          11 5 6 3 2.</_></rects>
      <tilted>0</tilted></_>
    <_>
      <rects>
        <_>
          11 3 6 26 -1.</_>
        <_>
          14 3 3 26 2.</_></rects>
      <tilted>0</tilted></_>
    <_>
      <rects>
        <_>
          11 15 2 13 -1.</_>
        <_>
          12 15 1 13 2.</_></rects>
      <tilted>0</tilted></_>
    <_>
      <rects>
        <_>
          11 18 4 20 -1.</_>
        <_>
          11 28 4 10 2.</_></rects>
      <tilted>0</tilted></_>
    <_>
      <rects>
        <_>
          11 19 4 18 -1.</_>
        <_>
          11 28 4 9 2.</_></rects>
      <tilted>0</tilted></_>
    <_>
      <rects>
        <_>
          11 43 6 6 -1.</_>
        <_>
          11 43 3 3 2.</_>
        <_>
          14 46 3 3 2.</_></rects>
      <tilted>0</tilted></_>
    <_>
      <rects>
        <_>
          12 0 6 1 -1.</_>
        <_>
          15 0 3 1 2.</_></rects>
      <tilted>0</tilted></_>
    <_>
      <rects>
        <_>
          12 2 6 6 -1.</_>
        <_>
          15 2 3 6 2.</_></rects>
      <tilted>0</tilted></_>
    <_>
      <rects>
        <_>
          12 5 5 20 -1.</_>
        <_>
          12 15 5 10 2.</_></rects>
      <tilted>0</tilted></_>
    <_>
      <rects>
        <_>
          12 18 2 8 -1.</_>
        <_>
          12 18 1 4 2.</_>
        <_>
          13 22 1 4 2.</_></rects>
      <tilted>0</tilted></_>
    <_>
      <rects>
        <_>
          12 24 6 13 -1.</_>
        <_>
          14 24 2 13 2.</_></rects>
      <tilted>0</tilted></_>
    <_>
      <rects>
        <_>
          12 39 3 2 -1.</_>
        <_>
          12 40 3 1 2.</_></rects>
      <tilted>0</tilted></_>
    <_>
      <rects>
        <_>
          12 39 6 10 -1.</_>
        <_>
          15 39 3 10 2.</_></rects>
      <tilted>0</tilted></_>
    <_>
      <rects>
        <_>
          12 45 4 4 -1.</_>
        <_>
          12 47 4 2 2.</_></rects>
      <tilted>0</tilted></_>
    <_>
      <rects>
        <_>
          13 1 4 13 -1.</_>
        <_>
          15 1 2 13 2.</_></rects>
      <tilted>0</tilted></_>
    <_>
      <rects>
        <_>
          13 10 1 27 -1.</_>
        <_>
          13 19 1 9 2.</_></rects>
      <tilted>0</tilted></_>
    <_>
      <rects>
        <_>
          13 11 3 10 -1.</_>
        <_>
          13 16 3 5 2.</_></rects>
      <tilted>0</tilted></_>
    <_>
      <rects>
        <_>
          13 32 3 3 -1.</_>
        <_>
          13 33 3 1 2.</_></rects>
      <tilted>0</tilted></_>
    <_>
      <rects>
        <_>
          14 3 4 38 -1.</_>
        <_>
          16 3 2 38 2.</_></rects>
      <tilted>0</tilted></_>
    <_>
      <rects>
        <_>
          14 5 4 7 -1.</_>
        <_>
          16 5 2 7 2.</_></rects>
      <tilted>0</tilted></_>
    <_>
      <rects>
        <_>
          14 5 4 29 -1.</_>
        <_>
          16 5 2 29 2.</_></rects>
      <tilted>0</tilted></_>
    <_>
      <rects>
        <_>
          14 6 4 42 -1.</_>
        <_>
          16 6 2 42 2.</_></rects>
      <tilted>0</tilted></_>
    <_>
      <rects>
        <_>
          14 10 2 24 -1.</_>
        <_>
          15 10 1 24 2.</_></rects>
      <tilted>0</tilted></_>
    <_>
      <rects>
        <_>
          14 10 4 38 -1.</_>
        <_>
          16 10 2 38 2.</_></rects>
      <tilted>0</tilted></_>
    <_>
      <rects>
        <_>
          14 17 4 14 -1.</_>
        <_>
          14 17 2 7 2.</_>
        <_>
          16 24 2 7 2.</_></rects>
      <tilted>0</tilted></_>
    <_>
      <rects>
        <_>
          14 19 2 12 -1.</_>
        <_>
          14 25 2 6 2.</_></rects>
      <tilted>0</tilted></_>
    <_>
      <rects>
        <_>
          14 27 4 22 -1.</_>
        <_>
          16 27 2 22 2.</_></rects>
      <tilted>0</tilted></_>
    <_>
      <rects>
        <_>
          14 28 4 4 -1.</_>
        <_>
          16 28 2 4 2.</_></rects>
      <tilted>0</tilted></_>
    <_>
      <rects>
        <_>
          14 28 2 14 -1.</_>
        <_>
          14 35 2 7 2.</_></rects>
      <tilted>0</tilted></_>
    <_>
      <rects>
        <_>
          14 28 4 8 -1.</_>
        <_>
          16 28 2 8 2.</_></rects>
      <tilted>0</tilted></_>
    <_>
      <rects>
        <_>
          14 28 4 19 -1.</_>
        <_>
          16 28 2 19 2.</_></rects>
      <tilted>0</tilted></_>
    <_>
      <rects>
        <_>
          14 36 1 2 -1.</_>
        <_>
          14 37 1 1 2.</_></rects>
      <tilted>0</tilted></_>
    <_>
      <rects>
        <_>
          14 38 1 2 -1.</_>
        <_>
          14 39 1 1 2.</_></rects>
      <tilted>0</tilted></_>
    <_>
      <rects>
        <_>
          15 6 2 32 -1.</_>
        <_>
          16 6 1 32 2.</_></rects>
      <tilted>0</tilted></_>
    <_>
      <rects>
        <_>
          15 17 2 7 -1.</_>
        <_>
          16 17 1 7 2.</_></rects>
      <tilted>0</tilted></_>
    <_>
      <rects>
        <_>
          16 45 2 3 -1.</_>
        <_>
          17 45 1 3 2.</_></rects>
      <tilted>0</tilted></_>
    <_>
      <rects>
        <_>
          17 0 1 2 -1.</_>
        <_>
          17 1 1 1 2.</_></rects>
      <tilted>0</tilted></_></features></cascade>
</opencv_storage>
