<?xml version="1.0"?>
<opencv_storage>
<stage10>
  <maxWeakCount>29</maxWeakCount>
  <stageThreshold>-1.4831548929214478e+00</stageThreshold>
  <weakClassifiers>
    <_>
      <internalNodes>
        0 -1 375956 5.2626989781856537e-02</internalNodes>
      <leafValues>
        -1.5824468433856964e-01 9.5150500535964966e-01</leafValues></_>
    <_>
      <internalNodes>
        0 -1 378500 -1.0337692685425282e-02</internalNodes>
      <leafValues>
        9.7225880622863770e-01 -2.8667088598012924e-02</leafValues></_>
    <_>
      <internalNodes>
        0 -1 152004 -1.9888237118721008e-02</internalNodes>
      <leafValues>
        3.5393849015235901e-01 -2.8058177232742310e-01</leafValues></_>
    <_>
      <internalNodes>
        0 -1 367549 3.3547105267643929e-03</internalNodes>
      <leafValues>
        -2.9496762156486511e-01 2.7599084377288818e-01</leafValues></_>
    <_>
      <internalNodes>
        0 -1 304443 -7.5301341712474823e-03</internalNodes>
      <leafValues>
        4.5297440886497498e-01 -1.7747436463832855e-01</leafValues></_>
    <_>
      <internalNodes>
        0 -1 378946 -2.4836980737745762e-03</internalNodes>
      <leafValues>
        -5.2101665735244751e-01 1.7765951156616211e-01</leafValues></_>
    <_>
      <internalNodes>
        0 -1 36431 -1.6538716852664948e-02</internalNodes>
      <leafValues>
        -5.7180184125900269e-01 1.9065725803375244e-01</leafValues></_>
    <_>
      <internalNodes>
        0 -1 77053 -6.8057159660384059e-04</internalNodes>
      <leafValues>
        -6.7475348711013794e-01 1.1699572205543518e-01</leafValues></_>
    <_>
      <internalNodes>
        0 -1 350335 1.1279740137979388e-03</internalNodes>
      <leafValues>
        -2.8887104988098145e-01 3.5998684167861938e-01</leafValues></_>
    <_>
      <internalNodes>
        0 -1 321598 4.4455071911215782e-03</internalNodes>
      <leafValues>
        -9.5606423914432526e-02 5.7258784770965576e-01</leafValues></_>
    <_>
      <internalNodes>
        0 -1 39171 -1.1840148828923702e-02</internalNodes>
      <leafValues>
        3.1668940186500549e-01 -3.2301747798919678e-01</leafValues></_>
    <_>
      <internalNodes>
        0 -1 98994 1.3743882998824120e-02</internalNodes>
      <leafValues>
        -1.3343749940395355e-01 4.6821671724319458e-01</leafValues></_>
    <_>
      <internalNodes>
        0 -1 252249 -7.6058609411120415e-03</internalNodes>
      <leafValues>
        4.3830960988998413e-01 -1.9358243048191071e-01</leafValues></_>
    <_>
      <internalNodes>
        0 -1 335833 -2.9393550357781351e-04</internalNodes>
      <leafValues>
        -5.3814351558685303e-01 1.1055456846952438e-01</leafValues></_>
    <_>
      <internalNodes>
        0 -1 145414 -5.2777091041207314e-03</internalNodes>
      <leafValues>
        4.0447461605072021e-01 -1.9370657205581665e-01</leafValues></_>
    <_>
      <internalNodes>
        0 -1 374318 -8.9136621681973338e-04</internalNodes>
      <leafValues>
        -6.8691337108612061e-01 1.1210594326257706e-01</leafValues></_>
    <_>
      <internalNodes>
        0 -1 14236 6.7986451089382172e-02</internalNodes>
      <leafValues>
        -1.1660466343164444e-01 6.4265781641006470e-01</leafValues></_>
    <_>
      <internalNodes>
        0 -1 9773 -4.1333459317684174e-02</internalNodes>
      <leafValues>
        4.4241297245025635e-01 -1.6578273475170135e-01</leafValues></_>
    <_>
      <internalNodes>
        0 -1 351225 -1.1532204225659370e-03</internalNodes>
      <leafValues>
        3.1273007392883301e-01 -2.8228351473808289e-01</leafValues></_>
    <_>
      <internalNodes>
        0 -1 375135 -6.2839320162311196e-04</internalNodes>
      <leafValues>
        -6.0440671443939209e-01 9.6063718199729919e-02</leafValues></_>
    <_>
      <internalNodes>
        0 -1 233705 -1.5564467757940292e-03</internalNodes>
      <leafValues>
        4.5626682043075562e-01 -1.5429547429084778e-01</leafValues></_>
    <_>
      <internalNodes>
        0 -1 260170 -2.7793273329734802e-04</internalNodes>
      <leafValues>
        -7.4675369262695313e-01 9.4196289777755737e-02</leafValues></_>
    <_>
      <internalNodes>
        0 -1 82160 7.7469891402870417e-04</internalNodes>
      <leafValues>
        -2.1090404689311981e-01 3.1835684180259705e-01</leafValues></_>
    <_>
      <internalNodes>
        0 -1 171825 -3.7120324559509754e-03</internalNodes>
      <leafValues>
        3.4363317489624023e-01 -1.9755488634109497e-01</leafValues></_>
    <_>
      <internalNodes>
        0 -1 27982 2.5847181677818298e-04</internalNodes>
      <leafValues>
        1.2777622044086456e-01 -5.6306254863739014e-01</leafValues></_>
    <_>
      <internalNodes>
        0 -1 124087 -6.7826315760612488e-02</internalNodes>
      <leafValues>
        -5.8602410554885864e-01 9.3940123915672302e-02</leafValues></_>
    <_>
      <internalNodes>
        0 -1 40666 -6.0936913359910250e-04</internalNodes>
      <leafValues>
        2.1310266852378845e-01 -2.9760637879371643e-01</leafValues></_>
    <_>
      <internalNodes>
        0 -1 19913 -1.6010570526123047e-01</internalNodes>
      <leafValues>
        4.4649207592010498e-01 -1.5965294837951660e-01</leafValues></_>
    <_>
      <internalNodes>
        0 -1 20481 1.4276166912168264e-03</internalNodes>
      <leafValues>
        1.6043470799922943e-01 -4.4742965698242188e-01</leafValues></_></weakClassifiers></stage10>
</opencv_storage>
