<?xml version="1.0"?>
<opencv_storage>
<stage8>
  <maxWeakCount>11</maxWeakCount>
  <stageThreshold>-5.3644168376922607e-01</stageThreshold>
  <weakClassifiers>
    <_>
      <internalNodes>
        0 -1 532336 3.6086209118366241e-02</internalNodes>
      <leafValues>
        -2.9850745573639870e-02 7.3553717136383057e-01</leafValues></_>
    <_>
      <internalNodes>
        0 -1 49781 -1.3508786447346210e-02</internalNodes>
      <leafValues>
        5.0156003236770630e-01 -2.4937726557254791e-01</leafValues></_>
    <_>
      <internalNodes>
        0 -1 367831 1.7755150794982910e-02</internalNodes>
      <leafValues>
        -1.3582718372344971e-01 8.9829576015472412e-01</leafValues></_>
    <_>
      <internalNodes>
        0 -1 1982 -5.2657730877399445e-02</internalNodes>
      <leafValues>
        4.2972090840339661e-01 -3.7294828891754150e-01</leafValues></_>
    <_>
      <internalNodes>
        0 -1 531764 -1.4403240755200386e-02</internalNodes>
      <leafValues>
        6.7152357101440430e-01 -1.8295499682426453e-01</leafValues></_>
    <_>
      <internalNodes>
        0 -1 329032 -2.5813520187512040e-04</internalNodes>
      <leafValues>
        -6.1386716365814209e-01 2.0816060900688171e-01</leafValues></_>
    <_>
      <internalNodes>
        0 -1 488163 -4.2479904368519783e-03</internalNodes>
      <leafValues>
        4.9344772100448608e-01 -2.9780390858650208e-01</leafValues></_>
    <_>
      <internalNodes>
        0 -1 285349 2.0257537835277617e-04</internalNodes>
      <leafValues>
        2.1016888320446014e-01 -5.2828580141067505e-01</leafValues></_>
    <_>
      <internalNodes>
        0 -1 158691 -1.7908436711877584e-03</internalNodes>
      <leafValues>
        4.5509165525436401e-01 -2.5348031520843506e-01</leafValues></_>
    <_>
      <internalNodes>
        0 -1 123754 -1.7352900467813015e-03</internalNodes>
      <leafValues>
        -4.9007937312126160e-01 2.4096885323524475e-01</leafValues></_>
    <_>
      <internalNodes>
        0 -1 45880 -7.7281624078750610e-02</internalNodes>
      <leafValues>
        -3.8695159554481506e-01 3.2650265097618103e-01</leafValues></_></weakClassifiers></stage8>
</opencv_storage>
