<?xml version="1.0"?>
<opencv_storage>
<stage1>
  <maxWeakCount>5</maxWeakCount>
  <stageThreshold>-2.3221330344676971e-01</stageThreshold>
  <weakClassifiers>
    <_>
      <internalNodes>
        0 -1 50262 -2.5546826422214508e-02</internalNodes>
      <leafValues>
        8.3804142475128174e-01 -2.3206751048564911e-01</leafValues></_>
    <_>
      <internalNodes>
        0 -1 142096 -1.3347413390874863e-02</internalNodes>
      <leafValues>
        5.4919606447219849e-01 -5.4386824369430542e-01</leafValues></_>
    <_>
      <internalNodes>
        0 -1 11952 -1.9804852083325386e-02</internalNodes>
      <leafValues>
        7.3234087228775024e-01 -3.2753700017929077e-01</leafValues></_>
    <_>
      <internalNodes>
        0 -1 151382 -1.7859656363725662e-02</internalNodes>
      <leafValues>
        -9.6544408798217773e-01 2.6286768913269043e-01</leafValues></_>
    <_>
      <internalNodes>
        0 -1 107348 1.4340047724545002e-02</internalNodes>
      <leafValues>
        -2.9328325390815735e-01 9.6325093507766724e-01</leafValues></_></weakClassifiers></stage1>
</opencv_storage>
