<?xml version="1.0"?>
<opencv_storage>
<stage8>
  <maxWeakCount>9</maxWeakCount>
  <stageThreshold>-6.6899555921554565e-01</stageThreshold>
  <weakClassifiers>
    <_>
      <internalNodes>
        0 -1 102057 2.5178495794534683e-02</internalNodes>
      <leafValues>
        5.3061223030090332e-01 -5.4545456171035767e-01</leafValues></_>
    <_>
      <internalNodes>
        0 -1 811209 9.9017480388283730e-03</internalNodes>
      <leafValues>
        -2.9048889875411987e-01 6.9024890661239624e-01</leafValues></_>
    <_>
      <internalNodes>
        0 -1 607857 -8.9900586754083633e-03</internalNodes>
      <leafValues>
        3.4132015705108643e-01 -4.2965722084045410e-01</leafValues></_>
    <_>
      <internalNodes>
        0 -1 449894 1.6398611478507519e-04</internalNodes>
      <leafValues>
        1.7745986580848694e-01 -7.1353745460510254e-01</leafValues></_>
    <_>
      <internalNodes>
        0 -1 71256 -6.6057336516678333e-03</internalNodes>
      <leafValues>
        3.3994412422180176e-01 -3.8295009732246399e-01</leafValues></_>
    <_>
      <internalNodes>
        0 -1 816673 -3.3784124534577131e-03</internalNodes>
      <leafValues>
        6.5036427974700928e-01 -2.3476345837116241e-01</leafValues></_>
    <_>
      <internalNodes>
        0 -1 133905 -1.0935666039586067e-02</internalNodes>
      <leafValues>
        5.1420056819915771e-01 -2.8020924329757690e-01</leafValues></_>
    <_>
      <internalNodes>
        0 -1 795536 7.5717602157965302e-04</internalNodes>
      <leafValues>
        2.0593696832656860e-01 -6.8448179960250854e-01</leafValues></_>
    <_>
      <internalNodes>
        0 -1 522230 3.7669637240469456e-03</internalNodes>
      <leafValues>
        -5.9182101488113403e-01 1.9756999611854553e-01</leafValues></_></weakClassifiers></stage8>
</opencv_storage>
