<?xml version="1.0"?>
<opencv_storage>
<stage8>
  <maxWeakCount>11</maxWeakCount>
  <stageThreshold>-1.1184082031250000e+00</stageThreshold>
  <weakClassifiers>
    <_>
      <internalNodes>
        0 -1 152611 6.2755703926086426e-02</internalNodes>
      <leafValues>
        -2.8368793427944183e-02 7.9591834545135498e-01</leafValues></_>
    <_>
      <internalNodes>
        0 -1 139223 7.5564486905932426e-03</internalNodes>
      <leafValues>
        -1.3871051371097565e-01 6.7139375209808350e-01</leafValues></_>
    <_>
      <internalNodes>
        0 -1 169 -7.1813296526670456e-03</internalNodes>
      <leafValues>
        5.5519258975982666e-01 -2.3097138106822968e-01</leafValues></_>
    <_>
      <internalNodes>
        0 -1 156706 -2.8536729514598846e-03</internalNodes>
      <leafValues>
        6.8461477756500244e-01 -2.3061925172805786e-01</leafValues></_>
    <_>
      <internalNodes>
        0 -1 50180 1.1264515109360218e-02</internalNodes>
      <leafValues>
        -1.9949346780776978e-01 6.3770735263824463e-01</leafValues></_>
    <_>
      <internalNodes>
        0 -1 137730 -9.6630016341805458e-03</internalNodes>
      <leafValues>
        5.1379334926605225e-01 -2.2053040564060211e-01</leafValues></_>
    <_>
      <internalNodes>
        0 -1 26710 -7.2582215070724487e-02</internalNodes>
      <leafValues>
        5.0694698095321655e-01 -2.6272279024124146e-01</leafValues></_>
    <_>
      <internalNodes>
        0 -1 139120 -6.8844812922179699e-03</internalNodes>
      <leafValues>
        7.2012370824813843e-01 -1.6419708728790283e-01</leafValues></_>
    <_>
      <internalNodes>
        0 -1 111479 2.1129925735294819e-03</internalNodes>
      <leafValues>
        -1.3206209242343903e-01 7.7269381284713745e-01</leafValues></_>
    <_>
      <internalNodes>
        0 -1 4206 -4.5519456267356873e-02</internalNodes>
      <leafValues>
        6.2180930376052856e-01 -1.8410903215408325e-01</leafValues></_>
    <_>
      <internalNodes>
        0 -1 76326 -4.6245078556239605e-04</internalNodes>
      <leafValues>
        4.7523316740989685e-01 -2.4185736477375031e-01</leafValues></_></weakClassifiers></stage8>
</opencv_storage>
