<?xml version="1.0"?>
<opencv_storage>
<stage4>
  <maxWeakCount>13</maxWeakCount>
  <stageThreshold>-1.8974758386611938e+00</stageThreshold>
  <weakClassifiers>
    <_>
      <internalNodes>
        0 -1 150830 -5.1363851875066757e-02</internalNodes>
      <leafValues>
        8.4359604120254517e-01 -4.3680298328399658e-01</leafValues></_>
    <_>
      <internalNodes>
        0 -1 292 -4.0516577661037445e-02</internalNodes>
      <leafValues>
        7.7320295572280884e-01 -3.2761475443840027e-01</leafValues></_>
    <_>
      <internalNodes>
        0 -1 43800 1.3814881443977356e-02</internalNodes>
      <leafValues>
        -3.8669660687446594e-01 6.4334708452224731e-01</leafValues></_>
    <_>
      <internalNodes>
        0 -1 349080 -1.8915678374469280e-03</internalNodes>
      <leafValues>
        -6.4680445194244385e-01 2.4821972846984863e-01</leafValues></_>
    <_>
      <internalNodes>
        0 -1 122268 2.7100391685962677e-02</internalNodes>
      <leafValues>
        2.2446365654468536e-01 -5.3338950872421265e-01</leafValues></_>
    <_>
      <internalNodes>
        0 -1 211924 1.0025719180703163e-02</internalNodes>
      <leafValues>
        -2.1838839352130890e-01 7.3087251186370850e-01</leafValues></_>
    <_>
      <internalNodes>
        0 -1 37298 -2.7624467387795448e-02</internalNodes>
      <leafValues>
        5.4535192251205444e-01 -2.6289236545562744e-01</leafValues></_>
    <_>
      <internalNodes>
        0 -1 180547 -4.6774244401603937e-04</internalNodes>
      <leafValues>
        -6.6842770576477051e-01 2.4502657353878021e-01</leafValues></_>
    <_>
      <internalNodes>
        0 -1 115142 1.0837852023541927e-03</internalNodes>
      <leafValues>
        1.3329488039016724e-01 -7.4153292179107666e-01</leafValues></_>
    <_>
      <internalNodes>
        0 -1 187499 -9.8565578460693359e-02</internalNodes>
      <leafValues>
        5.8594572544097900e-01 -2.3339341580867767e-01</leafValues></_>
    <_>
      <internalNodes>
        0 -1 115668 1.6062274575233459e-02</internalNodes>
      <leafValues>
        -2.1625088155269623e-01 5.8947771787643433e-01</leafValues></_>
    <_>
      <internalNodes>
        0 -1 50403 1.4707254013046622e-03</internalNodes>
      <leafValues>
        2.0372802019119263e-01 -7.3066854476928711e-01</leafValues></_>
    <_>
      <internalNodes>
        0 -1 268681 9.3372343108057976e-03</internalNodes>
      <leafValues>
        -2.6753193140029907e-01 5.4046571254730225e-01</leafValues></_></weakClassifiers></stage4>
</opencv_storage>
