<?xml version="1.0"?>
<opencv_storage>
<stage4>
  <maxWeakCount>7</maxWeakCount>
  <stageThreshold>-5.9901475906372070e-01</stageThreshold>
  <weakClassifiers>
    <_>
      <internalNodes>
        0 -1 3331 -4.6602845191955566e-02</internalNodes>
      <leafValues>
        8.5031187534332275e-01 -1.4122137427330017e-01</leafValues></_>
    <_>
      <internalNodes>
        0 -1 144069 -6.0176230967044830e-02</internalNodes>
      <leafValues>
        -9.1179388761520386e-01 3.3717238903045654e-01</leafValues></_>
    <_>
      <internalNodes>
        0 -1 159261 2.7390601113438606e-02</internalNodes>
      <leafValues>
        -3.0579409003257751e-01 7.1603059768676758e-01</leafValues></_>
    <_>
      <internalNodes>
        0 -1 50180 1.0726551525294781e-02</internalNodes>
      <leafValues>
        -2.1308550238609314e-01 8.8367325067520142e-01</leafValues></_>
    <_>
      <internalNodes>
        0 -1 50220 -1.0211127810180187e-02</internalNodes>
      <leafValues>
        7.5861686468124390e-01 -2.8118380904197693e-01</leafValues></_>
    <_>
      <internalNodes>
        0 -1 57178 3.4556030295789242e-03</internalNodes>
      <leafValues>
        -2.5128552317619324e-01 5.8596903085708618e-01</leafValues></_>
    <_>
      <internalNodes>
        0 -1 42881 7.0241868495941162e-02</internalNodes>
      <leafValues>
        2.5638315081596375e-01 -8.7340438365936279e-01</leafValues></_></weakClassifiers></stage4>
</opencv_storage>
