<?xml version="1.0"?>
<opencv_storage>
<stage9>
  <maxWeakCount>11</maxWeakCount>
  <stageThreshold>-6.8548452854156494e-01</stageThreshold>
  <weakClassifiers>
    <_>
      <internalNodes>
        0 -1 780481 2.5640897452831268e-02</internalNodes>
      <leafValues>
        -3.1185030937194824e-02 6.9937372207641602e-01</leafValues></_>
    <_>
      <internalNodes>
        0 -1 82380 -1.7375787720084190e-02</internalNodes>
      <leafValues>
        6.0201209783554077e-01 -1.9088183343410492e-01</leafValues></_>
    <_>
      <internalNodes>
        0 -1 267226 1.8178569735027850e-04</internalNodes>
      <leafValues>
        1.7109751701354980e-01 -7.9790961742401123e-01</leafValues></_>
    <_>
      <internalNodes>
        0 -1 146694 -7.2839381173253059e-03</internalNodes>
      <leafValues>
        2.9056325554847717e-01 -3.8828045129776001e-01</leafValues></_>
    <_>
      <internalNodes>
        0 -1 5841 1.9730955362319946e-02</internalNodes>
      <leafValues>
        -2.0523712038993835e-01 7.0081239938735962e-01</leafValues></_>
    <_>
      <internalNodes>
        0 -1 503255 -8.2945502072107047e-05</internalNodes>
      <leafValues>
        -7.6763862371444702e-01 2.2079342603683472e-01</leafValues></_>
    <_>
      <internalNodes>
        0 -1 292716 -1.9620694220066071e-03</internalNodes>
      <leafValues>
        -5.6278896331787109e-01 1.7360348999500275e-01</leafValues></_>
    <_>
      <internalNodes>
        0 -1 425327 -2.1589430980384350e-03</internalNodes>
      <leafValues>
        4.3213036656379700e-01 -2.8877693414688110e-01</leafValues></_>
    <_>
      <internalNodes>
        0 -1 451070 -1.2956939463037997e-04</internalNodes>
      <leafValues>
        -7.9717659950256348e-01 1.7776092886924744e-01</leafValues></_>
    <_>
      <internalNodes>
        0 -1 17853 -4.5493277721107006e-03</internalNodes>
      <leafValues>
        3.3389213681221008e-01 -3.1310290098190308e-01</leafValues></_>
    <_>
      <internalNodes>
        0 -1 83179 1.3819674029946327e-02</internalNodes>
      <leafValues>
        1.2865567207336426e-01 -6.6272521018981934e-01</leafValues></_></weakClassifiers></stage9>
</opencv_storage>
