<?xml version="1.0"?>
<opencv_storage>
<stage11>
  <maxWeakCount>24</maxWeakCount>
  <stageThreshold>-1.1546310186386108e+00</stageThreshold>
  <weakClassifiers>
    <_>
      <internalNodes>
        0 -1 212288 -6.0972822830080986e-03</internalNodes>
      <leafValues>
        9.5470380783081055e-01 -1.2628865242004395e-01</leafValues></_>
    <_>
      <internalNodes>
        0 -1 348260 -2.5040887296199799e-02</internalNodes>
      <leafValues>
        8.0092293024063110e-01 -7.7081628143787384e-02</leafValues></_>
    <_>
      <internalNodes>
        0 -1 314130 8.2720804493874311e-04</internalNodes>
      <leafValues>
        -1.4030899107456207e-01 5.9779471158981323e-01</leafValues></_>
    <_>
      <internalNodes>
        0 -1 360447 8.7306536734104156e-03</internalNodes>
      <leafValues>
        -2.2045661509037018e-01 4.2964714765548706e-01</leafValues></_>
    <_>
      <internalNodes>
        0 -1 136993 -1.1325795203447342e-03</internalNodes>
      <leafValues>
        7.0338284969329834e-01 -8.3295315504074097e-02</leafValues></_>
    <_>
      <internalNodes>
        0 -1 350359 6.3820737414062023e-03</internalNodes>
      <leafValues>
        -2.2916796803474426e-01 3.9257824420928955e-01</leafValues></_>
    <_>
      <internalNodes>
        0 -1 364901 -2.4223076179623604e-03</internalNodes>
      <leafValues>
        4.2751240730285645e-01 -2.2578771412372589e-01</leafValues></_>
    <_>
      <internalNodes>
        0 -1 339486 -3.4945124387741089e-01</internalNodes>
      <leafValues>
        -8.5964477062225342e-01 9.0206913650035858e-02</leafValues></_>
    <_>
      <internalNodes>
        0 -1 181 -7.3867077007889748e-03</internalNodes>
      <leafValues>
        4.3392693996429443e-01 -2.0243446528911591e-01</leafValues></_>
    <_>
      <internalNodes>
        0 -1 322463 -1.9148483406752348e-03</internalNodes>
      <leafValues>
        3.4072956442832947e-01 -2.6710885763168335e-01</leafValues></_>
    <_>
      <internalNodes>
        0 -1 350301 2.3258982691913843e-03</internalNodes>
      <leafValues>
        -1.7402535676956177e-01 4.7427481412887573e-01</leafValues></_>
    <_>
      <internalNodes>
        0 -1 296032 -1.8759204540401697e-03</internalNodes>
      <leafValues>
        4.9149575829505920e-01 -1.5023756027221680e-01</leafValues></_>
    <_>
      <internalNodes>
        0 -1 282412 2.5567077100276947e-02</internalNodes>
      <leafValues>
        -2.2375403344631195e-01 3.6131075024604797e-01</leafValues></_>
    <_>
      <internalNodes>
        0 -1 251917 -2.2636060602962971e-03</internalNodes>
      <leafValues>
        4.6089023351669312e-01 -1.5563696622848511e-01</leafValues></_>
    <_>
      <internalNodes>
        0 -1 336370 2.3117212112993002e-03</internalNodes>
      <leafValues>
        -2.2590531408786774e-01 3.4247344732284546e-01</leafValues></_>
    <_>
      <internalNodes>
        0 -1 108407 -1.8892482621595263e-03</internalNodes>
      <leafValues>
        4.2735660076141357e-01 -1.7528876662254333e-01</leafValues></_>
    <_>
      <internalNodes>
        0 -1 1 1.5542045002803206e-04</internalNodes>
      <leafValues>
        1.5539211034774780e-01 -4.9477386474609375e-01</leafValues></_>
    <_>
      <internalNodes>
        0 -1 336712 8.9604628738015890e-04</internalNodes>
      <leafValues>
        1.1011148989200592e-01 -5.9405624866485596e-01</leafValues></_>
    <_>
      <internalNodes>
        0 -1 229131 4.5312981819733977e-04</internalNodes>
      <leafValues>
        -2.4213896691799164e-01 3.3027273416519165e-01</leafValues></_>
    <_>
      <internalNodes>
        0 -1 94963 2.3877858184278011e-03</internalNodes>
      <leafValues>
        -1.7021839320659637e-01 4.2517021298408508e-01</leafValues></_>
    <_>
      <internalNodes>
        0 -1 209861 8.5627107182517648e-04</internalNodes>
      <leafValues>
        9.2033892869949341e-02 -7.9421895742416382e-01</leafValues></_>
    <_>
      <internalNodes>
        0 -1 297024 1.4014812186360359e-03</internalNodes>
      <leafValues>
        -1.7222392559051514e-01 4.8159709572792053e-01</leafValues></_>
    <_>
      <internalNodes>
        0 -1 51182 -2.3690126836299896e-02</internalNodes>
      <leafValues>
        -5.9420943260192871e-01 1.3232958316802979e-01</leafValues></_>
    <_>
      <internalNodes>
        0 -1 172333 7.0546683855354786e-04</internalNodes>
      <leafValues>
        -2.0909829437732697e-01 3.4827014803886414e-01</leafValues></_></weakClassifiers></stage11>
</opencv_storage>
