<?xml version="1.0"?>
<opencv_storage>
<stage2>
  <maxWeakCount>7</maxWeakCount>
  <stageThreshold>-5.8977240324020386e-01</stageThreshold>
  <weakClassifiers>
    <_>
      <internalNodes>
        0 -1 18011 -3.4069135785102844e-02</internalNodes>
      <leafValues>
        8.9999997615814209e-01 -1.8799999356269836e-01</leafValues></_>
    <_>
      <internalNodes>
        0 -1 822257 9.6766669303178787e-03</internalNodes>
      <leafValues>
        -3.3711087703704834e-01 7.3302042484283447e-01</leafValues></_>
    <_>
      <internalNodes>
        0 -1 212747 3.3276351168751717e-03</internalNodes>
      <leafValues>
        -2.6527217030525208e-01 7.9992395639419556e-01</leafValues></_>
    <_>
      <internalNodes>
        0 -1 606221 -8.5542583838105202e-04</internalNodes>
      <leafValues>
        7.4513792991638184e-01 -2.8419771790504456e-01</leafValues></_>
    <_>
      <internalNodes>
        0 -1 67796 -1.7524413764476776e-02</internalNodes>
      <leafValues>
        7.2046202421188354e-01 -2.9482284188270569e-01</leafValues></_>
    <_>
      <internalNodes>
        0 -1 373663 9.4450237229466438e-03</internalNodes>
      <leafValues>
        2.5701758265495300e-01 -8.9968687295913696e-01</leafValues></_>
    <_>
      <internalNodes>
        0 -1 150026 -1.6216503456234932e-02</internalNodes>
      <leafValues>
        5.2261358499526978e-01 -4.7968265414237976e-01</leafValues></_></weakClassifiers></stage2>
</opencv_storage>
